svm_type c_svc
kernel_type rbf
gamma 0.03125
nr_class 10
total_sv 585
rho 0.0658051 -0.067687 -0.738071 -0.41943 -0.133496 -0.118479 -0.966458 -0.330874 -0.308646 0.0369991 -0.481152 -0.914207 -0.112216 -0.766831 -0.340868 -0.542366 -0.464357 -0.623423 -0.412349 -0.128521 -0.281072 -0.416772 -0.142447 -0.189235 0.278628 0.677733 0.190379 0.307525 0.68035 0.319184 0.140262 -0.225817 0.165135 0.421264 0.0613134 -0.166336 -0.368909 -0.500631 -0.0751559 -0.156276 0.210573 -0.573584 0.566752 0.0156958 0.37162
label 0 1 2 3 4 5 7 6 8 9
nr_sv 46 65 66 54 59 67 61 43 71 53
SV
0 0 0 0 0 0 0 3.283849582781455 0 0:-1 1:-1 2:-1 3:-1 4:0.16559 5:-1 6:-1 7:-1 8:-1 9:-0.738114 10:-1 11:-1 12:-0.915968 13:-0.0257715 14:-0.280225 15:-0.0268095 16:-0.14639 17:-0.876292 18:-1 19:-1 20:-1 21:0.0245255 22:-1 23:-1 24:-1 25:-1 26:-0.88225 27:-1 28:-1 29:-1 30:-1 31:-0.134232 32:-1 33:-1 34:-1 35:-1 36:-1 37:-0.87825 38:0.09438 39:-0.745075 40:-1 41:-1 42:-1 43:-0.558352 44:-1 45:-1 46:-1 47:-1 48:0.537466 49:-1 50:-1 51:-1 52:-1 53:-1 54:-1 55:-0.92647 56:-1 57:0.266569 58:-1 59:-1 60:-1 61:-1 62:-1 63:-1 64:-0.496895 65:-0.230854 66:-1 67:-1 68:-1 69:-1 70:0.128251 71:-1 72:-1 73:-1 74:-1 75:-0.739498 76:-1 77:-1 78:-1 79:-1 80:-1 81:-1 82:0.282109 83:-0.257729 84:-1 85:-1 86:-1 87:-0.150098 88:-1 89:-1 90:-1 91:-1 92:-0.0980351 93:-1 94:-1 95:-1 96:-1 97:-1 98:-1 99:-0.32747 100:-1 101:-0.294843 102:-1 103:-1 104:-1 105:-1 106:-1 107:-0.152357 108:0.414431 109:-0.227804 110:-1 111:-1 112:-1 113:-1 114:0.294118 115:-1 116:-1 117:-1 118:-1 119:-1 120:-0.783075 121:-0.971056 122:-1 123:-1 124:-1 125:-1 126:-1 127:-0.134022 128:0.0571778 129:-0.00206305 130:-0.686604 131:-0.0297145 
0 0 0 0 0 0.6088404264068038 1.97602967913891 1.923218510450054 0 0:-1 1:-1 2:-1 3:-1 4:-0.6659 5:-1 6:-1 7:-0.978098 8:-1 9:-0.448978 10:-1 11:-0.865627 12:-0.861144 13:-0.0181845 14:-0.365281 15:-0.141824 16:0.254554 17:-0.672725 18:-0.750648 19:-0.890908 20:-0.745454 21:0.0274587 22:-1 23:-1 24:-1 25:-1 26:-1 27:-1 28:-1 29:-1 30:-1 31:0.0767935 32:-1 33:-1 34:-1 35:-1 36:-1 37:-0.785279 38:-0.517476 39:-0.775205 40:-1 41:-1 42:-1 43:-0.771638 44:-1 45:-1 46:-1 47:-1 48:0.185382 49:-1 50:-1 51:-1 52:-1 53:-1 54:-1 55:-0.664053 56:-1 57:0.340258 58:-1 59:-1 60:-1 61:-1 62:-1 63:-1 64:-0.778179 65:-0.226599 66:-1 67:-1 68:-1 69:-1 70:-0.10852 71:-1 72:-1 73:-1 74:-1 75:-0.704368 76:-1 77:-1 78:-1 79:-1 80:-1 81:-0.672725 82:0.319004 83:-0.345461 84:-1 85:-1 86:-1 87:0.182757 88:-1 89:-1 90:-1 91:-1 92:-0.325871 93:-1 94:-1 95:-1 96:-1 97:-1 98:-1 99:-0.29915 100:-1 101:-0.481814 102:-1 103:-1 104:-1 105:-1 106:-1 107:-0.402016 108:0.425447 109:-0.316565 110:-1 111:-1 112:-1 113:-1 114:0.231803 115:-1 116:-1 117:-1 118:-1 119:-1 120:-0.780308 121:-1 122:-1 123:-1 124:-1 125:-1 126:-1 127:-0.345461 128:0.0875997 129:0.100001 130:-0.723632 131:-0.011268 
0 0 0.3529025035084679 0 0 0.2932512020755182 0 0.3048098210278984 0 0:-1 1:-1 2:-0.293548 3:-0.974801 4:0.12759 5:-1 6:-1 7:-0.886148 8:-1 9:-1 10:-1 11:-1 12:-0.897136 13:-0.551489 14:-0.478108 15:-0.255151 16:-0.908313 17:-0.760792 18:0.0934899 19:-0.561461 20:-0.813941 21:-0.0229112 22:-1 23:-1 24:-0.362 25:-1 26:-0.279304 27:-1 28:-1 29:-1 30:-1 31:-0.646748 32:-1 33:-1 34:-1 35:-0.913011 36:-1 37:-0.823448 38:-0.235884 39:-0.794628 40:-1 41:-0.840532 42:0.421929 43:-0.0640819 44:-1 45:-1 46:-0.963376 47:-0.930999 48:0.222196 49:-1 50:-1 51:-0.856257 52:-1 53:-1 54:-1 55:-0.82897 56:-1 57:-0.0204127 58:-0.934667 59:-1 60:-0.534895 61:-0.0845337 62:-0.777391 63:-1 64:-0.756805 65:-0.203604 66:-1 67:-1 68:-1 69:-1 70:0.678407 71:-1 72:-1 73:-1 74:-1 75:-0.973798 76:-0.969108 77:-1 78:-1 79:-0.255808 80:-0.891652 81:-1 82:-0.862267 83:-0.441857 84:-0.859127 85:-1 86:-0.644512 87:-0.402164 88:-1 89:-1 90:-1 91:-1 92:-0.286755 93:-1 94:-1 95:-1 96:-1 97:-1 98:-1 99:-0.329834 100:-1 101:-0.772753 102:-1 103:-0.870725 104:0.315609 105:-0.865062 106:-1 107:-0.78147 108:-0.218608 109:-0.342781 110:-1 111:-1 112:-1 113:-1 114:0.163515 115:-1 116:-1 117:-1 118:-1 119:-1 120:-0.669338 121:-0.989977 122:-1 123:-0.817081 124:0.275744 125:-0.668944 126:-0.895594 127:-0.720929 128:-0.375411 129:-0.557805 130:-0.89901 131:-0.146906 
0 0 0 0 0 0 0 0.3395886906697672 0 0:-1 1:-1 2:-1 3:-1 4:0.864143 5:-1 6:-1 7:-1 8:-1 9:-1 10:-1 11:-1 12:-0.902344 13:-0.0878311 14:-0.17445 15:0.355403 16:-1 17:-1 18:-1 19:-1 20:-1 21:0.120586 22:-1 23:-1 24:-1 25:-1 26:-0.101131 27:-1 28:-1 29:-1 30:-1 31:-0.524353 32:-1 33:-1 34:-1 35:-1 36:-1 37:-0.800514 38:0.793141 39:-0.74939 40:-1 41:-1 42:-1 43:-0.142561 44:-1 45:-1 46:-1 47:-1 48:0.548316 49:-1 50:-1 51:-1 52:-1 53:-1 54:-1 55:-0.881523 56:-1 57:0.162165 58:-1 59:-1 60:-1 61:-1 62:-1 63:-1 64:-0.340539 65:-0.334597 66:-1 67:-1 68:-1 69:-1 70:0.669527 71:-1 72:-1 73:-1 74:-1 75:-0.93394 76:-0.986453 77:-1 78:-1 79:-1 80:-1 81:-1 82:-0.439803 83:0.0540539 84:-0.856752 85:-1 86:-1 87:-0.441396 88:-1 89:-1 90:-1 91:-1 92:-0.0550551 93:-1 94:-1 95:-1 96:-1 97:-1 98:-1 99:-0.493782 100:-1 101:-0.537834 102:-1 103:-1 104:-1 105:-1 106:-1 107:-0.111115 108:0.456748 109:-0.251923 110:-1 111:-1 112:-1 113:-1 114:0.242704 115:-1 116:-1 117:-1 118:-1 119:-1 120:-0.733089 121:-1 122:-1 123:-1 124:-1 125:-1 126:-1 127:-0.513509 128:0.270268 129:-0.0189184 130:-0.794586 131:-0.16318 
0 0 0 0 0 0 0 0 0.003592392654799252 0:-1 1:-1 2:-1 3:-1 4:0.47733 5:-0.993968 6:-1 7:-1 8:-1 9:-1 10:-1 11:-1 12:-0.753636 13:-0.216122 14:0.238718 15:-0.314835 16:-0.821925 17:-1 18:-1 19:-1 20:-1 21:-0.180192 22:-1 23:-1 24:-1 25:-1 26:0.563023 27:-1 28:-1 29:-1 30:-1 31:-0.740186 32:-1 33:-1 34:-1 35:-1 36:-1 37:-0.65714 38:0.369727 39:-0.361877 40:-1 41:-1 42:-1 43:-0.200273 44:-1 45:-1 46:-1 47:-1 48:0.430749 49:-1 50:-1 51:-1 52:-1 53:-1 54:-1 55:-0.89452 56:-1 57:0.268203 58:-1 59:-1 60:-1 61:-1 62:-1 63:-1 64:-0.370332 65:-0.138271 66:-1 67:-1 68:-1 69:-1 70:0.728154 71:-1 72:-1 73:-1 74:-1 75:-1 76:-1 77:-1 78:-1 79:-1 80:-1 81:-1 82:-1 83:0.548381 84:-1 85:-1 86:-1 87:-0.354621 88:-1 89:-1 90:-1 91:-1 92:-0.185255 93:-1 94:-1 95:-1 96:-1 97:-1 98:-1 99:-0.406043 100:-1 101:-0.485166 102:-1 103:-1 104:-1 105:-1 106:-1 107:-0.681719 108:0.643869 109:-0.265077 110:-1 111:-1 112:-1 113:-1 114:0.387002 115:-1 116:-1 117:-1 118:-1 119:-1 120:-0.802203 121:-0.994988 122:-1 123:-1 124:-1 125:-1 126:-1 127:-0.148386 128:-0.00761402 129:-0.0632286 130:-0.803858 131:-0.0437329 
0 0 0 0 0 0 0 0.1507757015000805 0 0:-1 1:-1 2:-1 3:-1 4:0.47532 5:-0.93774 6:-1 7:-1 8:-1 9:-1 10:-1 11:-1 12:-0.773584 13:-0.161015 14:0.28197 15:-0.266667 16:-0.688149 17:-0.796612 18:-1 19:-1 20:-1 21:-0.13176 22:-1 23:-1 24:-1 25:-1 26:0.49464 27:-1 28:-1 29:-1 30:-1 31:-0.77255 32:-1 33:-1 34:-1 35:-1 36:-1 37:-0.633037 38:0.19949 39:-0.441189 40:-1 41:-1 42:-1 43:-0.122879 44:-1 45:-1 46:-1 47:-1 48:0.388868 49:-1 50:-1 51:-1 52:-1 53:-1 54:-1 55:-0.829608 56:-1 57:0.0411632 58:-1 59:-1 60:-1 61:-1 62:-1 63:-1 64:-0.310723 65:-0.203282 66:-1 67:-1 68:-1 69:-1 70:0.609346 71:-1 72:-1 73:-1 74:-1 75:-0.98383 76:-1 77:-1 78:-1 79:-1 80:-1 81:-1 82:-0.765802 83:0.220338 84:-1 85:-1 86:-1 87:-0.350373 88:-1 89:-1 90:-1 91:-1 92:0.0835591 93:-1 94:-1 95:-1 96:-1 97:-1 98:-1 99:-0.447377 100:-1 101:-0.484744 102:-1 103:-1 104:-1 105:-1 106:-1 107:-0.442568 108:0.550279 109:-0.265489 110:-1 111:-1 112:-1 113:-1 114:0.601085 115:-1 116:-1 117:-1 118:-1 119:-1 120:-0.866805 121:-1 122:-1 123:-1 124:-1 125:-1 126:-1 127:-0.186438 128:-0.130976 129:0.162146 130:-1 131:-0.109327 
0 0 0 0 0 0 0 0.0581929887892039 0 0:-1 1:-1 2:-1 3:-1 4:0.398362 5:-1 6:-1 7:-1 8:-1 9:-1 10:-1 11:-1 12:-0.693876 13:-0.821192 14:0.618303 15:-0.140396 16:-1 17:-1 18:-1 19:-1 20:-1 21:-0.197706 22:-1 23:-1 24:-1 25:-1 26:0.566372 27:-0.994662 28:-1 29:-1 30:-1 31:-0.791864 32:-1 33:-1 34:-0.986574 35:-1 36:-0.662251 37:-0.608958 38:0.171678 39:-0.263092 40:-1 41:-1 42:-1 43:-0.0422622 44:-1 45:-1 46:-1 47:-1 48:0.600214 49:-1 50:-1 51:-1 52:-1 53:-1 54:-1 55:-0.92347 56:-1 57:0.301792 58:-1 59:-1 60:-1 61:-1 62:-1 63:-1 64:-0.676821 65:-0.249578 66:-1 67:-1 68:-1 69:-1 70:0.595661 71:-1 72:-1 73:-1 74:-1 75:-0.98887 76:-0.940939 77:-1 78:-1 79:-1 80:-1 81:-1 82:-0.725467 83:0.0331139 84:-0.5788 85:-1 86:-1 87:-0.324056 88:-1 89:-1 90:-1 91:-1 92:0.240261 93:-1 94:-1 95:-0.993245 96:-1 97:-1 98:-1 99:-0.62463 100:-1 101:-0.47152 102:-1 103:-1 104:-1 105:-1 106:-0.851645 107:-0.0198648 108:0.557609 109:-0.129236 110:-1 111:-1 112:-1 113:-1 114:0.102047 115:-1 116:-1 117:-1 118:-1 119:-1 120:-0.664754 121:-1 122:-1 123:-1 124:-1 125:-1 126:-1 127:-0.523181 128:0.245041 129:-0.118538 130:-1 131:-0.24018 
0.2920908063734362 0 0 0 0 0.02283328301035241 0 0 0 0:0.434001 1:-1 2:-0.772189 3:-1 4:-1 5:-1 6:-1 7:-1 8:-0.602779 9:-1 10:-1 11:-1 12:-0.640744 13:-0.653846 14:-0.731461 15:-0.455384 16:-1 17:-0.692309 18:-0.859347 19:-0.569237 20:-0.856417 21:-0.424969 22:-0.0634119 23:-1 24:-0.81417 25:-1 26:-0.907907 27:-1 28:-1 29:-1 30:-0.574878 31:-0.548626 32:-1 33:-1 34:-1 35:-0.86574 36:-1 37:-0.848596 38:-0.0926992 39:-0.746385 40:-1 41:-0.876922 42:0.396716 43:-0.227752 44:1 45:-1 46:-1 47:-1 48:-0.935586 49:-1 50:-1 51:-1 52:-0.995036 53:-1 54:-1 55:-1 56:-0.845404 57:-0.495967 58:-0.495727 59:-1 60:-1 61:-0.0814751 62:-0.828211 63:-1 64:-0.874876 65:-0.235688 66:0.335536 67:-1 68:-1 69:-1 70:-0.439457 71:-1 72:-1 73:-1 74:-1 75:-0.99343 76:-1 77:-1 78:-1 79:-0.09744 80:-0.832749 81:-1 82:-0.89371 83:-0.199998 84:-1 85:-1 86:-0.634204 87:-0.206212 88:0.271848 89:-1 90:-1 91:-1 92:-0.907992 93:-1 94:-1 95:-1 96:-1 97:-1 98:-1 99:-0.828628 100:-1 101:-0.415387 102:-0.895389 103:-0.401405 104:-0.261538 105:-0.583434 106:-1 107:-0.156699 108:-0.497437 109:0.0315096 110:0.033623 111:-1 112:-1 113:-1 114:-0.903618 115:-1 116:-1 117:-1 118:-1 119:-1 120:-0.525002 121:-1 122:-1 123:-0.78823 124:0.148704 125:-0.707992 126:-1 127:-0.81538 128:-0.0358995 129:-0.627695 130:-1 131:-0.122286 
0 0 0 0 0 0 5.833414292059308 8 0 0:-1 1:-1 2:-1 3:-1 4:-0.954353 5:-1 6:-1 7:-1 8:-1 9:-1 10:-1 11:-1 12:-0.401164 13:-0.602938 14:0.368981 15:-0.652939 16:-1 17:-1 18:-1 19:-1 20:-1 21:-0.278721 22:-1 23:-1 24:-1 25:-1 26:-1 27:-1 28:-0.703493 29:-1 30:-1 31:-0.141448 32:-1 33:-1 34:-0.978978 35:-1 36:-0.749997 37:-0.768439 38:-0.132719 39:-0.393936 40:-0.392151 41:-0.941176 42:-1 43:-0.537806 44:-1 45:-1 46:-1 47:-1 48:0.210925 49:-1 50:-1 51:-1 52:-1 53:-1 54:-1 55:-1 56:-0.902827 57:0.204477 58:-0.421564 59:-1 60:-1 61:-1 62:-1 63:-1 64:-1 65:-0.0565129 66:-1 67:-1 68:-1 69:-1 70:-0.0219636 71:-1 72:-1 73:-1 74:-1 75:-0.581398 76:-1 77:-1 78:-1 79:-1 80:-1 81:-1 82:0.422454 83:-0.294113 84:-1 85:-1 86:-1 87:-0.141828 88:-1 89:-1 90:-1 91:-1 92:0.0784911 93:-1 94:-1 95:-1 96:-1 97:-1 98:-1 99:-0.615738 100:-1 101:-0.217654 102:-1 103:-1 104:-1 105:-1 106:-1 107:-0.193896 108:0.537245 109:-0.054497 110:-1 111:-1 112:-1 113:-1 114:0.406978 115:-1 116:-1 117:-1 118:-1 119:-0.955237 120:-0.774876 121:-1 122:-1 123:-1 124:-1 125:-1 126:-0.691873 127:-0.176478 128:0.00535801 129:0.0676452 130:-1 131:-0.0871954 
0 0 0 0.01624918782943723 0 0 0 0 2.182885347140814 0:-1 1:-1 2:-1 3:-1 4:-0.109988 5:-1 6:-1 7:-1 8:-1 9:-1 10:-1 11:-1 12:-0.611336 13:-0.289467 14:0.14832 15:-0.223692 16:-1 17:-1 18:-1 19:-1 20:-1 21:-0.175738 22:-1 23:-1 24:-1 25:-1 26:0.418312 27:-1 28:-1 29:-1 30:-1 31:-0.777541 32:-1 33:-1 34:-1 35:-1 36:-1 37:-0.533837 38:-0.301611 39:0.138751 40:-1 41:-1 42:-1 43:-0.13903 44:-1 45:-1 46:-1 47:-1 48:0.587256 49:-1 50:-1 51:-1 52:-1 53:-1 54:-1 55:-1 56:-1 57:0.616539 58:-1 59:-1 60:-1 61:-1 62:-1 63:-1 64:-1 65:-0.0870065 66:-1 67:-1 68:-1 69:-1 70:0.151082 71:-1 72:-1 73:-1 74:-1 75:-1 76:-0.513121 77:-1 78:-1 79:-1 80:-1 81:-1 82:-1 83:0.105258 84:-0.163155 85:-1 86:-1 87:-0.150624 88:-1 89:-1 90:-1 91:-1 92:-0.489881 93:-1 94:-1 95:-1 96:-1 97:-1 98:-1 99:-0.584974 100:-1 101:-0.100006 102:-1 103:-1 104:-1 105:-1 106:-1 107:0.0818602 108:0.0315853 109:-0.105389 110:-1 111:-1 112:-1 113:-1 114:-0.955461 115:-1 116:-1 117:-1 118:-1 119:-1 120:0.170514 121:-1 122:-1 123:-1 124:-1 125:-1 126:-1 127:-0.368417 128:0.124396 129:-0.681576 130:-1 131:-0.464357 
0 0 0 0 1.042058922091038 0 0 0 0 0:-0.730366 1:-0.459249 2:-1 3:-1 4:-0.941791 5:-0.469781 6:-1 7:-1 8:-1 9:-0.616929 10:-1 11:-1 12:-0.911028 13:-0.315671 14:-0.43695 15:-0.564982 16:-0.618431 17:-0.557609 18:-0.620802 19:-0.612905 20:-0.870977 21:-0.0583901 22:-0.826653 23:-1 24:-1 25:-1 26:-0.896109 27:-1 28:-1 29:-1 30:-1 31:-0.371934 32:-1 33:-1 34:-1 35:-1 36:-1 37:-0.700682 38:-0.347753 39:-0.943028 40:-0.809515 41:-0.889402 42:-0.282791 43:-0.124992 44:0.289369 45:-0.265067 46:-1 47:-1 48:-1 49:-0.480255 50:-1 51:-1 52:-0.987397 53:-1 54:-1 55:-0.972198 56:-1 57:-0.490451 58:-0.909376 59:-1 60:-0.741926 61:-0.428566 62:-0.845631 63:-1 64:-0.775105 65:-0.413713 66:0.917074 67:-1 68:-1 69:-1 70:-1 71:-1 72:-1 73:-1 74:-1 75:-0.955516 76:-0.973776 77:-1 78:-1 79:-0.5576 80:-1 81:-1 82:-0.713445 83:-0.557609 84:-0.902311 85:-0.80645 86:-0.0138208 87:-0.328044 88:-0.299231 89:-0.857471 90:-1 91:-1 92:-0.922146 93:-0.589256 94:-1 95:-1 96:-1 97:-1 98:-1 99:-0.604975 100:-1 101:-0.789864 102:-1 103:-0.103478 104:-0.00460796 105:-0.875216 106:-1 107:-0.0906251 108:-0.187091 109:-0.119968 110:0.382441 111:-1 112:-1 113:-1 114:-0.959223 115:-1 116:-1 117:-1 118:-1 119:-1 120:-0.622001 121:-1 122:-1 123:-0.936572 124:0.179712 125:-0.343996 126:-1 127:-0.778804 128:-0.369925 129:-0.219355 130:-1 131:-0.167133 
0 0 0 0 0 0 0 3.528258850441462 0 0:-1 1:-1 2:-1 3:-1 4:0.337924 5:-0.995896 6:-1 7:-1 8:-1 9:-1 10:-1 11:-1 12:-0.727872 13:-0.646597 14:0.188012 15:-0.0115168 16:-0.711001 17:-1 18:-1 19:-1 20:-1 21:-0.0789032 22:-1 23:-1 24:-1 25:-1 26:0.244875 27:-0.977201 28:-1 29:-1 30:-1 31:-0.735365 32:-1 33:-1 34:-1 35:-1 36:-0.732988 37:-0.44353 38:0.204197 39:-0.611609 40:-1 41:-1 42:-1 43:0.107808 44:-1 45:-1 46:-1 47:-1 48:0.692895 49:-1 50:-1 51:-1 52:-1 53:-1 54:-1 55:-1 56:-0.921495 57:-0.0351555 58:-0.588141 59:-1 60:-1 61:-1 62:-1 63:-1 64:-1 65:-0.420159 66:-1 67:-1 68:-1 69:-1 70:0.705787 71:-1 72:-1 73:-1 74:-1 75:-0.992074 76:-0.953276 77:-1 78:-1 79:-1 80:-1 81:-1 82:-0.782964 83:-0.120426 84:-0.667013 85:-1 86:-1 87:-0.361557 88:-1 89:-1 90:-1 91:-1 92:0.738438 93:-1 94:-1 95:-1 96:-1 97:-1 98:-1 99:-0.820038 100:-1 101:-0.582202 102:-1 103:-1 104:-1 105:-1 106:-1 107:0.894115 108:0.231407 109:-0.19079 110:-1 111:-1 112:-1 113:-1 114:0.195184 115:-1 116:-1 117:-1 118:-1 119:-1 120:-0.687981 121:-1 122:-1 123:-1 124:-1 125:-1 126:-1 127:-0.748697 128:0.252732 129:0.203661 130:-1 131:-0.257774 
0 0 0 0 0 0 0 2.92005264555045 0 0:-1 1:-1 2:-1 3:-1 4:-0.600452 5:-1 6:-1 7:-1 8:-0.913482 9:-1 10:-1 11:-1 12:-0.653944 13:-0.215109 14:0.0148102 15:-0.45116 16:-0.679068 17:-1 18:-1 19:-1 20:-0.674418 21:-0.0524863 22:-1 23:-1 24:-1 25:-1 26:-0.072937 27:-1 28:-1 29:-1 30:-1 31:-0.219368 32:-1 33:-1 34:-1 35:-1 36:-1 37:-0.794018 38:0.0286351 39:-0.137428 40:-1 41:-1 42:-1 43:-0.553103 44:-1 45:-1 46:-1 47:-1 48:-0.127104 49:-1 50:-1 51:-1 52:-0.988463 53:-1 54:-1 55:-1 56:-0.697568 57:0.28571 58:-0.542632 59:-1 60:-1 61:-1 62:-1 63:-1 64:-0.716276 65:0.0207015 66:-1 67:-1 68:-1 69:-1 70:0.495145 71:-1 72:-0.983402 73:-1 74:-1 75:-0.877864 76:-0.928 77:-1 78:-1 79:-1 80:-1 81:-1 82:-0.276948 83:-0.023262 84:-0.506975 85:-1 86:-1 87:-0.234067 88:-1 89:-1 90:-1 91:-1 92:-0.145033 93:-1 94:-1 95:-1 96:-1 97:-1 98:-1 99:-0.725426 100:-0.872998 101:-0.0720991 102:-0.762788 103:-1 104:-1 105:-1 106:-1 107:-0.043923 108:0.139542 109:0.000153513 110:-1 111:-1 112:-1 113:-1 114:-0.748089 115:-1 116:-1 117:-1 118:-1 119:-1 120:-0.0804183 121:-1 122:-1 123:-1 124:-1 125:-1 126:-1 127:-0.441857 128:0.589851 129:-0.718602 130:-1 131:-0.331533 
0.3931139396835103 0 0 0 0 0 0 0 0 0:-1 1:-1 2:-1 3:-1 4:-0.70558 5:-1 6:-1 7:-1 8:-1 9:-1 10:-1 11:-1 12:-0.265 13:-0.391892 14:0.257988 15:-0.893694 16:-1 17:-1 18:-1 19:-1 20:-1 21:-0.498395 22:-1 23:-1 24:-1 25:-1 26:-0.334389 27:-1 28:-0.985 29:-1 30:-1 31:-0.587895 32:-1 33:-1 34:-0.873408 35:-1 36:-0.310808 37:-0.840412 38:0.115735 39:0.00245418 40:-0.813814 41:-1 42:-1 43:-0.0998386 44:-1 45:-1 46:-1 47:-1 48:0.359934 49:-1 50:-1 51:-1 52:-1 53:-1 54:-1 55:-1 56:-0.823572 57:0.438863 58:-0.291293 59:-1 60:-1 61:-1 62:-1 63:-1 64:-1 65:-0.114492 66:-1 67:-1 68:-1 69:-1 70:0.291279 71:-1 72:-1 73:-1 74:-1 75:-1 76:-0.858519 77:-1 78:-1 79:-1 80:-1 81:-1 82:-1 83:0.513509 84:-0.42703 85:-1 86:-1 87:-0.0161483 88:-1 89:-1 90:-1 91:-1 92:0.120001 93:-1 94:-1 95:-1 96:-1 97:-1 98:-0.88072 99:-0.784186 100:-1 101:0.232428 102:-1 103:-1 104:-1 105:-1 106:-0.596398 107:-0.40741 108:0.0594565 109:0.0488434 110:-1 111:-1 112:-1 113:-1 114:-0.76625 115:-1 116:-0.973214 117:-1 118:-1 119:-1 120:-0.0706967 121:-1 122:-1 123:-1 124:-1 125:-1 126:-0.716858 127:-0.567569 128:0.539724 129:-0.890991 130:-1 131:-0.434412 
0 0.8314942431107682 0 0 0 0 0 0 0 0:-1 1:-1 2:-0.920371 3:-1 4:-0.855726 5:-1 6:-1 7:-1 8:-0.444611 9:-1 10:-1 11:-1 12:-0.589588 13:-0.263642 14:-0.047939 15:-0.249097 16:-1 17:-1 18:-0.750648 19:-0.563633 20:-0.745454 21:-0.350876 22:-1 23:-1 24:-1 25:-1 26:-0.291846 27:-1 28:-1 29:-1 30:-1 31:-0.586283 32:-1 33:-1 34:-0.955685 35:-1 36:-0.768178 37:-0.83896 38:0.447555 39:-0.438012 40:-1 41:-1 42:-1 43:-0.0802525 44:-1 45:-1 46:-1 47:-1 48:0.0806943 49:-1 50:-1 51:-1 52:-0.951403 53:-1 54:-1 55:-1 56:-0.635963 57:-0.106499 58:0.0727174 59:-1 60:-1 61:-1 62:-1 63:-1 64:-1 65:-0.287157 66:-1 67:-1 68:-1 69:-1 70:0.422322 71:-1 72:-1 73:-1 74:-1 75:-1 76:-0.772505 77:-1 78:-1 79:-1 80:-1 81:-1 82:-1 83:0.0909058 84:-0.229086 85:-1 86:-1 87:-0.185795 88:-1 89:-1 90:-1 91:-1 92:-0.013783 93:-1 94:-1 95:-0.977712 96:-1 97:-1 98:-0.926937 99:-0.859538 100:-1 101:0.243635 102:-1 103:-1 104:-1 105:-0.876922 106:-0.592725 107:-0.25252 108:-0.109084 109:0.155956 110:-1 111:-1 112:-1 113:-1 114:-0.76416 115:-1 116:-1 117:-1 118:-1 119:-1 120:0.106878 121:-1 122:-1 123:-1 124:-1 125:-1 126:-1 127:-0.563633 128:0.398347 129:-0.889999 130:-1 131:-0.424658 
0.7694061556326418 0 0 0 0 0.3444279939653783 2.891487893873525 0 0.4756454898480024 0:-1 1:-0.283082 2:-1 3:-1 4:-1 5:-1 6:-0.880592 7:-1 8:-1 9:-1 10:-1 11:-1 12:-0.513428 13:-0.617923 14:-0.176667 15:-0.833019 16:-0.869811 17:-0.773584 18:0.0350398 19:-0.943396 20:-1 21:-0.160204 22:-0.556731 23:-0.713021 24:-1 25:-1 26:-1 27:-0.763758 28:-0.924172 29:-1 30:-1 31:-0.359818 32:-1 33:-1 34:-1 35:-0.814751 36:-0.879716 37:-0.832884 38:-0.582725 39:-0.650085 40:-0.902515 41:-0.886792 42:-0.449399 43:-0.509121 44:-1 45:1 46:-1 47:-1 48:-1 49:-1 50:-1 51:-1 52:-1 53:-1 54:-1 55:-1 56:-0.853308 57:-0.246629 58:-0.62893 59:-1 60:-1 61:-0.0901413 62:-0.525938 63:-1 64:-1 65:-0.0670677 66:-0.0282517 67:-0.33397 68:-1 69:-1 70:-1 71:-0.464657 72:-1 73:-1 74:-1 75:-0.976306 76:-0.910598 77:-1 78:-1 79:0.13208 80:-0.846154 81:-1 82:-0.902229 83:-0.264149 84:-0.7 85:-1 86:-0.831761 87:-0.136538 88:-1 89:0.606196 90:-1 91:-1 92:-0.756708 93:-1 94:-1 95:-1 96:-1 97:-1 98:-0.974872 99:-0.876409 100:-1 101:-0.40849 102:-0.711319 103:-0.541166 104:0.0188638 105:-0.616834 106:-0.788679 107:-0.224318 108:-0.445282 109:0.0311149 110:-0.711457 111:-0.519233 112:-1 113:-1 114:-1 115:-0.611643 116:-1 117:-1 118:-1 119:-1 120:-0.400527 121:-1 122:-1 123:-0.870144 124:0.358496 125:-0.865704 126:-1 127:-0.716981 128:-0.19382 129:-0.714621 130:-1 131:-0.305695 
0 0.6293601765599532 0.3079021257492212 0 0.4344796375940601 0 0.3846794290335876 0.1641922965581528 0 0:-1 1:-1 2:-1 3:-1 4:-0.716336 5:-1 6:-1 7:-1 8:-1 9:-1 10:-1 11:-1 12:-0.308388 13:-0.845708 14:-0.202081 15:-0.865138 16:-1 17:-0.862852 18:-0.373068 19:-1 20:-1 21:-0.49167 22:-1 23:-1 24:-1 25:-0.822238 26:-0.367165 27:-1 28:-1 29:-1 30:-1 31:-0.799117 32:-1 33:-1 34:-0.962659 35:-0.850384 36:-0.854292 37:-0.73007 38:-0.292305 39:-0.576101 40:-0.645711 41:-0.897142 42:0.55636 43:0.175718 44:-1 45:-1 46:-1 47:-1 48:0.0243955 49:-1 50:-1 51:-1 52:-1 53:-1 54:-1 55:-1 56:-0.616589 57:-0.578773 58:-0.325709 59:-1 60:-1 61:-0.448888 62:-0.0428636 63:-1 64:-1 65:-0.137659 66:-1 67:-1 68:-1 69:1 70:0.39408 71:-1 72:-1 73:-1 74:-1 75:-1 76:-1 77:-1 78:-1 79:-0.177136 80:-0.62724 81:-1 82:-1 83:-0.245718 84:-0.878864 85:-1 86:-0.796202 87:-0.409116 88:-1 89:-1 90:-1 91:-1 92:0.318717 93:-1 94:-1 95:-0.981221 96:-1 97:-1 98:-1 99:-0.693685 100:-0.935601 101:-0.60914 102:-0.883434 103:-0.444166 104:0.234286 105:-0.76791 106:-0.743991 107:-0.342224 108:-0.104007 109:-0.0074037 110:-1 111:-0.960743 112:-1 113:0.2705 114:-0.375485 115:-1 116:-0.944704 117:-0.977999 118:-1 119:-1 120:-0.513696 121:-1 122:-1 123:-0.842683 124:0.28 125:-0.837305 126:-0.640801 127:-0.657149 128:-0.41402 129:-0.44686 130:-0.652556 131:-0.311069 
0 0 0 0 0 0 0 0.9430655957056623 0 0:-1 1:-1 2:-1 3:-1 4:-0.80416 5:-1 6:-1 7:-1 8:-1 9:-1 10:-1 11:-1 12:-0.396824 13:-0.397319 14:-0.0649398 15:-0.473214 16:-1 17:-1 18:-1 19:-1 20:-1 21:-0.346544 22:-1 23:-1 24:-1 25:-1 26:0.318667 27:-0.986955 28:-1 29:-1 30:-1 31:-0.844252 32:-1 33:-1 34:-0.934389 35:-1 36:-0.544644 37:-0.578229 38:0.105774 39:-0.227274 40:-1 41:-1 42:-1 43:0.0119422 44:-1 45:-1 46:-1 47:-1 48:0.177933 49:-1 50:-1 51:-1 52:-1 53:-1 54:-1 55:-1 56:-0.789437 57:-0.232144 58:0.0535621 59:-1 60:-1 61:-1 62:-1 63:-1 64:-1 65:-0.125804 66:-1 67:-1 68:-1 69:-1 70:0.611782 71:-1 72:-1 73:-1 74:-1 75:-1 76:-0.823552 77:-1 78:-1 79:-1 80:-1 81:-1 82:-1 83:-0.142854 84:-0.0535722 85:-1 86:-1 87:-0.365743 88:-1 89:-1 90:-1 91:-1 92:1 93:-1 94:-1 95:-0.933982 96:-1 97:-1 98:-1 99:-0.91436 100:-1 101:0.119637 102:-1 103:-1 104:-1 105:-0.879115 106:-0.600004 107:0.0277746 108:0.224998 109:-0.119613 110:-1 111:-1 112:-1 113:-1 114:-0.363946 115:-1 116:-1 117:-1 118:-1 119:-1 120:-0.285872 121:-1 122:-1 123:-1 124:-1 125:-1 126:-1 127:-0.464285 128:0.373377 129:-0.56786 130:-1 131:-0.22869 
5.420690191662803 3.404777653709238 1.208172561639637 2.417861230397091 1.836568952331001 1.267636241640043 1.823661846567004 6.273376157856583 1.754976501900186 0:-1 1:-1 2:-1 3:-1 4:-1 5:-1 6:-1 7:-1 8:-1 9:-1 10:-1 11:-1 12:0.081692 13:-0.635135 14:-0.292373 15:-0.840535 16:-1 17:-1 18:-1 19:-1 20:-1 21:-0.822347 22:-1 23:-1 24:-1 25:-1 26:-0.723694 27:-1 28:-1 29:-1 30:-1 31:-0.974202 32:-1 33:-1 34:-0.429437 35:-1 36:0.0338004 37:-0.44144 38:-0.760905 39:0.169536 40:-0.72071 41:-1 42:-1 43:0.293548 44:-1 45:-1 46:-1 47:-1 48:-0.917169 49:-1 50:-1 51:-1 52:-1 53:-1 54:-1 55:-1 56:0.213679 57:-0.16988 58:0.0630611 59:-1 60:-1 61:-1 62:-1 63:-1 64:-1 65:-0.203604 66:-1 67:-1 68:-1 69:-1 70:-0.0923135 71:-1 72:-1 73:-1 74:-1 75:-1 76:-0.461975 77:-1 78:-1 79:-1 80:-1 81:-1 82:-1 83:-0.189186 84:0.14594 85:-0.810804 86:-1 87:-0.161243 88:-1 89:-1 90:-1 91:-1 92:-0.80281 93:-1 94:-1 95:-1 96:-1 97:-1 98:-0.820794 99:-1 100:-0.484507 101:-0.0756787 102:0.102704 103:-1 104:-1 105:-1 106:-0.394597 107:1 108:-1 109:0.38362 110:-1 111:-1 112:-1 113:-1 114:-0.969013 115:-1 116:-1 117:-1 118:-1 119:-1 120:0.352508 121:-1 122:-1 123:-1 124:-1 125:-1 126:-1 127:-0.513509 128:-0.0761658 129:-0.672973 130:-1 131:-0.639341 
0.3992210354653922 0 0 0 0.342293164663369 0 0 0 0.03076772731981011 0:-1 1:-1 2:-1 3:-1 4:-0.565954 5:-1 6:-1 7:-1 8:-1 9:-1 10:-1 11:-1 12:-0.473172 13:-0.580744 14:-0.34952 15:-0.780119 16:-0.828577 17:-0.701861 18:-0.488898 19:-1 20:-0.826093 21:-0.219693 22:-1 23:-1 24:-1 25:-1 26:-0.362022 27:-1 28:-1 29:-1 30:-1 31:-0.419257 32:-1 33:-1 34:-1 35:-0.918692 36:-1 37:-0.853296 38:-0.120883 39:-0.769616 40:-0.871639 41:-0.925468 42:0.208358 43:-0.289554 44:-1 45:-1 46:0.636025 47:-0.669626 48:-0.872504 49:-1 50:-1 51:-0.618651 52:-1 53:-1 54:-1 55:-1 56:-0.782581 57:-0.389536 58:-0.511382 59:-1 60:-1 61:-0.315395 62:-0.167686 63:-1 64:-1 65:-0.0686093 66:-1 67:-1 68:0.744389 69:-1 70:-0.753439 71:-1 72:-1 73:-1 74:-1 75:-0.990244 76:-1 77:-1 78:-1 79:-0.105584 80:-0.797427 81:-1 82:-0.871263 83:-0.254657 84:-0.868327 85:-1 86:-0.556951 87:-0.140006 88:-1 89:-1 90:1 91:-0.158415 92:-1 93:-1 94:-1 95:-0.408237 96:-1 97:-1 98:-1 99:-0.824543 100:-1 101:-0.150314 102:-1 103:-0.516653 104:-0.329181 105:-0.411374 106:-0.721748 107:-0.489303 108:-0.513039 109:-0.176961 110:-1 111:-1 112:0.322184 113:-1 114:-1 115:-1 116:-1 117:-1 118:-1 119:-1 120:-0.462734 121:-1 122:-1 123:-0.658016 124:0.192544 125:-0.823169 126:-1 127:-0.701861 128:-0.150768 129:-0.624222 130:-1 131:-0.237529 
0.9220094201992738 2.318069204566461 1.985082376047748 0.4428083279683695 1.795039251854855 0.9704124572306292 1.525301975678804 0.5049525798916779 0.1685268780717883 0:-1 1:-1 2:-1 3:-1 4:-1 5:-1 6:-1 7:-1 8:-0.89655 9:-1 10:-1 11:-1 12:-0.152128 13:-0.829117 14:-0.88953 15:-1 16:-1 17:-1 18:-1 19:-1 20:-1 21:-0.965995 22:-1 23:-1 24:-0.634341 25:-1 26:-1 27:-1 28:-1 29:-1 30:0.424632 31:-0.897835 32:-1 33:-1 34:-1 35:-0.502873 36:-1 37:-0.55154 38:-0.440107 39:-0.295744 40:-0.8692 41:-0.696202 42:0.231314 43:0.38666 44:-0.853022 45:-1 46:-1 47:-1 48:-1 49:0.184924 50:-1 51:-1 52:-0.986205 53:-1 54:-1 55:-1 56:-0.480149 57:-0.688975 58:-0.377629 59:-1 60:-1 61:-0.127989 62:-1 63:-1 64:-1 65:-0.493995 66:0.126234 67:-1 68:-1 69:-1 70:-1 71:-1 72:-1 73:-1 74:-0.47223 75:-1 76:-0.784765 77:-1 78:-1 79:-0.189872 80:0.0321423 81:-1 82:-1 83:-0.468353 84:-0.194933 85:-1 86:-1 87:-0.111799 88:-0.904147 89:-0.965346 90:-1 91:-1 92:-1 93:0.367182 94:-1 95:-1 96:-1 97:-1 98:-1 99:-0.813952 100:-1 101:-0.422785 102:-0.612664 103:-0.50749 104:0.367089 105:-0.82863 106:-0.858231 107:0.0407821 108:-0.255691 109:0.292516 110:-0.521454 111:-1 112:-1 113:-1 114:-1 115:-1 116:-1 117:-1 118:-1 119:-1 120:-0.188403 121:-1 122:-1 123:-0.825766 124:0.012672 125:-0.729715 126:-1 127:-0.848104 128:0.189872 129:-0.923419 130:-1 131:-0.298989 
0.4545847403627065 0.7739688802213219 0.693768396665829 0.1226295129919252 1.021957219360768 1.107323301369666 0.1084393456640645 0.8268354460360361 0.453846234882673 0:-1 1:-1 2:-0.922451 3:-0.399851 4:-0.982429 5:-0.986083 6:-1 7:-0.759389 8:-1 9:-1 10:-1 11:-1 12:-0.557048 13:-0.852458 14:-0.236955 15:-0.613114 16:-0.698361 17:-0.672137 18:-0.700235 19:-0.672137 20:-0.540999 21:-0.332648 22:-1 23:-1 24:-0.312033 25:-1 26:-0.843252 27:-1 28:-1 29:-1 30:-1 31:-0.641469 32:-1 33:-1 34:-0.983811 35:-1 36:-0.860667 37:-0.774137 38:-0.129889 39:-0.797323 40:-0.887077 41:-0.770494 42:0.275709 43:0.0953956 44:-1 45:-1 46:-0.690508 47:1 48:-1 49:-1 50:-1 51:-0.696232 52:-1 53:-1 54:-1 55:-1 56:-0.850433 57:-0.53006 58:-0.570126 59:-1 60:-1 61:-0.397689 62:-0.45083 63:-0.906566 64:-1 65:-0.137616 66:-1 67:-1 68:1 69:-1 70:-1 71:-1 72:-1 73:-1 74:-1 75:-0.986578 76:-0.94461 77:-1 78:-1 79:-0.475408 80:-0.465338 81:-1 82:-0.886746 83:-0.540989 84:-0.65247 85:-1 86:-0.610201 87:-0.286368 88:-1 89:-1 90:-0.732477 91:1 92:-1 93:-1 94:-0.862996 95:-0.641754 96:-1 97:-1 98:-0.786521 99:-0.764634 100:-1 101:-0.501639 102:-1 103:-0.574764 104:0.377025 105:-0.630101 106:-0.877607 107:-0.281117 108:-0.357376 109:-0.124797 110:-1 111:-1 112:-0.00959506 113:-1 114:-1 115:-1 116:-1 117:-0.980916 118:-1 119:-1 120:-0.226159 121:-1 122:-1 123:-0.849565 124:0.049184 125:-0.533268 126:-1 127:-0.868852 128:-0.439639 129:-0.404921 130:-0.833893 131:-0.364618 
1.483110269346876 1.431808612792888 0.4642331520747233 1.867634853458385 0.7787811291517922 1.59840715943535 1.84733611011422 1.022291123189701 0.8978700012066189 0:-1 1:-1 2:-1 3:-1 4:-1 5:-1 6:-1 7:-1 8:-1 9:-1 10:-1 11:-1 12:0.02564 13:-1 14:-0.155424 15:-0.809678 16:-1 17:-1 18:-1 19:-1 20:-1 21:-0.843569 22:-1 23:-1 24:-1 25:-1 26:-0.730519 27:-0.963132 28:-1 29:-1 30:-1 31:-0.970649 32:-0.955392 33:-1 34:-0.0262082 35:-0.788857 36:0.645166 37:-0.523811 38:-0.429279 39:-0.00293636 40:-0.333333 41:-1 42:-1 43:0.306545 44:-1 45:-1 46:-1 47:-1 48:-0.780097 49:-1 50:-1 51:-1 52:-1 53:-1 54:-1 55:-1 56:-0.285714 57:-0.405532 58:0.586017 59:-1 60:-1 61:-1 62:-1 63:-1 64:-1 65:0.14143 66:-1 67:-1 68:-1 69:-1 70:-0.21023 71:-1 72:-1 73:-1 74:-1 75:-1 76:-0.138415 77:-1 78:-1 79:-1 80:-1 81:-1 82:-1 83:-0.22581 84:0.367734 85:-1 86:-1 87:-0.245715 88:-1 89:-1 90:-1 91:-1 92:-0.91026 93:-1 94:-1 95:-1 96:-1 97:-1 98:-0.541235 99:-0.913534 100:-0.573428 101:-0.0806491 102:-0.670968 103:-0.686218 104:-1 105:-1 106:-0.277423 107:0.59139 108:-0.367744 109:0.169623 110:-1 111:-1 112:-1 113:-1 114:-1 115:-1 116:-1 117:-1 118:-1 119:-1 120:0.257605 121:-1 122:-1 123:-1 124:-1 125:-1 126:-1 127:-1 128:0.3783 129:-0.804839 130:-1 131:-0.633563 
0.9250525912450159 1.906096070324506 1.057210717177363 1.675728298933622 1.267411781432897 2.857943792267219 1.304401187333681 2.021068413727119 1.264940152146065 0:-1 1:-0.947098 2:-1 3:-1 4:-0.923121 5:-1 6:-1 7:-1 8:-1 9:-1 10:-1 11:-1 12:-0.46634 13:-0.843926 14:-0.0919595 15:-0.658957 16:-0.840473 17:-0.722549 18:-0.365827 19:-0.791908 20:-1 21:-0.120727 22:-1 23:-1 24:-1 25:-1 26:-0.571206 27:-0.94368 28:-1 29:-1 30:-1 31:-0.361077 32:-1 33:-1 34:-1 35:-0.848656 36:-0.852609 37:-0.761082 38:-0.181851 39:-0.928538 40:-0.641619 41:-0.791908 42:-0.325279 43:-0.401065 44:-1 45:-1 46:0.231528 47:-1 48:-0.976006 49:-1 50:-1 51:-0.320105 52:-1 53:-1 54:-1 55:-1 56:-0.654483 57:-0.502896 58:-0.545287 59:-1 60:-1 61:-0.442522 62:-0.22544 63:-0.901162 64:-0.858968 65:-0.114863 66:-1 67:-1 68:0.765895 69:-1 70:-0.860798 71:-1 72:-1 73:-1 74:-1 75:-1 76:-0.948048 77:-1 78:-1 79:-0.260112 80:-0.434419 81:-1 82:-1 83:-0.375725 84:-0.754908 85:-0.91908 86:-0.793848 87:-0.195486 88:-1 89:-1 90:0.589149 91:-0.740834 92:-1 93:-1 94:-1 95:0.621461 96:-1 97:-1 98:-1 99:-0.973584 100:-0.959274 101:-0.406939 102:-0.292486 103:-1 104:-0.791922 105:-0.295687 106:-0.741034 107:-0.429676 108:-0.660117 109:-0.108924 110:-1 111:-1 112:-0.115303 113:-1 114:-1 115:-1 116:-1 117:-1 118:-1 119:-1 120:-0.27329 121:-1 122:-1 123:-0.840866 124:0.109824 125:-0.670866 126:-1 127:-0.791908 128:-0.110878 129:-0.580347 130:-1 131:-0.215837 
0 0 0 0 0 0 0 0 0.205297122227415 0:-0.854745 1:-0.361355 2:-1 3:-1 4:-1 5:-0.354302 6:-1 7:-1 8:-1 9:-0.874229 10:-1 11:-1 12:-0.734824 13:-0.354348 14:-0.165216 15:-0.897387 16:-0.879996 17:-0.582605 18:-0.284474 19:-0.947824 20:-0.878257 21:-0.251047 22:-0.701192 23:-1 24:-1 25:-1 26:-0.41799 27:-0.935685 28:-1 29:-1 30:-1 31:-0.572098 32:-1 33:-1 34:-1 35:-0.829256 36:-0.778251 37:-0.768947 38:-0.384606 39:-0.569956 40:-0.730444 41:-0.791302 42:-0.323334 43:-0.0111511 44:-0.479128 45:0.211199 46:-1 47:-1 48:-1 49:-0.4401 50:-1 51:-1 52:-1 53:-1 54:-1 55:-0.96406 56:-0.982201 57:-0.359006 58:-0.828979 59:-1 60:-0.756513 61:-0.341063 62:-0.708682 63:-1 64:-0.893909 65:-0.276468 66:1 67:-1 68:-1 69:-1 70:-1 71:-1 72:-1 73:-1 74:-1 75:-0.952078 76:-0.983051 77:-1 78:-1 79:-0.165216 80:-0.858189 81:-1 82:-0.819755 83:-0.426089 84:-0.815646 85:-1 86:-0.689844 87:-0.279398 88:-0.708823 89:-0.535948 90:-1 91:-1 92:-1 93:-0.469023 94:-1 95:-1 96:-1 97:-1 98:-1 99:-0.646632 100:-1 101:-0.653042 102:-1 103:-0.323314 104:-0.0608755 105:-0.823418 106:-1 107:-0.21353 108:-0.318254 109:-0.126635 110:0.142788 111:-1 112:-1 113:-1 114:-1 115:-1 116:-1 117:-0.986373 118:-1 119:-1 120:-0.521657 121:-1 122:-1 123:-0.880302 124:0.113056 125:-0.566749 126:-1 127:-0.791308 128:-0.182608 129:-0.579125 130:-0.86782 131:-0.233862 
0.3416714910423586 2.308039597406465 0.3444241254540499 4.145711949750025 0.5992993372222879 0 0.4604471502169164 1.120758412069766 0 0:-1 1:-0.310592 2:-1 3:-1 4:-0.980733 5:-1 6:-1 7:-1 8:-1 9:-0.987925 10:-1 11:-1 12:-0.460124 13:-0.672733 14:-0.259506 15:-0.713945 16:-0.832717 17:-0.636365 18:-0.33508 19:-0.927268 20:-1 21:-0.238976 22:-0.508177 23:-0.582065 24:-1 25:-1 26:-1 27:-0.435421 28:-1 29:-1 30:-1 31:-0.421313 32:-1 33:-1 34:-1 35:-0.761981 36:-1 37:-0.856857 38:-0.463868 39:-0.625345 40:-0.874739 41:-1 42:0.179059 43:-0.568734 44:-1 45:0.604577 46:-1 47:-1 48:-1 49:-1 50:-1 51:-1 52:-1 53:-1 54:-1 55:-1 56:-0.635406 57:-0.478792 58:-0.404041 59:-1 60:-1 61:-0.41549 62:0.0151589 63:-1 64:-1 65:-0.0842886 66:-0.238577 67:-0.269688 68:-1 69:-1 70:-1 71:-0.0216481 72:-1 73:-1 74:-1 75:-0.941104 76:-0.97396 77:-1 78:-1 79:-0.030304 80:-0.802319 81:-1 82:-0.748764 83:-0.418181 84:-0.743036 85:-1 86:-0.783825 87:-0.247282 88:-1 89:0.111233 90:-1 91:-1 92:-0.931288 93:-1 94:-1 95:-1 96:-1 97:-1 98:-0.960972 99:-0.841118 100:-1 101:-0.585451 102:-0.752731 103:-0.0567488 104:-0.345453 105:-0.8359 106:-0.72849 107:0.0962984 108:-0.406062 109:0.212782 110:-0.90662 111:-0.626598 112:-1 113:-1 114:-1 115:-0.51738 116:-1 117:-1 118:-1 119:-1 120:-0.36653 121:-1 122:-1 123:-1 124:0.163648 125:-0.568628 126:-1 127:-0.854548 128:-0.171345 129:-0.413331 130:-1 131:-0.259506 
0 0.1746458941488467 0 0 0 0 0.4975693131084251 0 0 0:-1 1:-1 2:-1 3:-1 4:-1 5:-1 6:-1 7:-1 8:-0.872659 9:-1 10:-1 11:-1 12:-0.235956 13:-0.539771 14:-0.00826475 15:-0.329549 16:-1 17:-1 18:-1 19:-0.727277 20:-0.68181 21:-0.551984 22:-1 23:-1 24:-1 25:-1 26:-0.842551 27:-1 28:-1 29:-1 30:-1 31:-0.475221 32:-1 33:-1 34:-1 35:-1 36:-1 37:-0.664504 38:0.407341 39:-0.578512 40:-1 41:-1 42:-1 43:-0.0328647 44:-1 45:-1 46:-1 47:-1 48:-0.163035 49:-1 50:-1 51:-1 52:-0.989814 53:-1 54:-1 55:-1 56:-0.499196 57:-0.581168 58:0.340912 59:-0.77272 60:-1 61:-1 62:-1 63:-1 64:-0.722718 65:-0.218 66:-1 67:-1 68:-1 69:-1 70:0.682483 71:-1 72:-1 73:-1 74:-1 75:-0.946066 76:-1 77:-1 78:-1 79:-1 80:-1 81:-1 82:-0.764455 83:0.227274 84:-1 85:-1 86:-1 87:-0.230413 88:-1 89:-1 90:-1 91:-1 92:-0.0876331 93:-1 94:-1 95:-1 96:-1 97:-1 98:-1 99:-0.636268 100:-1 101:-0.222727 102:-1 103:-1 104:-1 105:-1 106:-1 107:0.121212 108:0.336365 109:0.0153951 110:-1 111:-1 112:-1 113:-1 114:0.260678 115:-1 116:-1 117:-1 118:-1 119:-1 120:-0.570734 121:-1 122:-1 123:-1 124:-1 125:-1 126:-1 127:-0.454541 128:0.3595 129:-0.037504 130:-1 131:-0.160427 
0 0 0 0 0 0.02093520087403446 0 0.09071318527804095 0 0:1 1:-0.624718 2:-1 3:-1 4:-1 5:-0.604027 6:-1 7:-1 8:-1 9:-0.98576 10:-1 11:-1 12:-0.77424 13:-0.564517 14:-0.549567 15:-0.543223 16:-0.465804 17:-0.690329 18:-0.469122 19:-0.845164 20:-0.458063 21:-0.245349 22:-0.11055 23:-1 24:-1 25:-1 26:-1 27:-1 28:-1 29:-1 30:-1 31:-0.310837 32:-1 33:-1 34:-1 35:-0.915538 36:-1 37:-0.847622 38:0.0273082 39:-0.92023 40:-1 41:-0.88387 42:0.255126 43:-0.272737 44:0.153492 45:-0.255064 46:-1 47:-1 48:-1 49:-0.628026 50:-1 51:-1 52:-1 53:-1 54:-1 55:-0.978295 56:-1 57:-0.207376 58:-1 59:-1 60:-0.458063 61:-0.288886 62:-1 63:-1 64:-0.842571 65:-0.190235 66:0.827627 67:-1 68:-1 69:-1 70:-1 71:-1 72:-1 73:-1 74:-1 75:-0.86107 76:-1 77:-1 78:-1 79:-0.38064 80:-1 81:-1 82:-0.598823 83:-0.458069 84:-0.863218 85:-1 86:0.150531 87:-0.218233 88:-0.706892 89:-0.975274 90:-1 91:-1 92:-0.81765 93:-0.839658 94:-1 95:-1 96:-1 97:-1 98:-0.953974 99:-0.492476 100:-1 101:-0.852906 102:-1 103:-0.497957 104:0.161279 105:-0.91265 106:-0.855476 107:-0.575636 108:0.138072 109:-0.140416 110:-0.295119 111:-1 112:-1 113:-1 114:-0.729378 115:-1 116:-1 117:-1 118:-1 119:-1 120:-0.574126 121:-1 122:-1 123:-0.91119 124:0.23872 125:-0.448952 126:-1 127:-0.76774 128:-0.338409 129:-0.219355 130:-1 131:-0.105079 
0.5998028424496584 0.2731155542920943 1.172198242183508 0.6675817655849121 1.279469229634077 0 3.709183615995547 1.970742073006394 0.7045832157021833 0:-1 1:-0.545041 2:-1 3:-1 4:-1 5:-1 6:-0.668478 7:-1 8:-1 9:-0.585634 10:-1 11:-1 12:-0.845616 13:-0.116816 14:-0.510625 15:-0.338317 16:-0.742051 17:-0.21495 18:-0.487307 19:-0.887848 20:-1 21:-0.0443393 22:-1 23:-1 24:-1 25:-1 26:-1 27:-1 28:-1 29:-1 30:-1 31:0.349584 32:-1 33:-1 34:-1 35:-1 36:-1 37:-0.889628 38:-0.669294 39:-1 40:-1 41:-1 42:-1 43:-0.894746 44:-1 45:-0.170159 46:-1 47:-1 48:-0.17462 49:-1 50:-1 51:-1 52:-1 53:-1 54:-1 55:-0.947365 56:-1 57:-0.081448 58:-1 59:-1 60:-0.476627 61:-0.0986422 62:-1 63:-1 64:-0.315895 65:-0.0819735 66:-1 67:-1 68:-1 69:-1 70:-0.368178 71:-1 72:-1 73:-1 74:-1 75:-0.599998 76:-1 77:-1 78:-1 79:-0.850464 80:-1 81:-1 82:-0.031433 83:-0.551405 84:-1 85:-1 86:1 87:0.0697159 88:-1 89:-1 90:-1 91:-1 92:-0.508768 93:-1 94:-1 95:-1 96:-1 97:-1 98:-1 99:-0.337414 100:-1 101:-0.573835 102:-1 103:-0.818178 104:0.00932393 105:-0.746939 106:-1 107:-0.692621 108:0.099068 109:-0.122784 110:-1 111:-1 112:-1 113:-1 114:-0.112277 115:-1 116:-1 117:-1 118:-1 119:-1 120:-0.673928 121:-1 122:-1 123:-0.871355 124:0.196256 125:-0.733914 126:-1 127:-0.551405 128:-0.201357 129:-0.434578 130:-0.71588 131:-0.0565905 
1.625390075818955 1.115063216756427 0.4668448799360148 0.08714412040912527 0.9113917390372303 0.5267879279333991 2.746867668392994 2.280041814393735 0 0:-1 1:-1 2:-1 3:-1 4:-0.940299 5:-1 6:-0.353339 7:-1 8:-1 9:-0.738065 10:-1 11:-1 12:-0.923956 13:0.109593 14:-0.521796 15:0.131499 16:0.134246 17:-0.835612 18:0.127199 19:-1 20:-1 21:-0.0385904 22:-1 23:-1 24:-1 25:-1 26:-1 27:-1 28:-1 29:-1 30:-1 31:0.514705 32:-1 33:-1 34:-1 35:-1 36:-1 37:-1 38:-0.515282 39:-1 40:-1 41:-1 42:-1 43:-0.949747 44:-1 45:-1 46:-1 47:-1 48:0.00622384 49:-1 50:-1 51:-1 52:-1 53:-1 54:-1 55:-1 56:-1 57:0.514678 58:-1 59:-1 60:-1 61:-1 62:-1 63:-1 64:-1 65:0.00714401 66:-1 67:-1 68:-1 69:-1 70:-0.531538 71:-1 72:-1 73:-1 74:-1 75:-0.247149 76:-1 77:-1 78:-1 79:-1 80:-1 81:-0.835612 82:0.70362 83:-0.506849 84:-1 85:-1 86:-1 87:-0.135712 88:-1 89:-1 90:-1 91:-1 92:-0.307979 93:-1 94:-1 95:-1 96:-1 97:-1 98:-1 99:-0.384564 100:-1 101:-0.219182 102:-1 103:-1 104:-1 105:-1 106:-1 107:-0.549473 108:0.61096 109:-0.147153 110:-1 111:-1 112:-1 113:-1 114:0.254749 115:-1 116:-1 117:-1 118:-1 119:-1 120:-0.842958 121:-1 122:-1 123:-1 124:-1 125:-1 126:-1 127:0.150678 128:-0.29763 129:0.160271 130:-1 131:0.0993142 
0.5729619721806535 0.5182022204386608 0.7324914131215968 0.4785004387037384 0.7940112031348897 0 0.3267277568207134 0.2722151066003122 0.09322173693136256 0:-0.716437 1:-1 2:-1 3:-1 4:-1 5:-0.29693 6:-1 7:-1 8:-1 9:-0.136734 10:-1 11:-1 12:-0.984404 13:-0.217391 14:-0.873524 15:-0.572464 16:-0.400006 17:-0.478265 18:-1 19:-0.739133 20:-1 21:-0.278003 22:-0.947918 23:-1 24:-1 25:-1 26:-1 27:-0.932729 28:-1 29:-1 30:-1 31:-0.116346 32:-1 33:-1 34:-1 35:-1 36:-0.630427 37:-0.786059 38:-0.35897 39:-1 40:-1 41:-0.826084 42:-0.718065 43:-0.489752 44:-0.0960169 45:-1 46:-1 47:-1 48:-1 49:0.00207963 50:-1 51:-1 52:-1 53:-1 54:-1 55:-0.853803 56:-1 57:-0.465843 58:-1 59:-1 60:-0.594198 61:-0.400969 62:-1 63:-1 64:-0.64637 65:-0.276924 66:0.761434 67:-1 68:-1 69:-1 70:-1 71:-1 72:-1 73:-1 74:-1 75:-0.894736 76:-1 77:-1 78:-1 79:-0.884064 80:-1 81:-0.913048 82:-0.549409 83:-0.565217 84:-1 85:-0.695654 86:0.809184 87:-0.202195 88:-0.578877 89:-1 90:-1 91:-1 92:-0.972714 93:-0.604048 94:-1 95:-1 96:-1 97:-1 98:-1 99:-0.526726 100:-1 101:-0.752176 102:-1 103:-0.295125 104:0.0434877 105:-0.9019 106:-1 107:-0.165858 108:-0.147833 109:-0.00188601 110:0.275834 111:-1 112:-1 113:-1 114:-0.914233 115:-1 116:-1 117:-1 118:-1 119:-1 120:-0.677955 121:-1 122:-1 123:-1 124:0.391296 125:-0.174767 126:-1 127:-0.826084 128:-0.25692 129:-0.0355075 130:-1 131:0.042937 
0 0 0.2014460314852466 0 0 0 0 0.2627641958425506 0.3533740850908358 0:-1 1:0.169283 2:-1 3:-1 4:-1 5:-0.700912 6:-1 7:-1 8:-1 9:-0.881669 10:-1 11:-1 12:-0.815632 13:-0.686044 14:-0.32346 15:-0.45116 16:-1 17:-0.534881 18:-0.149499 19:-0.813952 20:-1 21:-0.130371 22:-0.571589 23:-1 24:-1 25:-1 26:-1 27:-0.861685 28:-1 29:-1 30:-1 31:-0.19249 32:-1 33:-1 34:-1 35:-0.797039 36:-1 37:-0.816905 38:-0.177092 39:-1 40:-1 41:-0.906976 42:-0.0951325 43:-0.491383 44:-1 45:0.310351 46:-1 47:-1 48:-1 49:-0.578559 50:-1 51:-1 52:-1 53:-1 54:-1 55:-0.80461 56:-1 57:-0.428568 58:-1 59:-1 60:-0.348836 61:-0.359167 62:-1 63:-1 64:-0.432552 65:-0.176264 66:0.592686 67:-1 68:-1 69:-1 70:-1 71:-0.760316 72:-1 73:-1 74:-1 75:-0.87976 76:-1 77:-1 78:-1 79:-0.503872 80:-1 81:-1 82:-0.517965 83:-0.441857 84:-1 85:-1 86:0.382434 87:-0.222821 88:-1 89:-0.726049 90:-1 91:-1 92:-1 93:-0.70395 94:-1 95:-1 96:-1 97:-1 98:-1 99:-0.318822 100:-1 101:-0.64651 102:-1 103:-0.698377 104:0.116279 105:-0.89505 106:-1 107:-0.362615 108:-0.240305 109:-0.145206 110:0.128602 111:-1 112:-1 113:-1 114:-1 115:-0.80294 116:-1 117:-1 118:-1 119:-1 120:-0.606843 121:-1 122:-1 123:-0.893296 124:0.24032 125:-0.337889 126:-1 127:-0.720929 128:-0.205066 129:-0.249605 130:-0.764338 131:-0.0165887 
0.712139605100149 0 0 0 0 0.0413744531209844 1.181936873835135 0 0 0:-1 1:-1 2:-1 3:-1 4:-0.904247 5:-1 6:-1 7:-1 8:-0.585371 9:-0.819974 10:-1 11:-1 12:-0.975608 13:0.265626 14:-0.727272 15:-0.262502 16:-0.137503 17:-0.8125 18:-1 19:-1 20:-0.562503 21:-0.0467374 22:-1 23:-1 24:-1 25:-1 26:-1 27:-1 28:-1 29:-1 30:-1 31:0.284339 32:-1 33:-1 34:-1 35:-1 36:-1 37:-0.907738 38:0.105774 39:-0.613637 40:-1 41:-1 42:-1 43:-0.510048 44:-1 45:-1 46:-1 47:-1 48:0.0159958 49:-1 50:-1 51:-1 52:-0.944716 53:-1 54:-1 55:-1 56:-1 57:0.535711 58:-0.692709 59:-1 60:-1 61:-1 62:-1 63:-1 64:-1 65:-0.0767847 66:-1 67:-1 68:-1 69:-1 70:0.271339 71:-1 72:-1 73:-1 74:-1 75:-0.70732 76:-0.913732 77:-1 78:-1 79:-1 80:-1 81:-1 82:-0.352271 83:0.124998 84:-0.668751 85:-1 86:-1 87:-0.116071 88:-1 89:-1 90:-1 91:-1 92:-0.402437 93:-1 94:-1 95:-1 96:-0.940218 97:-1 98:-1 99:-0.703914 100:-1 101:0.0687475 102:-0.681249 103:-1 104:-1 105:-1 106:-1 107:0.0277746 108:-0.0812517 109:-0.0919454 110:-1 111:-1 112:-1 113:-1 114:-0.798777 115:-1 116:-1 117:-1 118:-1 119:-1 120:0.133296 121:-1 122:-1 123:-1 124:-1 125:-1 126:-1 127:-0.437501 128:0.602277 129:-0.810937 130:-1 131:-0.295753 
0 0 0 0 0 0 0 0 0.3197260874670502 0:-1 1:-1 2:-1 3:-1 4:-0.364649 5:-1 6:-1 7:-1 8:-1 9:-1 10:-1 11:-1 12:-0.572256 13:-0.0357075 14:-0.251948 15:0.0114224 16:-0.605708 17:-1 18:-1 19:-1 20:-1 21:-0.180863 22:-1 23:-1 24:-1 25:-1 26:-0.919006 27:-1 28:-1 29:-1 30:-1 31:-0.00745452 32:-1 33:-1 34:-1 35:-1 36:-1 37:-0.915645 38:0.516485 39:-0.646759 40:-1 41:-1 42:-1 43:-0.456186 44:-1 45:-1 46:-1 47:-1 48:0.444706 49:-1 50:-1 51:-1 52:-1 53:-1 54:-1 55:-0.891618 56:-1 57:0.228569 58:-0.719042 59:-1 60:-1 61:-1 62:-1 63:-1 64:-0.651421 65:-0.160101 66:-1 67:-1 68:-1 69:-1 70:0.424331 71:-1 72:-1 73:-1 74:-1 75:-0.826588 76:-1 77:-1 78:-1 79:-1 80:-1 81:-0.828568 82:-0.111689 83:0.0285659 84:-1 85:-1 86:-1 87:-0.0537118 88:-1 89:-1 90:-1 91:-1 92:-0.757226 93:-1 94:-1 95:-1 96:-1 97:-1 98:-1 99:-0.204732 100:-1 101:-0.83714 102:-1 103:-1 104:-1 105:-1 106:-1 107:-0.530167 108:0.959996 109:-0.330127 110:-1 111:-1 112:-1 113:-1 114:-0.0780341 115:-1 116:-1 117:-1 118:-1 119:-1 120:-0.820944 121:-0.940273 122:-1 123:-1 124:-1 125:-1 126:-1 127:-0.142854 128:-0.267533 129:0.382863 130:-0.565702 131:0.0393533 
0 0 0 0 1.363312948946417 0 0 0 0 0:-1 1:-1 2:-1 3:-1 4:-0.758152 5:-1 6:-1 7:-1 8:-1 9:-1 10:-1 11:-1 12:-0.366336 13:-0.765221 14:0.214229 15:-0.486961 16:-1 17:-1 18:-1 19:-1 20:-1 21:-0.321089 22:-1 23:-1 24:-1 25:-1 26:-0.845844 27:-1 28:-0.683165 29:-1 30:-1 31:-0.959701 32:-0.310971 33:-1 34:-0.713511 35:-1 36:-0.334778 37:-0.48654 38:-0.0769176 39:-0.354941 40:-0.640585 41:-0.63478 42:-1 43:0.160242 44:-1 45:-1 46:-1 47:-1 48:0.412508 49:-1 50:-1 51:-1 52:-1 53:-1 54:-1 55:-0.9835 56:-0.779349 57:-0.0385095 58:-0.315935 59:-1 60:-1 61:-1 62:-1 63:-1 64:-0.787817 65:-0.242365 66:-1 67:-1 68:-1 69:-1 70:-0.165914 71:-1 72:-0.978478 73:-1 74:-1 75:-1 76:-0.392982 77:-1 78:-1 79:-1 80:-1 81:-1 82:-0.819755 83:0.252173 84:-0.815646 85:-1 86:-1 87:-0.212293 88:-1 89:-1 90:-1 91:-1 92:0.185913 93:-1 94:-1 95:-1 96:-1 97:-1 98:-0.895018 99:-0.632 100:-1 101:-0.306084 102:-1 103:-1 104:-1 105:-1 106:-0.80521 107:-0.14203 108:0.363472 109:-0.127543 110:-1 111:-1 112:-1 113:-1 114:-0.624867 115:-1 116:-1 117:-1 118:-1 119:-1 120:-0.153735 121:-1 122:-1 123:-1 124:-1 125:-1 126:-1 127:-0.478265 128:0.188932 129:-0.684347 130:-1 131:-0.403626 
0 0 0 0 0 0 0 0.2999446830480054 0 0:-1 1:-1 2:-1 3:-1 4:-0.62834 5:-0.989491 6:-1 7:-1 8:-1 9:-1 10:-1 11:-1 12:-0.445476 13:-0.488633 14:0.454544 15:-0.731822 16:-0.790903 17:-1 18:-1 19:-1 20:-1 21:-0.27347 22:-1 23:-1 24:-1 25:-1 26:-0.384051 27:-0.99028 28:-0.878272 29:-1 30:-1 31:-0.752279 32:-0.894109 33:-1 34:-1 35:-1 36:-0.806811 37:-0.507939 38:0.0722645 39:-0.438012 40:-0.530308 41:-1 42:-1 43:0.116892 44:-1 45:-1 46:-1 47:-1 48:0.541033 49:-1 50:-1 51:-1 52:-0.996169 53:-1 54:-1 55:-0.974643 56:-0.88069 57:-0.0692606 58:-0.404041 59:-1 60:-1 61:-1 62:-1 63:-1 64:-0.63029 65:-0.295794 66:-1 67:-1 68:-1 69:-1 70:0.24975 71:-1 72:-1 73:-1 74:-1 75:-1 76:-0.71297 77:-1 78:-1 79:-1 80:-1 81:-1 82:-1 83:0.0909058 84:-0.357579 85:-0.893936 86:-1 87:-0.210997 88:-1 89:-1 90:-1 91:-1 92:0.692308 93:-1 94:-1 95:-1 96:-1 97:-1 98:-0.892458 99:-0.840373 100:-1 101:0.209093 102:-0.845449 103:-1 104:-1 105:-1 106:-0.490917 107:0.370361 108:-0.554552 109:-0.0457073 110:-1 111:-1 112:-1 113:-1 114:-0.590866 115:-1 116:-1 117:-1 118:-1 119:-1 120:-0.0922566 121:-1 122:-1 123:-1 124:-1 125:-1 126:-1 127:-0.545453 128:0.165295 129:-0.633333 130:-1 131:-0.448043 
0 0 0 0 0 0 0 0 0.2191166192558561 0:-1 1:-1 2:-1 3:-1 4:-0.917782 5:-1 6:-1 7:-1 8:-1 9:-1 10:-1 11:-1 12:-0.157068 13:-0.470583 14:0.0267492 15:-0.768626 16:-1 17:-1 18:-1 19:-1 20:-1 21:-0.574224 22:-1 23:-1 24:-1 25:-1 26:0.118829 27:-0.939769 28:-1 29:-1 30:-1 31:-0.862151 32:-1 33:-1 34:-0.886385 35:-0.871657 36:1.27501e-05 37:-0.826329 38:0.0407367 39:0.212116 40:-1 41:-1 42:-1 43:0.128234 44:-1 45:-1 46:-1 47:-1 48:0.257236 49:-1 50:-1 51:-1 52:-1 53:-1 54:-1 55:-1 56:-0.669407 57:0.084028 58:0.156871 59:-1 60:-1 61:-1 62:-1 63:-1 64:-1 65:-0.155299 66:-1 67:-1 68:-1 69:-1 70:0.252887 71:-1 72:-1 73:-1 74:-1 75:-1 76:-0.731483 77:-1 78:-1 79:-1 80:-1 81:-1 82:-1 83:0.176466 84:0.0392198 85:-1 86:-1 87:-0.0875585 88:-1 89:-1 90:-1 91:-1 92:-0.267015 93:-1 94:-1 95:-1 96:-1 97:-1 98:-0.333863 99:-0.964687 100:-1 101:0.452938 102:-1 103:-1 104:-1 105:-0.867269 106:0.0980445 107:-0.032675 108:-0.615684 109:0.176106 110:-1 111:-1 112:-1 113:-1 114:-1 115:-1 116:-1 117:-1 118:-1 119:-1 120:0.121757 121:-1 122:-1 123:-1 124:-1 125:-1 126:-1 127:-1 128:0.34046 129:-0.881371 130:-1 131:-0.609919 
0.295399972295241 0 0 0.5739605550438418 0 0 0 0 0.3187457630211123 0:-1 1:-0.676496 2:-1 3:-1 4:-1 5:0.0798649 6:-1 7:-1 8:-1 9:-1 10:-1 11:-1 12:-0.748504 13:-0.635135 14:-0.528255 15:-0.787388 16:-0.751352 17:-0.567569 18:-0.505794 19:-1 20:-1 21:-0.357394 22:0.200096 23:-1 24:-1 25:-1 26:-1 27:-0.51783 28:-1 29:-1 30:-1 31:-0.547591 32:-1 33:-1 34:-0.913367 35:-0.764128 36:-1 37:-0.893608 38:-0.043656 39:-0.777232 40:-1 41:-1 42:0.752656 43:-0.359447 44:-1 45:-0.500167 46:-1 47:-1 48:-1 49:0.119357 50:-1 51:-1 52:-1 53:-1 54:-1 55:-0.932635 56:-1 57:-0.225227 58:-1 59:-1 60:-0.74775 61:-0.13113 62:-1 63:-1 64:-0.78018 65:-0.08619 66:0.532002 67:-1 68:-1 69:-1 70:-1 71:-0.363394 72:-1 73:-1 74:-1 75:-0.946108 76:-1 77:-1 78:-1 79:-0.27928 80:-0.706169 81:-1 82:-0.813268 83:-0.243246 84:-1 85:-1 86:-0.357361 87:-0.295792 88:-1 89:-0.948839 90:-1 91:-1 92:-1 93:-0.170683 94:-1 95:-1 96:-1 97:-1 98:-1 99:-0.434622 100:-1 101:-0.691893 102:-1 103:-0.649469 104:0.297286 105:-0.878032 106:-1 107:-0.555557 108:0.0594565 109:-0.126424 110:0.184858 111:-1 112:-1 113:-1 114:-1 115:-0.41118 116:-1 117:-1 118:-1 119:-1 120:-0.768139 121:-1 122:-1 123:-0.627981 124:-0.135136 125:-0.358772 126:-1 127:-0.459461 128:-0.538083 129:-0.0189184 130:-1 131:0.0400172 
0 0 0 0 0 0 0 0.1698693724450516 0 0:-1 1:-1 2:-1 3:-1 4:-0.618337 5:-1 6:-1 7:-1 8:-1 9:-1 10:-1 11:-1 12:-0.666668 13:-1 14:0.407626 15:0.332252 16:-0.554841 17:-1 18:-1 19:-1 20:-1 21:-0.049267 22:-1 23:-1 24:-1 25:-1 26:-0.902695 27:-1 28:-1 29:-1 30:-1 31:-0.236841 32:-1 33:-1 34:-1 35:-1 36:-1 37:-0.619049 38:0.426802 39:-1 40:-1 41:-1 42:-1 43:-0.417771 44:-1 45:-1 46:-1 47:-1 48:0.735648 49:-1 50:-1 51:-1 52:-1 53:-1 54:-1 55:-1 56:-1 57:0.188936 58:-1 59:-1 60:-1 61:-1 62:-1 63:-1 64:-1 65:-0.374878 66:-1 67:-1 68:-1 69:-1 70:0.31629 71:-1 72:-1 73:-1 74:-1 75:-0.875002 76:-0.975439 77:-1 78:-1 79:-1 80:-1 81:-1 82:0.00293292 83:-0.806452 84:-0.316133 85:-1 86:-1 87:-0.244086 88:-1 89:-1 90:-1 91:-1 92:0.409717 93:-1 94:-1 95:-1 96:-1 97:-1 98:-0.834329 99:-0.79393 100:-1 101:-0.264519 102:-1 103:-1 104:-1 105:-1 106:-0.638712 107:0.856621 108:0.264511 109:0.153236 110:-1 111:-1 112:-1 113:-1 114:-0.541663 115:-1 116:-1 117:-1 118:-1 119:-1 120:-0.0319758 121:-1 122:-1 123:-1 124:-1 125:-1 126:-1 127:-0.806452 128:0.3783 129:0.170967 130:-1 131:-0.27976 
0 1.306365258945375 1.917137394177907 0 0.642488905692618 0.8689662750078843 0 0.4341519747288379 0.1616917662959287 0:-1 1:-1 2:-1 3:-1 4:-1 5:-1 6:-1 7:-1 8:0.338248 9:-1 10:-1 11:-1 12:-0.675276 13:-0.871426 14:-0.833762 15:-0.213332 16:-1 17:-1 18:-1 19:-0.199998 20:-1 21:-0.490853 22:-1 23:-1 24:-1 25:-1 26:-1 27:-1 28:-1 29:-1 30:-0.386188 31:-0.442417 32:-1 33:-1 34:-1 35:-1 36:-1 37:-0.718821 38:-0.157506 39:-0.764498 40:-1 41:-0.885712 42:0.482238 43:-0.044269 44:0.871659 45:-1 46:-1 47:-1 48:-0.782999 49:-1 50:-1 51:-1 52:-1 53:-1 54:-1 55:-1 56:-1 57:-0.297959 58:-1 59:-0.04762 60:-0.466659 61:-0.606354 62:-0.361887 63:-1 64:-1 65:-0.0878713 66:0.124852 67:-1 68:-1 69:-1 70:-0.230625 71:-1 72:-1 73:-1 74:-1 75:-0.97786 76:-1 77:-1 78:-1 79:-0.542864 80:-0.689372 81:-1 82:-0.802593 83:-0.428573 84:-0.798092 85:-1 86:0.0190281 87:-0.119408 88:-0.252635 89:-1 90:-1 91:-1 92:-1 93:-1 94:-1 95:-1 96:-1 97:-1 98:-1 99:-0.601818 100:-1 101:-0.782853 102:-1 103:-0.444166 104:0.0285478 105:-0.871059 106:-1 107:-0.216934 108:-0.0666693 109:-0.13106 110:-0.269852 111:-1 112:-1 113:-1 114:-0.91882 115:-1 116:-1 117:-1 118:-1 119:-1 120:-0.371321 121:-1 122:-1 123:-0.868905 124:0.21904 125:-0.593284 126:-1 127:-0.885712 128:-0.186146 129:-0.308569 130:-1 131:-0.253297 
0 0.3568554024655452 0.6071324134653927 0.1254344768865024 0.3305314765086205 0.4101450412734649 3.293123426631492 0.3634136908176186 0.1373228651902986 0:-1 1:-0.0226583 2:-1 3:-1 4:-1 5:-0.937503 6:-0.877909 7:-1 8:-0.975588 9:-0.92935 10:-1 11:-1 12:-0.61522 13:-0.695939 14:-0.449622 15:-0.627923 16:-0.751352 17:-0.675677 18:-0.258691 19:-0.675677 20:-0.873861 21:-0.289989 22:-0.923254 23:-1 24:-1 25:-1 26:-1 27:-0.735747 28:-1 29:-1 30:-1 31:-0.263688 32:-1 33:-1 34:-1 35:-0.705154 36:-0.655391 37:-0.893608 38:-0.282733 39:-0.888616 40:-1 41:-0.891892 42:-0.649469 43:-0.448158 44:-1 45:0.997426 46:-0.945819 47:-1 48:-1 49:-0.882582 50:-1 51:-1 52:-0.98373 53:-1 54:-1 55:-0.973083 56:-0.914676 57:-0.557273 58:-0.379871 59:-1 60:-0.873861 61:-0.379379 62:-0.245473 63:-1 64:-0.890078 65:-0.355825 66:0.273927 67:-1 68:-1 69:-1 70:-0.986391 71:-0.46576 72:-0.995317 73:-1 74:-1 75:-0.952618 76:-0.939057 77:-1 78:-1 79:-0.567568 80:-0.559237 81:-0.891892 82:-0.719891 83:-0.675677 84:-0.522514 85:-0.810804 86:-0.196683 87:-0.196312 88:-1 89:0.165349 90:-1 91:-1 92:-0.969844 93:-0.88069 94:-1 95:-0.989548 96:-1 97:-1 98:-0.954324 99:-0.694019 100:-1 101:-0.691893 102:-0.816216 103:-0.211295 104:-0.189178 105:-0.634095 106:-0.798199 107:-0.40741 108:-0.11712 109:0.124845 110:-0.770544 111:-1 112:-1 113:-1 114:-0.992102 115:-0.689405 116:-1 117:-1 118:-1 119:-1 120:-0.318051 121:-1 122:-1 123:-0.875994 124:0.009024 125:-0.487017 126:-1 127:-0.891892 128:-0.153143 129:-0.509453 130:-0.863047 131:-0.0507773 
0 0 0 0 0 0 0.01831075751863225 0 0 0:-1 1:-1 2:-1 3:-1 4:-1 5:-1 6:-1 7:-1 8:-1 9:-1 10:-1 11:-1 12:0.013452 13:-0.875003 14:-0.191922 15:-0.562965 16:-1 17:-1 18:-1 19:-1 20:-1 21:-0.8032 22:-1 23:-1 24:-1 25:-1 26:-0.198815 27:-1 28:-1 29:-1 30:-1 31:-0.938399 32:-1 33:-1 34:-0.62695 35:-0.878791 36:0.416685 37:-0.562611 38:-0.508541 39:0.259259 40:-1 41:-1 42:-1 43:0.291633 44:-1 45:-1 46:-1 47:-1 48:-0.164907 49:-1 50:-1 51:-1 52:-1 53:-1 54:-1 55:-1 56:-0.425371 57:-0.317456 58:0.456787 59:-1 60:-1 61:-1 62:-1 63:-1 64:-1 65:-0.0729924 66:-1 67:-1 68:-1 69:-1 70:0.317465 71:-1 72:-1 73:-1 74:-1 75:-1 76:-0.817595 77:-1 78:-1 79:-1 80:-1 81:-1 82:-1 83:-5.99999e-06 84:-0.0185287 85:-0.870374 86:-1 87:-0.0419336 88:-1 89:-1 90:-1 91:-1 92:0.020181 93:-1 94:-1 95:-0.983681 96:-1 97:-1 98:-0.679074 99:-0.91532 100:-1 101:-0.050006 102:-0.811116 103:-1 104:-1 105:-0.874647 106:-0.170374 107:0.218102 108:-0.0926 109:0.0894453 110:-1 111:-1 112:-1 113:-1 114:-0.963007 115:-1 116:-1 117:-1 118:-1 119:-1 120:0.0823337 121:-1 122:-1 123:-1 124:-1 125:-1 126:-1 127:-1 128:0.42424 129:-0.663886 130:-1 131:-0.560274 
0 0 0 0 0 0 0 1.082169913884674 0 0:-1 1:-1 2:-1 3:-1 4:-0.65227 5:-1 6:-1 7:-1 8:-1 9:-1 10:-1 11:-1 12:-0.46852 13:-1 14:0.646667 15:-0.480506 16:-1 17:-1 18:-1 19:-1 20:-1 21:-0.111355 22:-1 23:-1 24:-1 25:-1 26:0.70978 27:-1 28:-1 29:-1 30:-1 31:-0.848895 32:-1 33:-1 34:-0.949739 35:-1 36:-0.83963 37:-0.294399 38:0.112727 39:-0.455692 40:-1 41:-1 42:-1 43:-0.0327778 44:-1 45:-1 46:-1 47:-1 48:0.536378 49:-1 50:-1 51:-1 52:-0.996065 53:-1 54:-1 55:-1 56:-0.845174 57:-0.459122 58:-0.0104922 59:-0.74842 60:-1 61:-1 62:-1 63:-1 64:-0.693072 65:-0.341865 66:-1 67:-1 68:-1 69:-1 70:0.654307 71:-1 72:-1 73:-1 74:-1 75:-1 76:-0.895566 77:-1 78:-1 79:-1 80:-1 81:-1 82:-1 83:-0.245286 84:-0.0666737 85:-1 86:-1 87:-0.362869 88:-1 89:-1 90:-1 91:-1 92:0.57447 93:-1 94:-1 95:-0.993682 96:-1 97:-1 98:-1 99:-0.805552 100:-1 101:-0.498116 102:-1 103:-1 104:-1 105:-1 106:-0.859127 107:0.758202 108:0.355965 109:-0.0934718 110:-1 111:-1 112:-1 113:-1 114:-0.302643 115:-1 116:-1 117:-1 118:-1 119:-1 120:-0.450766 121:-1 122:-1 123:-1 124:-1 125:-1 126:-1 127:-0.698117 128:0.289888 129:-0.0867874 130:-1 131:-0.259867 
0 0 0 0.02211134603760451 0 0 0 4.137606690885586 1.634937205848311 0:-1 1:-1 2:-1 3:-1 4:-0.154598 5:-1 6:-1 7:-1 8:-1 9:-1 10:-1 11:-1 12:-0.611652 13:-0.683587 14:0.636368 15:-0.354683 16:-1 17:-1 18:-1 19:-1 20:-1 21:-0.15447 22:-1 23:-1 24:-1 25:-1 26:-0.0105657 27:-1 28:-1 29:-1 30:-1 31:-0.696892 32:-1 33:-1 34:-1 35:-1 36:-1 37:-0.538691 38:-0.032439 39:-0.13069 40:-1 41:-1 42:-1 43:-0.0375007 44:-1 45:-1 46:-1 47:-1 48:0.22841 49:-1 50:-1 51:-1 52:-0.991999 53:-1 54:-1 55:-0.721975 56:-1 57:-0.136168 58:-0.692709 59:-1 60:-1 61:-1 62:-1 63:-0.732812 64:-0.0468847 65:-0.129661 66:-1 67:-1 68:-1 69:-1 70:0.689685 71:-1 72:-1 73:-1 74:-1 75:-0.952336 76:-0.993754 77:-1 78:-1 79:-1 80:-1 81:-1 82:-0.676136 83:0.218742 84:-0.834386 85:-1 86:-1 87:-0.261216 88:-1 89:-1 90:-1 91:-1 92:-0.419237 93:-1 94:-1 95:-1 96:-1 97:-1 98:-1 99:-0.219035 100:-1 101:-0.287502 102:-1 103:-1 104:-1 105:-1 106:-1 107:-0.357649 108:0.224998 109:-0.315837 110:-1 111:-1 112:-1 113:-1 114:-0.019415 115:-1 116:-0.981089 117:-1 118:-1 119:-1 120:-0.56711 121:-1 122:-1 123:-1 124:-1 125:-1 126:-0.508926 127:-0.8125 128:0.602277 129:-0.243749 130:-0.762513 131:-0.244969 
0.4309758558720206 2.428113374603416 1.410828234353761 2.721274366760908 0 0.3295700458129154 0.691517216122262 1.788666391482614 1.315719091595365 0:-0.797938 1:-1 2:-0.935798 3:-1 4:-0.825531 5:-0.838778 6:-1 7:-1 8:-0.706173 9:-1 10:-1 11:-1 12:-0.51852 13:-0.163715 14:-0.0732133 15:-0.582305 16:-0.0230183 17:-0.8938 18:-0.757258 19:-0.8938 20:-0.504431 21:-0.343907 22:-1 23:-1 24:-1 25:-1 26:-0.870255 27:-1 28:-0.933328 29:-1 30:-1 31:-0.236841 32:-1 33:-1 34:-0.946412 35:-0.884146 36:-0.774324 37:-0.843235 38:-0.0605876 39:-0.343529 40:-0.8171 41:-1 42:-1 43:-0.349374 44:-1 45:-1 46:-1 47:-1 48:0.288688 49:-1 50:-1 51:-1 52:-0.983209 53:-1 54:-1 55:-1 56:-0.738626 57:-0.0214938 58:-0.30384 59:-0.823 60:-1 61:-1 62:-1 63:-1 64:-0.784059 65:-0.204888 66:-1 67:-1 68:-1 69:-1 70:-0.175126 71:-1 72:-1 73:-1 74:-1 75:-0.711112 76:-1 77:-1 78:-1 79:-1 80:-1 81:-1 82:-0.266294 83:-0.15045 84:-0.812381 85:-1 86:-1 87:0.014191 88:-1 89:-1 90:-1 91:-1 92:-0.040733 93:-1 94:-1 95:-1 96:-0.963688 97:-1 98:-1 99:-0.250646 100:-1 101:-0.495574 102:-0.81946 103:-1 104:-1 105:-1 106:-1 107:-0.126852 108:0.387599 109:-0.30746 110:-1 111:-1 112:-1 113:-1 114:-0.796291 115:-1 116:-0.980157 117:-0.968414 118:-1 119:-1 120:-0.541084 121:-0.923461 122:-1 123:-1 124:-1 125:-1 126:-0.721856 127:-0.362837 128:0.209971 129:-0.571684 130:-0.461947 131:0.0559221 
0 1.448583248444917 0.6468191490949661 0.9103760701150547 0.3516024748950323 0.9267739300505676 0.2086516879565047 2.280470783443925 1.059269917886593 0:-1 1:-1 2:-1 3:-1 4:-0.596825 5:-1 6:-1 7:-1 8:-1 9:-1 10:-1 11:-1 12:-0.427028 13:-0.648433 14:-0.454544 15:-0.631251 16:-1 17:-0.874996 18:-0.714278 19:-0.687497 20:-1 21:-0.233232 22:-1 23:-1 24:-1 25:-1 26:-0.602343 27:-1 28:-1 29:-1 30:-1 31:-0.69061 32:-1 33:-1 34:-0.960894 35:-0.931823 36:-0.867195 37:-0.784724 38:-0.354971 39:-0.678027 40:-0.784715 41:-0.749998 42:-0.392047 43:0.282014 44:-1 45:-1 46:-1 47:-1 48:1 49:-0.984216 50:-1 51:-1 52:-1 53:-1 54:-1 55:-1 56:-0.929733 57:-0.296128 58:-0.692709 59:-1 60:-0.416679 61:-0.497689 62:-0.302089 63:-0.821869 64:-0.872924 65:-0.481888 66:-1 67:-1 68:-1 69:-1 70:0.293516 71:-1 72:-0.947122 73:-1 74:-1 75:-1 76:-0.923522 77:-1 78:-1 79:-0.583328 80:0.0192267 81:-0.8125 82:-0.784083 83:-0.625001 84:-0.447912 85:-0.854162 86:-0.628462 87:0.0356598 88:-1 89:-1 90:-0.81533 91:-1 92:0.286489 93:-1 94:-1 95:-0.8623 96:-0.894013 97:-1 98:-0.935525 99:-0.788562 100:-1 101:-0.346873 102:-0.362499 103:-0.392047 104:-0.0624955 105:-0.85897 106:0.0499966 107:-0.571755 108:-0.387501 109:-0.231572 110:-1 111:-1 112:-1 113:-1 114:-0.925673 115:-1 116:-1 117:-0.93086 118:-1 119:-1 120:-0.0162757 121:-1 122:-1 123:-0.928313 124:-0.5 125:-0.925863 126:-1 127:-0.750004 128:-0.465908 129:-0.810937 130:-0.841676 131:-0.489294 
-0 0 0.2581580091634557 0 0 0 0 0.5602669499074616 0 0:-1 1:-1 2:-1 3:-1 4:-1 5:-1 6:-1 7:-1 8:-1 9:-0.698454 10:-1 11:-0.442893 12:-0.988856 13:0.243419 14:-0.770332 15:-0.689472 16:0.452639 17:-0.210534 18:-1 19:-1 20:0.105265 21:0.364795 22:-1 23:-1 24:-1 25:-1 26:-1 27:-1 28:-1 29:-1 30:-1 31:0.186189 32:-1 33:-1 34:-1 35:-1 36:-1 37:-1 38:-0.767204 39:-0.674639 40:-1 41:-1 42:-1 43:-0.926161 44:-1 45:-1 46:-1 47:-1 48:-1 49:-1 50:-1 51:-1 52:-1 53:-1 54:-1 55:0.169916 56:-1 57:0.454884 58:-1 59:-1 60:-1 61:-1 62:-1 63:-1 64:-0.0368319 65:-0.232653 66:-1 67:-1 68:-1 69:-1 70:-1 71:-1 72:-1 73:-1 74:-1 75:0.002787 76:-1 77:-1 78:-1 79:-1 80:-1 81:-1 82:-0.18181 83:0.421049 84:-1 85:-1 86:-1 87:0.0390654 88:-1 89:-1 90:-1 91:-1 92:-1 93:-1 94:-1 95:-1 96:-1 97:-1 98:-1 99:0.307508 100:-1 101:-0.399997 102:-1 103:-1 104:-1 105:-1 106:-1 107:-1 108:-1 109:-0.910489 110:-1 111:-1 112:-1 113:-1 114:-1 115:-1 116:-1 117:-1 118:-1 119:-0.456636 120:-0.985616 121:-0.539463 122:-1 123:-0.275535 124:-1 125:-1 126:0.240619 127:0.263153 128:-0.775117 129:-0.681576 130:1 131:0.52558 
-0 0 0.07616351581055202 0 0 1.382570981392793 0 1.708448101390011 0 0:-1 1:-1 2:-1 3:-1 4:-1 5:-1 6:-1 7:-1 8:-1 9:-0.966638 10:-1 11:-0.0508533 12:-0.959324 13:0.0945946 14:-0.764119 15:-0.362165 16:-0.254057 17:-0.837832 18:-1 19:-0.837832 20:0.135141 21:0.251464 22:-1 23:-1 24:-1 25:-1 26:-1 27:-1 28:-1 29:-1 30:-1 31:-0.0376481 32:-1 33:-1 34:-1 35:-1 36:-1 37:-1 38:-0.521828 39:0.00245418 40:-1 41:-1 42:-1 43:-0.62891 44:-1 45:-1 46:-1 47:-1 48:-1 49:-1 50:-1 51:-1 52:-1 53:-1 54:-1 55:0.550848 56:-1 57:0.49421 58:-1 59:-1 60:-1 61:-1 62:-1 63:-1 64:-0.340539 65:-0.559268 66:-1 67:-1 68:-1 69:-1 70:-1 71:-1 72:-1 73:-1 74:-1 75:-0.389829 76:-1 77:-1 78:-1 79:-1 80:-1 81:-1 82:-0.439803 83:0.459461 84:-1 85:-1 86:-1 87:0.36352 88:-1 89:-1 90:-1 91:-1 92:-1 93:-1 94:-1 95:-1 96:-1 97:-1 98:-1 99:0.609458 100:-1 101:-0.537834 102:-1 103:-1 104:-1 105:-1 106:-1 107:-1 108:-1 109:-0.93252 110:-1 111:-1 112:-1 113:-1 114:-1 115:-1 116:-1 117:-1 118:-1 119:-0.512764 120:-0.929998 121:-0.61469 122:-1 123:0.116057 124:-1 125:-1 126:-0.150575 127:0.297293 128:-0.538083 129:-0.83648 130:0.643253 131:0.398103 
-0 0 0.05138537568880485 0 0 0 0 0 0 0:-1 1:-1 2:-1 3:-1 4:-1 5:-1 6:-1 7:-1 8:0.236362 9:-1 10:-1 11:-1 12:-0.927272 13:0.109593 14:-0.521796 15:-0.676716 16:-1 17:-1 18:-1 19:-1 20:-0.232889 21:-0.357803 22:-1 23:-1 24:-1 25:-1 26:-1 27:-1 28:-1 29:-1 30:-1 31:0.165547 32:-1 33:-1 34:-1 35:-1 36:-1 37:-1 38:-0.272914 39:0.354916 40:-1 41:-1 42:-1 43:-0.238288 44:-1 45:-1 46:-1 47:-1 48:-1 49:-1 50:-1 51:-1 52:-0.587879 53:-1 54:-1 55:-0.454548 56:-1 57:0.514678 58:-0.730587 59:-1 60:-1 61:-1 62:-1 63:-1 64:-0.665744 65:-0.321502 66:-1 67:-1 68:-1 69:-1 70:-1 71:-1 72:-0.407116 73:-1 74:-1 75:-1 76:-1 77:-1 78:-1 79:-1 80:-1 81:-1 82:-0.716056 83:0.479453 84:-0.709582 85:-1 86:-1 87:0.161203 88:-1 89:-1 90:-1 91:-1 92:-1 93:-1 94:-1 95:-1 96:-0.287015 97:-1 98:-1 99:0.569554 100:-1 101:0.40548 102:-0.72054 103:-1 104:-1 105:-1 106:-1 107:-1 108:-0.46302 109:-0.561392 110:-1 111:-1 112:-1 113:-1 114:-1 115:-1 116:-1 117:-1 118:-1 119:-1 120:-1 121:-1 122:-1 123:-1 124:-1 125:-1 126:-1 127:0.972604 128:-1 129:-0.502738 130:-0.583547 131:0.203459 
-0 0 0.01599037808776401 0.007116139521830061 0 0 0 1.94729094775255 0 0:-1 1:-1 2:-1 3:-1 4:-1 5:-1 6:-1 7:-0.892855 8:-1 9:-0.865185 10:-1 11:-0.56164 12:-0.956164 13:0.467397 14:-0.620555 15:-0.615215 16:-0.0999945 17:-0.739133 18:-0.701853 19:-0.86956 20:-0.695642 21:0.306297 22:-1 23:-1 24:-1 25:-1 26:-1 27:-1 28:-1 29:-1 30:-1 31:0.204326 32:-1 33:-1 34:-1 35:-1 36:-1 37:-1 38:-0.807684 39:-0.0592897 40:-1 41:-1 42:-1 43:-0.867379 44:-1 45:-1 46:-1 47:-1 48:-1 49:-1 50:-1 51:-1 52:-0.987579 53:-1 54:-1 55:0.191779 56:-1 57:0.20186 58:-0.786224 59:-1 60:-1 61:-1 62:-1 63:-1 64:-0.204338 65:-0.169367 66:-1 67:-1 68:-1 69:-1 70:-1 71:-1 72:-1 73:-1 74:-1 75:0.0684931 76:-1 77:-1 78:-1 79:-1 80:-1 81:-1 82:-0.549409 83:0.434777 84:-1 85:-1 86:-1 87:-0.241823 88:-1 89:-1 90:-1 91:-1 92:-1 93:-1 94:-1 95:-1 96:-1 97:-1 98:-1 99:0.330357 100:-1 101:0.486956 102:-1 103:-1 104:-1 105:-1 106:-1 107:-1 108:-0.573916 109:-0.547826 110:-1 111:-1 112:-1 113:-1 114:-1 115:-0.892246 116:-1 117:-1 118:-1 119:-0.774975 120:-0.702964 121:-0.971687 122:-1 123:-1 124:-0.65216 125:-0.690539 126:-0.658369 127:0.17391 128:-0.0711411 129:-0.736958 130:-0.66955 131:0.329753 
-0 0.100879463701061 0 0 0 0 0 0 0 0:-1 1:-1 2:-1 3:-1 4:-1 5:-1 6:-1 7:-1 8:-1 9:-0.215878 10:-1 11:-0.599693 12:-0.981524 13:0.648851 14:-0.733521 15:-0.909919 16:-0.367934 17:0.648857 18:-1 19:-1 20:-0.572527 21:0.389372 22:-1 23:-1 24:-1 25:-1 26:-1 27:-1 28:-1 29:-1 30:-1 31:-0.000668526 32:-1 33:-1 34:-1 35:-1 36:-1 37:-1 38:-1 39:-1 40:-1 41:-1 42:-1 43:-1 44:-1 45:-1 46:-1 47:-1 48:-1 49:-1 50:-1 51:-1 52:-0.989533 53:-0.593586 54:-1 55:-0.402423 56:-1 57:0.500537 58:-0.849865 59:-1 60:-0.358776 61:0.78796 62:-1 63:-1 64:-0.254968 65:0.784589 66:-1 67:-1 68:-1 69:-1 70:-1 71:-1 72:-1 73:-1 74:-1 75:0.302541 76:-1 77:-1 78:-1 79:-1 80:-1 81:-1 82:-1 83:-0.908392 84:-1 85:-1 86:-1 87:-0.981394 88:-1 89:-1 90:-1 91:-1 92:-1 93:-1 94:-1 95:-1 96:-1 97:-1 98:-1 99:0.0653646 100:-1 101:-0.216799 102:-1 103:-1 104:-1 105:-1 106:-1 107:-1 108:-0.551141 109:-0.480596 110:-1 111:-1 112:-1 113:-1 114:-1 115:-1 116:-1 117:-1 118:-1 119:0.232946 120:-0.994037 121:-0.689762 122:-1 123:-0.474628 124:-1 125:-1 126:0.919322 127:0.190842 128:-0.869528 129:-0.815269 130:0.392391 131:0.0993142 
-0.4050955813414652 0.4016206236614428 0.2959240543936073 0 0.5474345199977692 0 0 0 0 0:-1 1:-1 2:-1 3:-1 4:-1 5:-0.984628 6:-0.953288 7:-1 8:-1 9:0.240806 10:-1 11:-0.96704 12:-1 13:0.978454 14:-0.849524 15:-1 16:-0.0482722 17:0.551717 18:-0.763539 19:-1 20:-0.758613 21:0.384107 22:-1 23:-1 24:-1 25:-1 26:-1 27:-1 28:-1 29:-1 30:-1 31:-0.0321396 32:-1 33:-1 34:-1 35:-1 36:-1 37:-1 38:-1 39:-1 40:-1 41:-1 42:-1 43:-1 44:-1 45:-1 46:-1 47:-1 48:-1 49:-1 50:-1 51:-1 52:-1 53:-0.181064 54:-1 55:-0.406676 56:-1 57:0.48276 58:-1 59:-1 60:0.206877 61:0.425286 62:-1 63:-1 64:0.0517159 65:0.856486 66:-1 67:-1 68:-1 69:-1 70:-1 71:-1 72:-1 73:-1 74:-1 75:0.253401 76:-1 77:-1 78:-1 79:-1 80:-1 81:-1 82:-0.82131 83:-0.896548 84:-1 85:-1 86:-1 87:-0.947858 88:-1 89:-1 90:-1 91:-1 92:-1 93:-1 94:-1 95:-1 96:-1 97:-1 98:-1 99:0.0804014 100:-1 101:-0.705174 102:-1 103:-1 104:-1 105:-1 106:-1 107:-1 108:-0.662077 109:-0.818087 110:-1 111:-1 112:-1 113:-1 114:-1 115:-1 116:-1 117:-1 118:-1 119:-0.137045 120:-1 121:-0.540176 122:-1 123:-0.169368 124:-1 125:-1 126:0.896568 127:0.137934 128:-1 129:-0.791384 130:0.834501 131:0.357679 
-0 0 0 0.6617384090559179 0 0.1013908478021634 0.2044314284072728 0.3497814016355802 0.3152361059842064 0:-1 1:-1 2:-1 3:-1 4:-1 5:-1 6:-0.64514 7:-1 8:-1 9:-0.0759352 10:-1 11:-0.953053 12:-0.957748 13:0.714286 14:-0.722943 15:-0.812699 16:-0.78094 17:0.714281 18:-0.7823 19:-1 20:-0.777765 21:0.373557 22:-1 23:-1 24:-1 25:-1 26:-1 27:-1 28:-1 29:-1 30:-1 31:-0.0326158 32:-1 33:-1 34:-1 35:-1 36:-1 37:-1 38:-1 39:-1 40:-1 41:-1 42:-1 43:-1 44:-1 45:-1 46:-1 47:-1 48:-1 49:-1 50:-1 51:-1 52:-1 53:-0.173797 54:-1 55:-0.427818 56:-1 57:0.365075 58:-1 59:-1 60:0.111117 61:0.20283 62:-1 63:-1 64:0.161907 65:0.768642 66:-1 67:-1 68:-1 69:-1 70:-1 71:-1 72:-1 73:-1 74:-1 75:0.232395 76:-1 77:-1 78:-1 79:-1 80:-1 81:-1 82:-0.835487 83:-0.714281 84:-1 85:-1 86:-1 87:-0.885018 88:-1 89:-1 90:-1 91:-1 92:-1 93:-1 94:-1 95:-1 96:-1 97:-1 98:-1 99:0.139863 100:-1 101:-0.547615 102:-1 103:-1 104:-1 105:-1 106:-1 107:-1 108:-0.844435 109:-0.839535 110:-1 111:-1 112:-1 113:-1 114:-1 115:-1 116:-1 117:-1 118:-1 119:-0.216745 120:-0.993939 121:-0.466355 122:-1 123:0.092437 124:-1 125:-0.887015 126:0.496606 127:0.238098 128:-0.864349 129:-0.711899 130:0.206372 131:0.412126 
-0.06208441085305908 0 0.5279892283405042 1.165622832368249 0.1878470150937057 0.5582398916567568 0 0.08832051256623835 0.8942803135457212 0:-1 1:-1 2:-1 3:-1 4:-1 5:-1 6:-0.887074 7:-1 8:-0.977424 9:-1 10:-1 11:-1 12:-0.944224 13:0.661541 14:-0.5972 15:-0.727692 16:-0.787701 17:0.753844 18:-0.78902 19:-1 20:-0.784625 21:0.635435 22:-1 23:-1 24:-1 25:-1 26:-1 27:-1 28:-1 29:-1 30:-1 31:0.340847 32:-1 33:-1 34:-1 35:-1 36:-1 37:-1 38:-1 39:-1 40:-1 41:-1 42:-1 43:-1 44:-1 45:-1 46:-1 47:-1 48:-1 49:-1 50:-1 51:-1 52:-1 53:-1 54:-1 55:-0.103586 56:-1 57:0.512086 58:-1 59:-1 60:-0.784625 61:-0.576071 62:-1 63:-1 64:-0.0615248 65:0.0742869 66:-1 67:-1 68:-1 69:-1 70:-1 71:-1 72:-1 73:-1 74:-1 75:0.266931 76:-1 77:-1 78:-1 79:-1 80:-1 81:-1 82:-0.362241 83:0.107694 84:-1 85:-1 86:-1 87:-0.297145 88:-1 89:-1 90:-1 91:-1 92:-1 93:-1 94:-1 95:-1 96:-1 97:-1 98:-1 99:0.418695 100:-1 101:-1 102:-1 103:-1 104:-1 105:-1 106:-1 107:-1 108:-1 109:-1 110:-1 111:-1 112:-1 113:-1 114:-1 115:-1 116:-1 117:-1 118:-1 119:-0.550063 120:-0.989716 121:-0.526557 122:-1 123:0.799999 124:-1 125:-1 126:-0.516469 127:0.661541 128:-0.868536 129:-0.906927 130:0.169253 131:0.439103 
-0 0.4179929248452871 0 0.6754914366005579 0.1660037121212549 0.2897530124968725 0 0 0.7013042198869748 0:-1 1:-1 2:-1 3:-1 4:-1 5:-1 6:-1 7:-1 8:-1 9:-0.225355 10:-1 11:-0.482627 12:-1 13:0.588236 14:-1 15:-1 16:0.855459 17:0.210078 18:-1 19:-1 20:0.176469 21:0.459162 22:-1 23:-1 24:-1 25:-1 26:-1 27:-1 28:-1 29:-1 30:-1 31:0.0152845 32:-1 33:-1 34:-1 35:-1 36:-1 37:-1 38:-1 39:-1 40:-1 41:-1 42:-1 43:-1 44:-1 45:-1 46:-1 47:-1 48:-1 49:-1 50:-1 51:-1 52:-1 53:-1 54:-1 55:0.205653 56:-1 57:0.342138 58:-1 59:-1 60:-0.764717 61:-1 62:-1 63:-1 64:-0.384874 65:-0.210082 66:-1 67:-1 68:-1 69:-1 70:-1 71:-1 72:-1 73:-1 74:-1 75:0.037695 76:-1 77:-0.983919 78:-1 79:-0.731088 80:-1 81:-1 82:-0.303293 83:0.512597 84:-1 85:-1 86:-0.400553 87:0.0220883 88:-1 89:-1 90:-1 91:-1 92:-1 93:-1 94:-1 95:-1 96:-1 97:-1 98:-1 99:0.0766786 100:-1 101:-1 102:-1 103:-1 104:-1 105:-1 106:-1 107:-1 108:-1 109:-1 110:-1 111:-1 112:-1 113:-1 114:-1 115:-1 116:-1 117:-1 118:-1 119:-0.669916 120:-0.994274 121:-0.0376961 122:-1 123:0.619378 124:-1 125:-1 126:0.320542 127:0.310925 128:-0.856385 129:-0.898324 130:0.532779 131:0.588927 
-0 0 0 0 0 0 0.2894668950345636 0 0 0:-1 1:-1 2:-1 3:-1 4:-1 5:-1 6:-1 7:-1 8:-1 9:-1 10:-1 11:-1 12:0.51724 13:-0.316454 14:-0.337162 15:-1 16:-1 17:-1 18:-1 19:-1 20:-1 21:-0.713841 22:-1 23:-1 24:-1 25:-1 26:-1 27:-1 28:-0.17241 29:-1 30:-1 31:-0.94737 32:-1 33:-1 34:-0.833708 35:-0.502873 36:-0.677219 37:-0.850515 38:-0.5521 39:0.252014 40:-0.476802 41:-1 42:-1 43:0.0197429 44:-1 45:-1 46:-1 47:-1 48:-1 49:-1 50:-1 51:-1 52:-1 53:-1 54:-1 55:-1 56:-0.573073 57:0.710672 58:-0.75106 59:-1 60:-1 61:-1 62:-1 63:-1 64:-1 65:-0.0610893 66:-1 67:-1 68:-1 69:-1 70:-1 71:-1 72:0.724137 73:-1 74:-1 75:-1 76:-1 77:-1 78:-1 79:-1 80:-1 81:-1 82:-1 83:0.670889 84:-0.731651 85:-1 86:-1 87:-0.149125 88:-1 89:-1 90:-1 91:-1 92:-1 93:-1 94:-1 95:-1 96:-1 97:-1 98:-1 99:-0.627905 100:-1 101:0.587344 102:-1 103:-1 104:-1 105:-1 106:-1 107:-0.791847 108:-0.503807 109:-0.179838 110:-1 111:-1 112:-1 113:-1 114:-1 115:-1 116:-0.0147803 117:-1 118:-1 119:-1 120:-0.76263 121:-1 122:-1 123:-1 124:-1 125:-0.81981 126:-0.602175 127:0.367085 128:-0.567326 129:-0.540502 130:-1 131:-0.0526242 
-0 0 0.8432270861836038 0 0 0 0 0.6197141612575882 0.2571438057801639 0:-1 1:-1 2:-1 3:-1 4:-1 5:-1 6:-1 7:-1 8:-1 9:-1 10:-1 11:-1 12:-0.22124 13:0.317075 14:-0.148565 15:-0.856099 16:-1 17:-1 18:-1 19:-1 20:-1 21:-0.271484 22:-1 23:-1 24:-1 25:-1 26:-1 27:-1 28:-0.362837 29:-1 30:-1 31:-0.797391 32:-1 33:-1 34:-1 35:-1 36:-1 37:-0.855983 38:-0.568483 39:0.507755 40:-0.747969 41:-1 42:-1 43:-0.0595472 44:-1 45:-1 46:-1 47:-1 48:-1 49:-1 50:-1 51:-1 52:-0.277875 53:-1 54:-1 55:-0.269913 56:-1 57:0.648076 58:-1 59:-1 60:-1 61:-1 62:-1 63:-0.791465 64:-0.404882 65:-0.301907 66:-1 67:-1 68:-1 69:-1 70:-1 71:-1 72:-0.422853 73:-1 74:-1 75:-1 76:-1 77:-1 78:-1 79:-1 80:-1 81:-1 82:-0.494461 83:0.317069 84:-0.482934 85:-1 86:-1 87:0.123261 88:-1 89:-1 90:-1 91:-1 92:-1 93:-1 94:-1 95:-1 96:-0.219184 97:-1 98:-1 99:0.241404 100:-1 101:-0.0268298 102:-0.502443 103:-1 104:-1 105:-1 106:-1 107:-1 108:-0.282935 109:-0.524974 110:-1 111:-1 112:-1 113:-1 114:-1 115:-1 116:-0.810368 117:-1 118:-1 119:-1 120:-0.862933 121:-0.90855 122:-1 123:-1 124:-1 125:-1 126:-0.616726 127:0.317069 128:-0.583152 129:-0.704881 130:-0.629269 131:-0.0634018 
-0 0 0.2217028936476872 1.529358192773727 0.4039726764893102 0 0 0 1.281414654881698 0:-1 1:-1 2:-1 3:-1 4:-1 5:-1 6:-1 7:-1 8:-1 9:-1 10:-1 11:-1 12:0.077924 13:-0.480762 14:-0.496505 15:-0.886543 16:-1 17:-1 18:-1 19:-1 20:-1 21:-0.800013 22:-1 23:-1 24:-1 25:-1 26:-1 27:-1 28:-1 29:-1 30:-1 31:-0.895934 32:-1 33:-1 34:-0.577239 35:-0.62238 36:-0.264424 37:-0.886446 38:-0.659758 39:0.426576 40:-1 41:-1 42:-1 43:0.315682 44:-1 45:-1 46:-0.755002 47:-1 48:-1 49:-1 50:-1 51:-0.95992 52:-0.896971 53:-1 54:-1 55:0.0714262 56:-0.975879 57:-0.527468 58:-0.621791 59:-0.8077 60:-1 61:-0.867526 62:-0.355756 63:-0.506733 64:-0.765393 65:-0.359091 66:-1 67:-1 68:-0.679713 69:-1 70:-0.969227 71:-1 72:-1 73:-1 74:-0.360698 75:-1 76:-1 77:-1 78:-1 79:0.538464 80:-1 81:-1 82:-1 83:0.615377 84:-0.796163 85:-0.86539 86:-0.657066 87:0.430359 88:-1 89:-1 90:-1 91:-1 92:-1 93:-1 94:-1 95:-1 96:-0.713529 97:-1 98:-1 99:0.751733 100:-1 101:-0.780767 102:-0.803854 103:-1 104:-1 105:-1 106:-1 107:-1 108:-1 109:-0.962617 110:-1 111:-1 112:-1 113:-1 114:-1 115:-1 116:-1 117:-1 118:-0.409472 119:-1 120:-0.949714 121:-0.798696 122:-1 123:-0.338234 124:-0.076928 125:-1 126:-1 127:0.499997 128:-0.671324 129:-0.767305 130:0.461551 131:0.336665 
-0 0 0 0 0 0 0 0.8978373015627369 0 0:-1 1:-1 2:-1 3:-1 4:-1 5:-1 6:-1 7:-1 8:-1 9:-1 10:-1 11:-1 12:0.146668 13:0.227273 14:-0.546634 15:-1 16:-1 17:-1 18:-1 19:-1 20:-1 21:-0.689568 22:-1 23:-1 24:-1 25:-1 26:-1 27:-1 28:-0.840004 29:-1 30:-1 31:-0.877893 32:-1 33:-1 34:-0.903544 35:-0.829989 36:-0.66883 37:-0.84663 38:-0.310687 39:0.123964 40:-0.463203 41:-1 42:-1 43:0.22012 44:-1 45:-1 46:-1 47:-1 48:-1 49:-1 50:-1 51:-1 52:-0.879109 53:-1 54:-1 55:-0.400001 56:-0.702857 57:-0.0426743 58:-0.233768 59:-1 60:-1 61:-1 62:-1 63:-1 64:-0.0493491 65:-0.20578 66:-1 67:-1 68:-1 69:-1 70:-1 71:-1 72:-3.26087e-06 73:-1 74:-1 75:-1 76:-1 77:-1 78:-1 79:-1 80:-1 81:-1 82:-1 83:0.714281 84:-0.724677 85:-1 86:-1 87:0.0785976 88:-1 89:-1 90:-1 91:-1 92:-1 93:-1 94:-1 95:-1 96:-0.869289 97:-1 98:-1 99:0.258912 100:-1 101:0.480515 102:-0.735065 103:-1 104:-1 105:-1 106:-1 107:-0.786437 108:-0.745455 109:-0.522141 110:-1 111:-1 112:-1 113:-1 114:-1 115:-1 116:-0.142859 117:-1 118:-1 119:-1 120:-0.793488 121:-1 122:-1 123:-1 124:-1 125:-1 126:-0.18367 127:0.0909058 128:-0.33412 129:-0.685714 130:-0.605192 131:0.0265968 
-0 0 0 4.622189870117397 0 0 0 0 0.6482808378903741 0:-1 1:-1 2:-1 3:-1 4:-1 5:-1 6:-1 7:-1 8:-1 9:-1 10:-1 11:-1 12:-0.005236 13:-0.867646 14:-0.315501 15:-0.768626 16:-1 17:-1 18:-1 19:-1 20:-1 21:-0.759696 22:-1 23:-1 24:-1 25:-1 26:-1 27:-1 28:-1 29:-1 30:-1 31:-0.976025 32:-0.817822 33:-1 34:-0.318282 35:-0.486628 36:1.27501e-05 37:-0.826329 38:-0.826544 39:0.333329 40:-0.594767 41:-1 42:-1 43:0.467595 44:-1 45:-1 46:-0.60491 47:-1 48:-1 49:-1 50:-1 51:-0.903064 52:-0.833858 53:-1 54:-1 55:-0.0772237 56:-0.961104 57:-0.638653 58:-0.614376 59:-1 60:-1 61:-0.864922 62:-0.0146899 63:-0.664703 64:-0.521564 65:-0.352839 66:-1 67:-1 68:-0.870881 69:-1 70:-1 71:-1 72:-1 73:-1 74:-0.963179 75:-1 76:-0.314813 77:-1 78:-1 79:0.41176 80:-0.68024 81:-1 82:-1 83:0.529409 84:-0.792156 85:-0.862744 86:-0.650325 87:0.431326 88:-1 89:-1 90:-1 91:-1 92:-1 93:-1 94:-1 95:-1 96:-0.69203 97:-1 98:-1 99:0.299404 100:-1 101:-0.664704 102:-0.599996 103:-1 104:-1 105:-1 106:-1 107:-1 108:-0.807842 109:-0.894313 110:-1 111:-1 112:-1 113:-1 114:-1 115:-1 116:-1 117:-1 118:-1 119:-1 120:-0.405334 121:-1 122:-1 123:-0.0553686 124:-1 125:-1 126:-1 127:0.411761 128:-0.83244 129:-0.525486 130:-0.701956 131:0.0860697 
-0 0 0 0.3331575149173502 0 0 0 0 3.052689296609281 0:-1 1:-1 2:-1 3:-1 4:-1 5:-1 6:-1 7:-1 8:-1 9:-1 10:-1 11:-1 12:-0.264572 13:-0.171045 14:0.071782 15:-1 16:-1 17:-1 18:-1 19:-1 20:-1 21:-0.348881 22:-1 23:-1 24:-1 25:-1 26:-1 27:-1 28:-1 29:-1 30:-1 31:-0.353197 32:-1 33:-1 34:-1 35:-1 36:-1 37:-0.896407 38:-0.689605 39:0.409885 40:-1 41:-1 42:-1 43:-0.0907306 44:-1 45:-1 46:-0.943605 47:-1 48:-1 49:-1 50:-1 51:-0.640204 52:-1 53:-1 54:-1 55:-0.192829 56:-0.933373 57:0.724309 58:-0.482452 59:-1 60:-1 61:-0.637423 62:-0.118407 63:-0.399995 64:-0.785963 65:-0.0297685 66:-1 67:-1 68:-1 69:-1 70:-1 71:-1 72:-0.897641 73:-1 74:-1 75:-0.300447 76:-1 77:-1 78:-1 79:-1 80:-1 81:-1 82:-0.81818 83:0.368417 84:-0.814034 85:-1 86:-0.687133 87:0.125507 88:-1 89:-1 90:-1 91:-1 92:-1 93:-1 94:-1 95:-1 96:-1 97:-1 98:-1 99:0.669411 100:-1 101:-0.399997 102:-1 103:-1 104:-1 105:-1 106:-1 107:-1 108:-1 109:-0.931108 110:-1 111:-1 112:-1 113:-1 114:-1 115:-1 116:-0.855861 117:-1 118:-1 119:-0.493576 120:-0.907395 121:-0.953665 122:-1 123:-0.0340608 124:-1 125:-0.750256 126:-0.448614 127:0.0526259 128:-0.550235 129:-0.575435 130:-0.466659 131:0.220182 
-0 0 0 0 0 0 0 0.3897815266811122 0.8830598513463315 0:-1 1:-1 2:-1 3:-1 4:-1 5:-1 6:-1 7:-1 8:-1 9:-1 10:-1 11:-1 12:-0.049504 13:-0.047061 14:0.0267492 15:-1 16:-1 17:-1 18:-1 19:-1 20:-1 21:-0.51452 22:-1 23:-1 24:-1 25:-1 26:-1 27:-1 28:-1 29:-1 30:-1 31:-0.863992 32:-0.242075 33:-1 34:-1 35:-0.845986 36:-1 37:-0.861067 38:-0.375565 39:0.0181807 40:-0.270589 41:-1 42:-1 43:0.0147403 44:-1 45:-1 46:-1 47:-1 48:-1 49:-1 50:-1 51:-1 52:-0.842906 53:-1 54:-1 55:-1 56:-1 57:0.445375 58:-0.768622 59:-1 60:-1 61:-1 62:-1 63:-1 64:-0.425891 65:0.315078 66:-1 67:-1 68:-1 69:-1 70:-1 71:-1 72:-1 73:-1 74:-1 75:-1 76:0.540886 77:-1 78:-1 79:-1 80:-1 81:-1 82:-1 83:0.552941 84:-0.501187 85:-1 86:-1 87:-0.33675 88:-1 89:-1 90:-1 91:-1 92:-1 93:-1 94:-1 95:-1 96:-0.805869 97:-1 98:-0.763811 99:-0.946581 100:-1 101:0.609403 102:-0.520007 103:-1 104:-1 105:-1 106:-0.736465 107:-0.419612 108:-0.769406 109:0.225076 110:-1 111:-1 112:-1 113:-1 114:-1 115:-1 116:-1 117:-1 118:-1 119:-1 120:0.967996 121:-1 122:-1 123:-1 124:-1 125:-1 126:-1 127:0.694109 128:-0.798925 129:-1 130:-1 131:-0.80288 
-0 0 0 2.198150062114983 0 0 0 0 1.366941889082643 0:-1 1:-1 2:-1 3:-1 4:-1 5:-1 6:-1 7:-1 8:-1 9:-1 10:-1 11:-1 12:0.107012 13:-0.578125 14:-0.0909123 15:-0.87708 16:-1 17:-1 18:-1 19:-1 20:-1 21:-0.673903 22:-1 23:-1 24:-1 25:-1 26:-1 27:-1 28:-1 29:-1 30:-1 31:-0.932415 32:-0.58913 33:-1 34:-0.839843 35:-0.59091 36:-0.468756 37:-0.815476 38:-0.815698 39:0.41666 40:-0.56945 41:-1 42:-1 43:0.209685 44:-1 45:-1 46:-0.814365 47:-1 48:-1 49:-1 50:-1 51:-1 52:-0.799264 53:-1 54:-1 55:-0.695575 56:-0.972589 57:0.535711 58:-0.590285 59:-1 60:-1 61:-0.856477 62:-0.651028 63:-0.643756 64:-0.491673 65:0.168411 66:-1 67:-1 68:-1 69:-1 70:-1 71:-1 72:-1 73:-1 74:-1 75:-1 76:0.070249 77:-1 78:-1 79:-1 80:-1 81:-1 82:-1 83:0.499997 84:-0.558342 85:-1 86:-1 87:-0.0258107 88:-1 89:-1 90:-1 91:-1 92:-1 93:-1 94:-1 95:-1 96:-0.782949 97:-1 98:-1 99:-0.104092 100:-1 101:0.187501 102:-0.575006 103:-1 104:-1 105:-1 106:-1 107:-0.657414 108:-0.591674 109:-0.284446 110:-1 111:-1 112:-1 113:-1 114:-1 115:-1 116:-1 117:-1 118:-1 119:-1 120:0.200205 121:-1 122:-1 123:-1 124:-1 125:-1 126:-1 127:0.499997 128:-0.643944 129:-1 130:-0.683321 131:-0.442041 
-0 0 0 1.690970519326041 0 0 0 0.1823956066212521 0 0:-1 1:-1 2:-1 3:-1 4:-1 5:-1 6:-1 7:-1 8:-1 9:-1 10:-1 11:-1 12:0.128204 13:-0.727273 14:-0.294764 15:-1 16:-1 17:-1 18:-1 19:-1 20:-1 21:-0.749118 22:-1 23:-1 24:-1 25:-1 26:-1 27:-1 28:-1 29:-1 30:-1 31:-0.735832 32:-1 33:-1 34:-0.907262 35:-0.0743824 36:-0.742423 37:-0.821068 38:-0.821289 39:0.748388 40:-1 41:-1 42:-1 43:0.289482 44:-1 45:-1 46:-0.919382 47:-1 48:-1 49:-1 50:-1 51:-0.960438 52:-0.956412 53:-1 54:-1 55:-0.0384637 56:-0.928574 57:-0.00721784 58:-0.205389 59:-0.79798 60:-1 61:-1 62:-0.661614 63:-0.654546 64:-0.0141398 65:-0.0371972 66:-1 67:-1 68:-1 69:-1 70:-1 71:-1 72:-0.456525 73:-1 74:-1 75:-0.711538 76:-1 77:-1 78:-1 79:-1 80:-1 81:-1 82:-0.790633 83:0.333329 84:-0.357579 85:-1 86:-1 87:0.138546 88:-1 89:-1 90:-1 91:-1 92:-1 93:-1 94:-1 95:-1 96:-1 97:-1 98:-1 99:0.573644 100:-1 101:0.266662 102:-1 103:-1 104:-1 105:-1 106:-1 107:-1 108:-0.802021 109:-0.806903 110:-1 111:-1 112:-1 113:-1 114:-1 115:-1 116:-0.725275 117:-1 118:-1 119:-0.638038 120:-0.933808 121:-0.966882 122:-1 123:-0.860963 124:-1 125:-1 126:-0.0476146 127:0.0909058 128:-0.654729 129:-0.633333 130:-0.385855 131:0.120056 
-0 0 0 0 0 0 0.5763119279050136 0 0 0:-1 1:-1 2:-1 3:-1 4:-1 5:-1 6:-1 7:-1 8:-1 9:-0.574297 10:-1 11:-0.966067 12:-0.969464 13:0.579785 14:-0.628619 15:-0.748932 16:-0.119149 17:0.531917 18:-1 19:-1 20:-0.702138 21:0.327308 22:-1 23:-1 24:-1 25:-1 26:-1 27:-1 28:-1 29:-1 30:-1 31:0.398153 32:-1 33:-1 34:-1 35:-1 36:-1 37:-1 38:-1 39:-1 40:-1 41:-1 42:-1 43:-1 44:-1 45:-1 46:-1 47:-1 48:-1 49:-1 50:-1 51:-1 52:-1 53:-1 54:-1 55:-0.522903 56:-1 57:0.699087 58:-1 59:-1 60:-0.702138 61:-0.413713 62:-1 63:-1 64:-0.48084 65:0.44685 66:-1 67:-1 68:-1 69:-1 70:-1 71:-1 72:-0.917024 73:-1 74:-1 75:0.450381 76:-1 77:-1 78:-1 79:-1 80:-1 81:-1 82:-0.338488 83:-0.234042 84:-0.774475 85:-1 86:-1 87:-0.619048 88:-1 89:-1 90:-1 91:-1 92:-1 93:-1 94:-1 95:-1 96:-1 97:-1 98:-1 99:0.249303 100:-1 101:-0.151067 102:-1 103:-1 104:-1 105:-1 106:-1 107:-1 108:-0.374467 109:-0.689873 110:-1 111:-1 112:-1 113:-1 114:-1 115:-1 116:-1 117:-1 118:-1 119:-0.399153 120:-0.960587 121:-0.737068 122:-1 123:-0.707128 124:-1 125:-1 126:0.337388 127:0.148938 128:-0.636356 129:-0.742548 130:0.293621 131:0.362112 
-0.6413177292122486 1.074525106259426 0.5981860882356728 0 0.3938066369377081 2.008589572872248 0.4324859350291379 0.5245706893816151 0 0:-1 1:-1 2:-1 3:-1 4:-1 5:-1 6:-1 7:-1 8:-0.773334 9:-0.967199 10:-1 11:1 12:-0.906668 13:0.227273 14:-0.603309 15:-0.597727 16:-0.372737 17:-1 18:-1 19:-0.454541 20:-0.363648 21:-0.389532 22:-1 23:-1 24:-1 25:-1 26:-1 27:-1 28:-1 29:-1 30:-1 31:-0.282631 32:-1 33:-1 34:-1 35:-1 36:-1 37:-0.932898 38:-0.195793 39:-0.0165363 40:-1 41:-1 42:-1 43:-0.137139 44:-1 45:-1 46:-1 47:-1 48:-1 49:-1 50:-1 51:-1 52:-0.622223 53:-1 54:-1 55:0.625 56:-1 57:-0.860385 58:-1 59:-1 60:-1 61:-1 62:-1 63:-1 64:-1 65:-0.978165 66:-1 67:-1 68:-1 69:-1 70:-1 71:-1 72:-1 73:-1 74:-0.531188 75:-0.959998 76:-1 77:-1 78:-1 79:0.818176 80:-1 81:-1 82:-0.764455 83:0.636365 84:-1 85:-1 86:-0.189407 87:0.816725 88:-1 89:-1 90:-1 91:-1 92:-1 93:-1 94:-1 95:-1 96:-0.640532 97:-1 98:-1 99:0.186976 100:-1 101:-0.222727 102:-0.536368 103:-1 104:-1 105:-1 106:-1 107:-1 108:-0.777266 109:-0.750384 110:-1 111:-1 112:-1 113:-1 114:-1 115:-1 116:-1 117:-1 118:-1 119:-1 120:-0.74186 121:-1 122:-1 123:-0.530747 124:-0.636352 125:-1 126:-1 127:0.227274 128:-0.417352 129:-0.449994 130:-1 131:0.358502 
-0 0 0.2974836334391444 0 0 0 0 0 0 0:-1 1:-1 2:-1 3:-1 4:-1 5:-1 6:-1 7:-1 8:-1 9:-0.596252 10:-1 11:-0.521373 12:-0.989744 13:0.588236 14:-0.828875 15:-0.884313 16:0.352948 17:-0.411761 18:-1 19:-1 20:-0.450979 21:0.151917 22:-1 23:-1 24:-1 25:-1 26:-1 27:-1 28:-1 29:-1 30:-1 31:0.408904 32:-1 33:-1 34:-1 35:-1 36:-1 37:-1 38:-0.826544 39:-0.393936 40:-1 41:-1 42:-1 43:-0.883052 44:-1 45:-1 46:-1 47:-1 48:-1 49:-1 50:-1 51:-1 52:-0.814015 53:-1 54:-1 55:-0.115384 56:-1 57:0.445375 58:-1 59:-1 60:-1 61:-1 62:-1 63:-1 64:-0.0431271 65:-0.186147 66:-1 67:-1 68:-1 69:-1 70:-1 71:-1 72:-1 73:-1 74:-1 75:0.030771 76:-1 77:-1 78:-1 79:-1 80:-1 81:-1 82:-0.187157 83:0.411761 84:-1 85:-1 86:-1 87:0.0457126 88:-1 89:-1 90:-1 91:-1 92:-1 93:-1 94:-1 95:-1 96:-0.17047 97:-1 98:-1 99:-0.169948 100:-1 101:-0.441173 102:-0.599996 103:-0.618536 104:-1 105:-1 106:-1 107:-0.838779 108:-0.615684 109:-0.747467 110:-1 111:-1 112:-1 113:-1 114:-1 115:-1 116:-1 117:-1 118:-0.961138 119:-0.7894 120:-0.94705 121:-0.894021 122:-1 123:-0.730101 124:-0.686272 125:-1 126:-0.383745 127:0.294113 128:-0.664881 129:-0.525486 130:0.192175 131:0.479079 
-0 0 0 0 0 0 0.415070331716473 0 0 0:-1 1:-1 2:-1 3:-1 4:-1 5:-1 6:-1 7:-1 8:-1 9:-1 10:-1 11:-1 12:-0.072464 13:-0.276791 14:-0.220774 15:-1 16:-1 17:-1 18:-1 19:-1 20:-1 21:-0.588336 22:-1 23:-1 24:-1 25:-1 26:-1 27:-1 28:-1 29:-1 30:-1 31:-0.988942 32:0.176673 33:-1 34:-0.650533 35:-0.649347 36:-0.316954 37:-0.894559 38:-0.842025 39:0.324675 40:-0.0773762 41:-1 42:-1 43:0.12846 44:-1 45:-1 46:-1 47:-1 48:-1 49:-1 50:-1 51:-1 52:-0.989052 53:-1 54:-1 55:-1 56:-0.551419 57:0.64541 58:-0.648813 59:-1 60:-1 61:-0.138887 62:-1 63:-1 64:-0.782132 65:0.570597 66:-1 67:-1 68:-1 69:-1 70:-1 71:-1 72:-0.637679 73:-1 74:-1 75:-1 76:0.537837 77:-1 78:-1 79:-1 80:-1 81:-1 82:-1 83:-0.0357179 84:-0.621433 85:-1 86:-1 87:-0.78496 88:-1 89:-1 90:-1 91:-1 92:-1 93:-1 94:-1 95:-1 96:-0.952639 97:-1 98:-1 99:-0.687227 100:-1 101:0.221427 102:-0.635716 103:-1 104:-0.678559 105:-0.516486 106:-1 107:-0.55952 108:-0.300007 109:0.282481 110:-1 111:-1 112:-1 113:-1 114:-1 115:-1 116:-0.637686 117:-1 118:-1 119:-1 120:0.15976 121:-1 122:-1 123:-1 124:-1 125:-0.872893 126:-0.719373 127:-0.142854 128:-0.542202 129:-1 130:-1 131:-0.755706 
-0.5693397310655012 0 0.2895617993172883 0 0.009118005677893396 1.169705898001133 0.09758489561497752 0.1927119954391759 0.006172599984743867 0:-1 1:-1 2:-1 3:-1 4:-1 5:-1 6:-1 7:-1 8:-0.395561 9:-1 10:-1 11:-1 12:-0.306668 13:0.124997 14:-1 15:-0.719043 16:-1 17:-1 18:-1 19:-1 20:-0.666662 21:-0.694412 22:-1 23:-1 24:-1 25:-1 26:-1 27:-1 28:-1 29:-1 30:-1 31:-0.592982 32:-1 33:-1 34:-1 35:-0.532472 36:-1 37:-0.859408 38:-0.578744 39:0.61904 40:-1 41:-1 42:-0.536788 43:0.301402 44:-1 45:-1 46:-1 47:-1 48:-1 49:-1 50:-1 51:-1 52:-0.536593 53:-1 54:-1 55:-1 56:0.287615 57:-0.707478 58:-0.765869 59:-1 60:-1 61:-1 62:-1 63:-1 64:-1 65:-0.925052 66:-1 67:-1 68:-1 69:-1 70:-1 71:-1 72:-0.971017 73:-1 74:-1 75:-0.973336 76:-0.748475 77:-1 78:-1 79:0.904768 80:-1 81:-1 82:-0.506482 83:0.142854 84:-0.242866 85:-1 86:-1 87:0.789237 88:-1 89:-1 90:-1 91:-1 92:-1 93:-1 94:-1 95:-1 96:-0.956433 97:-1 98:-0.787953 99:-1 100:0.774545 101:0.357144 102:-0.0285703 103:-1 104:-1 105:-0.838824 106:-0.466658 107:-0.608459 108:-1 109:-0.143184 110:-1 111:-1 112:-1 113:-1 114:-1 115:-1 116:-1 117:-1 118:-1 119:-1 120:0.239071 121:-1 122:-1 123:-1 124:-1 125:-1 126:-1 127:-0.142854 128:-0.186146 129:-1 130:-1 131:-0.386429 
-0 0 0 1.016560888508369 0 0 0 0 0 0:-1 1:-1 2:-1 3:-1 4:-1 5:-1 6:-1 7:-1 8:-0.869735 9:-1 10:-1 11:-1 12:-0.24138 13:0.124997 14:-0.454544 15:-1 16:-1 17:-1 18:-1 19:-1 20:-0.708326 21:-0.556067 22:-1 23:-1 24:-1 25:-1 26:-0.919468 27:-0.669443 28:-0.793108 29:-1 30:-1 31:-0.763159 32:-0.360075 33:-1 34:-1 35:-0.318187 36:-0.734365 37:-1 38:-0.262811 39:0.674244 40:-0.56945 41:-1 42:-1 43:-0.043859 44:-1 45:-1 46:-1 47:-1 48:-1 49:-1 50:-1 51:-1 52:-0.86973 53:-1 54:-1 55:-1 56:-0.573073 57:0.407731 58:-0.590285 59:-1 60:-1 61:-1 62:-1 63:-1 64:-0.745825 65:-0.00797658 66:-1 67:-1 68:-1 69:-1 70:-1 71:-1 72:-1 73:-1 74:-1 75:-1 76:-0.146231 77:-1 78:-1 79:-1 80:-1 81:-1 82:-1 83:0.625001 84:-0.77916 85:-1 86:-1 87:0.248651 88:-1 89:-1 90:-1 91:-1 92:-1 93:-1 94:-1 95:-1 96:-0.774625 97:-1 98:-0.9086 99:-0.782945 100:-1 101:0.306243 102:-0.575006 103:-1 104:-1 105:-0.717953 106:-0.76666 107:-1 108:-0.387501 109:0.0273691 110:-1 111:-1 112:-1 113:-1 114:-1 115:-1 116:-1 117:-1 118:-1 119:-1 120:0.92863 121:-1 122:-1 123:-1 124:-1 125:-1 126:-1 127:0.124998 128:-0.465908 129:-1 130:-1 131:-0.702886 
-2.11239858342315 1.487998441584296 0 2.06969944831686 0 0 2.749909294992912 0.01874441467733643 0 0:-1 1:-1 2:-1 3:-1 4:-1 5:-1 6:-1 7:-1 8:-1 9:-1 10:-1 11:-1 12:0.125 13:-0.866336 14:-0.654364 15:-1 16:-1 17:-1 18:-1 19:-1 20:-1 21:-0.941338 22:-1 23:-1 24:-1 25:-1 26:-1 27:-1 28:-0.937504 29:-1 30:-1 31:-0.654194 32:-1 33:-1 34:-0.623232 35:0.0369032 36:-0.495047 37:-0.883074 38:-0.824828 39:0.468946 40:-0.795379 41:-1 42:-1 43:0.0703629 44:-1 45:-1 46:-1 47:-1 48:-1 49:-1 50:-1 51:-1 52:-1 53:-1 54:-1 55:-1 56:0.025298 57:0.216406 58:-0.221122 59:-1 60:-1 61:-1 62:-1 63:-1 64:-1 65:-0.00964173 66:-1 67:-0.54792 68:-1 69:-1 70:-1 71:-1 72:-0.388588 73:-1 74:-1 75:-0.625 76:-0.981579 77:-1 78:-1 79:-1 80:-0.677076 81:-0.643565 82:-0.794779 83:0.188118 84:0.0495018 85:-1 86:-1 87:-0.222142 88:-1 89:-1 90:-1 91:-1 92:-1 93:-1 94:-1 95:-1 96:-1 97:-1 98:-0.751501 99:-0.971901 100:-0.740058 101:0.467325 102:-0.596038 103:-1 104:-1 105:-0.329777 106:-0.556437 107:-0.348736 108:-0.805941 109:0.562541 110:-1 111:-1 112:-1 113:-1 114:-1 115:-1 116:-1 117:-1 118:-1 119:-1 120:0.34448 121:-1 122:-1 123:-1 124:-0.683168 125:-0.859056 126:-1 127:-0.762376 128:0.0153049 129:-0.880198 130:-1 131:-0.61524 
-0 0 0 0 0 0 1.305511547160632 0 0 0:-1 1:-1 2:-1 3:-1 4:-1 5:-1 6:-1 7:-1 8:-1 9:-0.890654 10:-1 11:-1 12:-0.622224 13:0.730769 14:-0.776215 15:-0.848713 16:-0.292311 17:-0.384617 18:-1 19:-1 20:-1 21:-0.0379381 22:-1 23:-1 24:-1 25:-1 26:-1 27:-1 28:-0.799996 29:-1 30:-1 31:0.297366 32:-1 33:-1 34:-1 35:-1 36:-1 37:-1 38:-1 39:-0.207455 40:-0.735032 41:-1 42:-1 43:-0.855275 44:-1 45:-1 46:-1 47:-1 48:-1 49:-1 50:-1 51:-1 52:-1 53:-1 54:-1 55:-1 56:-0.917461 57:0.732602 58:-0.747854 59:-1 60:-0.641014 61:0.236475 62:-1 63:-1 64:-1 65:0.557716 66:-1 67:-1 68:-1 69:-1 70:-1 71:-1 72:-0.710148 73:-1 74:-1 75:0.566668 76:-1 77:-1 78:-1 79:-1 80:-1 81:-1 82:-0.734255 83:-0.538457 84:-1 85:-1 86:-1 87:-0.858571 88:-1 89:-1 90:-1 91:-1 92:-1 93:-1 94:-1 95:-1 96:-1 97:-1 98:-1 99:-0.190698 100:-1 101:0.315386 102:-1 103:-1 104:-1 105:-1 106:-1 107:-1 108:0.00512539 109:-0.0569927 110:-1 111:-1 112:-1 113:-1 114:-1 115:-1 116:-1 117:-1 118:-1 119:0.254814 120:-0.971316 121:-1 122:-1 123:-1 124:-1 125:-1 126:0.208813 127:0.384617 128:-0.780877 129:-0.534609 130:-0.610239 131:0.0333554 
-0 0 0 0 0.1061938848078732 0.3109375077399061 0 1.253137070283671 0 0:-1 1:-1 2:-1 3:-1 4:-1 5:-1 6:-1 7:-1 8:-0.465975 9:-1 10:-1 11:-1 12:-0.12042 13:0.0618031 14:-0.80388 15:-0.734831 16:-1 17:-1 18:-1 19:-1 20:-0.370788 21:-0.610628 22:-1 23:-1 24:-1 25:-1 26:-1 27:-1 28:-1 29:-1 30:-0.709691 31:-0.688343 32:-1 33:-1 34:-1 35:-0.705822 36:-1 37:-0.933654 38:-0.403625 39:0.528093 40:-1 41:-0.932584 42:-0.562819 43:0.137578 44:-1 45:-1 46:-1 47:-1 48:-1 49:-1 50:-1 51:-1 52:-0.833858 53:-1 54:-1 55:-1 56:0.361255 57:0.38042 58:-0.337077 59:-0.77528 60:-1 61:-1 62:-1 63:-1 64:-1 65:-0.343229 66:-1 67:-1 68:-1 69:-1 70:-1 71:-1 72:-1 73:-1 74:-1 75:-1 76:-0.111116 77:-1 78:-1 79:-1 80:-0.633535 81:-1 82:-1 83:0.483149 84:-0.285393 85:-1 86:-1 87:0.136368 88:-1 89:-1 90:-1 91:-1 92:-1 93:-1 94:-1 95:-1 96:-1 97:-1 98:-1 99:-0.887011 100:-0.564495 101:0.408991 102:-0.770785 103:-1 104:-1 105:-1 106:-1 107:-0.630462 108:-0.55955 109:0.168347 110:-1 111:-1 112:-1 113:-1 114:-1 115:-1 116:-0.831711 117:-1 118:-1 119:-1 120:0.243397 121:-1 122:-1 123:-1 124:-1 125:-1 126:-0.646867 127:0.213486 128:-0.423898 129:-1 130:-1 131:-0.596758 
-0 0.3707015584537177 0 0 0.8020704660010742 0 0 0.726264073119711 0.2943898284151558 0:-1 1:-1 2:-1 3:-1 4:-1 5:-1 6:-1 7:-1 8:-0.709403 9:-1 10:-1 11:-1 12:-0.128204 13:0.186813 14:-0.616383 15:-1 16:-1 17:-1 18:-1 19:-1 20:-0.69231 21:-0.70384 22:-1 23:-1 24:-1 25:-1 26:-1 27:-1 28:-0.948712 29:-1 30:-0.921005 31:-0.882591 32:-0.524159 33:-1 34:-1 35:-1 36:-0.719779 37:-0.935113 38:-0.222314 39:0.08691 40:-0.545787 41:-0.868132 42:-0.572429 43:0.264589 44:-1 45:-1 46:-1 47:-1 48:-1 49:-1 50:-1 51:-1 52:-0.883761 53:-1 54:-1 55:-1 56:-0.142855 57:0.350075 58:-0.35165 59:-0.78022 60:-1 61:-1 62:-1 63:-1 64:-1 65:-0.0352259 66:-1 67:-1 68:-1 69:-1 70:-1 71:-1 72:-1 73:-1 74:-1 75:-1 76:0.239475 77:-1 78:-1 79:-0.824176 80:-1 81:-1 82:-1 83:0.450545 84:-0.301102 85:-1 86:-1 87:-0.203604 88:-1 89:-1 90:-1 91:-1 92:-1 93:-1 94:-1 95:-1 96:-0.958099 97:-1 98:-0.932027 99:-0.930826 100:-0.715619 101:0.378017 102:-0.551648 103:-1 104:-0.604399 105:0.636519 106:-0.753847 107:-0.819293 108:-0.353848 109:0.511706 110:-1 111:-1 112:-1 113:-1 114:-1 115:-1 116:-0.587908 117:-1 118:-1 119:-1 120:0.522364 121:-1 122:-1 123:-1 124:-1 125:-1 126:-1 127:-0.868132 128:-0.812188 129:-1 130:-1 131:-0.957307 
-0 1.268032438306559 0 0 0 0.2439705973898879 0 0 0 0:-1 1:-1 2:-1 3:-1 4:-1 5:-1 6:-1 7:-1 8:-0.490636 9:-0.834135 10:-1 11:-0.176027 12:-1 13:-0.0357075 14:-0.792203 15:-0.438097 16:-0.342846 17:-1 18:-1 19:-1 20:0.666662 21:-0.0481219 22:-1 23:-1 24:-1 25:-1 26:-1 27:-1 28:-1 29:-1 30:-1 31:0.00325105 32:-1 33:-1 34:-1 35:-1 36:-1 37:-1 38:-0.578744 39:0.324675 40:-1 41:-1 42:-1 43:-0.408354 44:-1 45:-1 46:-1 47:-1 48:-1 49:-1 50:-1 51:-1 52:-0.69438 53:-1 54:-1 55:-0.452246 56:-1 57:0.316326 58:-0.297625 59:-1 60:-1 61:-1 62:-1 63:-1 64:-0.709517 65:0.0134769 66:-1 67:-1 68:-1 69:-1 70:-1 71:-1 72:-0.487053 73:-1 74:-1 75:-0.123597 76:-1 77:-1 78:-1 79:-1 80:-1 81:-1 82:-1 83:0.571421 84:-0.49523 85:-1 86:-1 87:-0.332881 88:-1 89:-1 90:-1 91:-1 92:-1 93:-1 94:-1 95:-1 96:-1 97:-1 98:-1 99:-0.42409 100:-1 101:0.357144 102:-1 103:-1 104:-1 105:-1 106:-1 107:-1 108:-0.300007 109:-0.0483039 110:-1 111:-1 112:-1 113:-1 114:-1 115:-1 116:-0.518458 117:-1 118:-1 119:-0.538574 120:-0.506922 121:-1 122:-1 123:-1 124:-1 125:-0.491601 126:-0.625841 127:-5.99999e-06 128:-0.186146 129:-0.855949 130:-1 131:-0.336265 
-0 0 0 0 0 0 0 0 0.06832872107496188 0:-1 1:-1 2:-1 3:-1 4:-1 5:-1 6:-1 7:-1 8:-1 9:-1 10:-1 11:-1 12:-0.096776 13:-0.367187 14:0.36364 15:-1 16:-1 17:-1 18:-1 19:-1 20:-1 21:-0.413377 22:-1 23:-1 24:-1 25:-1 26:-1 27:-1 28:-0.322577 29:-1 30:-1 31:-0.630731 32:-1 33:-1 34:-0.883318 35:-1 36:-0.601561 37:-0.815476 38:-1 39:0.545452 40:-0.354165 41:-1 42:-1 43:-0.122879 44:-1 45:-1 46:-1 47:-1 48:-1 49:-1 50:-1 51:-1 52:-1 53:-1 54:-1 55:-1 56:-1 57:0.919639 58:-1 59:-1 60:-1 61:-1 62:-1 63:-1 64:-1 65:0.525976 66:-1 67:-1 68:-1 69:-1 70:-1 71:-1 72:0.420055 73:-1 74:-1 75:-0.51613 76:-1 77:-1 78:-1 79:-1 80:-1 81:-1 82:-1 83:0.687497 84:-0.668751 85:-1 86:-1 87:-0.58214 88:-1 89:-1 90:-1 91:-1 92:-1 93:-1 94:-1 95:-1 96:-1 97:-1 98:-1 99:-0.477871 100:-1 101:0.0687475 102:-1 103:-1 104:-1 105:-1 106:-1 107:-0.743056 108:-0.0812517 109:-0.0530058 110:-1 111:-1 112:-1 113:-1 114:-1 115:-1 116:0.382483 117:-1 118:-1 119:-0.503226 120:-0.750188 121:-0.916661 122:-1 123:-1 124:-1 125:-0.555147 126:-0.0178515 127:-0.250001 128:-0.198862 129:-0.810937 130:-0.524997 131:-0.475328 
-0.3569161183076126 0.581263498073313 0.8227409598507283 2.827811297814233 0.8663040732620696 6.333792203667333 0 3.589862300520838 7.445349449396922 0:-1 1:-1 2:-1 3:-1 4:-1 5:-1 6:-1 7:-1 8:-1 9:-1 10:-1 11:-1 12:-0.20792 13:-0.700003 14:-0.418186 15:-0.475562 16:-1 17:-1 18:-1 19:-1 20:-1 21:-0.55305 22:-1 23:-1 24:-1 25:-1 26:-1 27:-1 28:-1 29:-1 30:-0.877995 31:-0.954664 32:-0.908125 33:-1 34:-0.474765 35:-0.709094 36:-0.150004 37:-0.803177 38:-0.60684 39:0.236361 40:-0.540744 41:-0.933334 42:-0.567682 43:0.493197 44:-1 45:-1 46:-1 47:-1 48:-1 49:-1 50:-1 51:-1 52:-0.835422 53:-1 54:-1 55:0.658413 56:-1 57:-1 58:-1 59:-1 60:-1 61:-1 62:-1 63:-0.0499919 64:-0.728891 65:-0.872106 66:-1 67:-1 68:-0.918603 69:-1 70:-1 71:-1 72:-1 73:-1 74:-0.814335 75:-1 76:-0.463022 77:-1 78:-1 79:0.6 80:-0.275224 81:-1 82:-1 83:0.466661 84:-0.764448 85:-1 86:-0.603709 87:0.504083 88:-1 89:-1 90:-1 91:-1 92:-1 93:-1 94:-1 95:-1 96:-0.805869 97:-1 98:-1 99:0.460126 100:-1 101:-0.74667 102:-0.773335 103:-1 104:-1 105:-1 106:-1 107:-1 108:-1 109:-0.947784 110:-1 111:-1 112:-1 113:-1 114:-1 115:-1 116:-1 117:-1 118:-1 119:-1 120:-0.488832 121:-1 122:-1 123:0.376472 124:-1 125:-1 126:-1 127:0.333329 128:-0.620205 129:-0.59667 130:-0.662223 131:0.291259 
-0 0 0 0 0 0 0 1.263599658410441 0 0:-1 1:-1 2:-1 3:-1 4:-1 5:-1 6:-1 7:-1 8:-1 9:-1 10:-1 11:-1 12:0.132948 13:-0.526312 14:-0.693777 15:-0.792981 16:-1 17:-1 18:-1 19:-1 20:-1 21:-0.856043 22:-1 23:-1 24:-1 25:-1 26:-1 27:-1 28:-1 29:-1 30:-1 31:-0.973534 32:-0.678193 33:-1 34:-0.0800859 35:-0.540667 36:0.342122 37:-0.896407 38:-0.689605 39:0.301431 40:-0.274847 41:-1 42:-1 43:0.124654 44:-1 45:-1 46:-1 47:-1 48:-1 49:-1 50:-1 51:-1 52:-1 53:-1 54:-1 55:-1 56:-0.398843 57:0.293229 58:0.0350951 59:-1 60:-1 61:-1 62:-1 63:-1 64:-1 65:0.318145 66:-1 67:-1 68:-1 69:-1 70:-1 71:-1 72:-0.886907 73:-1 74:-1 75:-1 76:0.267608 77:-1 78:-1 79:-1 80:-1 81:-1 82:-1 83:0.263153 84:0.115794 85:-1 86:-1 87:-0.305874 88:-1 89:-1 90:-1 91:-1 92:-1 93:-1 94:-1 95:-1 96:-1 97:-1 98:-0.72421 99:-0.844064 100:-0.807668 101:0.399997 102:-0.642102 103:-1 104:-1 105:-1 106:-0.214031 107:-0.7115 108:-0.312276 109:0.345421 110:-1 111:-1 112:-1 113:-1 114:-1 115:-1 116:-0.876132 117:-1 118:-1 119:-1 120:0.432454 121:-1 122:-1 123:-1 124:-1 125:-1 126:-0.448614 127:-0.157902 128:-0.400313 129:-1 130:-1 131:-0.730228 
-0.1964583460516207 0 0 0 0 0 0 0 0.2869986313672344 0:-1 1:-1 2:-1 3:-1 4:-0.758418 5:-1 6:-1 7:-1 8:0.0461549 9:-1 10:-1 11:-1 12:-0.93846 13:0.0800011 14:-0.301816 15:-0.68533 16:-0.63201 17:-1 18:-1 19:-1 20:-0.253328 21:-0.15821 22:-1 23:-1 24:-1 25:-1 26:-1 27:-1 28:-1 29:-1 30:-1 31:0.76113 32:-1 33:-1 34:-1 35:-1 36:-1 37:-1 38:-0.528197 39:0.483634 40:-1 41:-1 42:-1 43:-0.50244 44:-1 45:-1 46:-1 47:-1 48:-1 49:-1 50:-1 51:-1 52:-1 53:-1 54:-1 55:-1 56:-1 57:0.965711 58:-1 59:-1 60:-1 61:-1 62:-1 63:-1 64:-1 65:0.156185 66:-1 67:-1 68:-1 69:-1 70:-1 71:-1 72:-0.899663 73:-1 74:-1 75:-0.90769 76:-0.129346 77:-1 78:-1 79:-1 80:-1 81:-1 82:-0.723643 83:0.439997 84:-0.434662 85:-1 86:-1 87:-0.0359993 88:-1 89:-1 90:-1 91:-1 92:-1 93:-1 94:-1 95:-1 96:-1 97:-1 98:-1 99:-0.833991 100:-1 101:0.672 102:-1 103:-1 104:-1 105:-1 106:-1 107:-0.561477 108:-0.738674 109:-0.0952481 110:-1 111:-1 112:-1 113:-1 114:-1 115:-1 116:-0.340665 117:-1 118:-1 119:-1 120:0.270843 121:-1 122:-1 123:-1 124:-1 125:-1 126:-0.58096 127:0.280001 128:-0.544236 129:-0.83867 130:-1 131:-0.447876 
-2.502143419343531 0 0 0 0.02270103663708518 0 0.6769278632746301 0 0 0:-1 1:-1 2:-1 3:-1 4:-1 5:-1 6:-1 7:-1 8:-1 9:-1 10:-1 11:-1 12:-0.025088 13:-0.798512 14:-0.73949 15:-1 16:-1 17:-1 18:-1 19:-1 20:-1 21:-0.953305 22:-1 23:-1 24:-1 25:-1 26:-1 27:-1 28:-1 29:-1 30:-1 31:-0.983589 32:-0.45124 33:-1 34:0.0889691 35:-0.609224 36:0.902998 37:-0.911872 38:-0.735941 39:0.107186 40:-0.0746275 41:-1 42:-1 43:0.128041 44:-1 45:-1 46:-1 47:-1 48:-1 49:-1 50:-1 51:-1 52:-1 53:-1 54:-1 55:-1 56:-0.0148534 57:0.100208 58:0.174119 59:-1 60:-1 61:-1 62:-1 63:-1 64:-1 65:-0.118123 66:-1 67:-1 68:-1 69:-1 70:-1 71:-1 72:-1 73:-1 74:-1 75:-1 76:0.26775 77:-1 78:-1 79:-1 80:-1 81:-1 82:-1 83:0.253733 84:-0.0507526 85:-1 86:-1 87:-0.155648 88:-1 89:-1 90:-1 91:-1 92:-1 93:-1 94:-1 95:-1 96:-1 97:-1 98:-0.771985 99:-1 100:-0.82111 101:0.701492 102:-0.391038 103:-1 104:-1 105:-0.595863 106:-0.33134 107:-0.0182533 108:-1 109:0.680242 110:-1 111:-1 112:-1 113:-1 114:-1 115:-1 116:-1 117:-1 118:-1 119:-1 120:0.554389 121:-1 122:-1 123:-1 124:-1 125:-1 126:-1 127:-0.104478 128:-0.489818 129:-1 130:-1 131:-0.737479 
-0 0 0 0 0 0 1.862258784221383 0 0.002893664923565566 0:-1 1:-1 2:-1 3:-1 4:-1 5:-1 6:-1 7:-1 8:-1 9:-1 10:-1 11:-1 12:-0.076924 13:-0.324999 14:-0.418186 15:-0.80333 16:-1 17:-1 18:-1 19:-1 20:-1 21:-0.658693 22:-1 23:-1 24:-1 25:-1 26:-1 27:-1 28:-1 29:-1 30:-1 31:-1 32:-0.0266885 33:-1 34:-0.0894465 35:-1 36:0.275006 37:-0.803177 38:-1 39:0.236361 40:0.0333354 41:-1 42:-1 43:0.023308 44:-1 45:-1 46:-1 47:-1 48:-1 49:-1 50:-1 51:-1 52:-1 53:-1 54:-1 55:-1 56:-0.532468 57:0.433335 58:-0.344452 59:-1 60:-1 61:-1 62:-1 63:-1 64:-1 65:0.17195 66:-1 67:-1 68:-1 69:-1 70:-1 71:-1 72:-0.315903 73:-1 74:-1 75:-1 76:-0.10956 77:-1 78:-1 79:-1 80:-1 81:-1 82:-1 83:0.400001 84:-0.293343 85:-1 86:-1 87:-0.279998 88:-1 89:-1 90:-1 91:-1 92:-1 93:-1 94:-1 95:-1 96:-1 97:-1 98:-1 99:-0.547244 100:-1 101:0.139997 102:-1 103:-1 104:-1 105:-1 106:-1 107:-1 108:0.306671 109:0.0101275 110:-1 111:-1 112:-1 113:-1 114:-1 115:-1 116:0.198798 117:-1 118:-1 119:-1 120:-0.241828 121:-1 122:-1 123:-1 124:-1 125:-1 126:0.571438 127:-5.99999e-06 128:-0.715145 129:-0.394999 130:-1 131:-0.387049 
-0.1024111086932197 0 0 0 0 0 0 0.7643856518825073 0.157325535674673 0:-1 1:-1 2:-1 3:-1 4:-1 5:-1 6:-1 7:-1 8:-1 9:-1 10:-1 11:-1 12:0.083332 13:-0.584618 14:-0.46294 15:-1 16:-1 17:-1 18:-1 19:-1 20:-1 21:-0.879048 22:-1 23:-1 24:-1 25:-1 26:-1 27:-1 28:-1 29:-1 30:-1 31:-0.98092 32:-0.710039 33:-1 34:-0.276615 35:-0.597206 36:0.176933 37:-0.818317 38:-0.727803 39:0.331462 40:-0.364106 41:-1 42:-1 43:0.293076 44:-1 45:-1 46:-1 47:-1 48:-1 49:-1 50:-1 51:-1 52:-1 53:-1 54:-1 55:-1 56:0.0214277 57:0.323071 58:-0.0923054 59:-1 60:-1 61:-1 62:-1 63:-1 64:-1 65:0.0244508 66:-1 67:-1 68:-1 69:-1 70:-1 71:-1 72:-1 73:-1 74:-1 75:-1 76:0.0611093 77:-1 78:-1 79:-1 80:-1 81:-1 82:-1 83:0.107694 84:0.3046 85:-1 86:-1 87:-0.00853947 88:-1 89:-1 90:-1 91:-1 92:-1 93:-1 94:-1 95:-1 96:-1 97:-1 98:-0.403602 99:-0.955041 100:-0.86137 101:0.403075 102:-0.372311 103:-1 104:-1 105:0.249711 106:-0.310777 107:-0.241025 108:-0.698455 109:0.446955 110:-1 111:-1 112:-1 113:-1 114:-1 115:-1 116:-1 117:-1 118:-1 119:-1 120:0.613374 121:-1 122:-1 123:-1 124:-1 125:-1 126:-1 127:-0.81538 128:-0.737056 129:-1 130:-1 131:-0.954669 
-0.1594492257799196 1.548335388983025 0.2945473667408842 0.1828979834775932 0.07020606465977376 0.05466503846614529 0 0.28395116006251 0.1129809549372673 0:-1 1:-1 2:-1 3:-1 4:-1 5:-1 6:-1 7:-1 8:-1 9:-1 10:-1 11:-1 12:-0.085716 13:-1 14:-1 15:-1 16:-1 17:-1 18:-1 19:-1 20:-1 21:-1 22:-1 23:-1 24:-1 25:-1 26:-1 27:-1 28:-1 29:-1 30:-1 31:-0.989098 32:-1 33:-1 34:0.44677 35:0.678318 36:-0.673063 37:-0.772891 38:-0.773166 39:0.743591 40:-1 41:-1 42:-1 43:0.387485 44:-1 45:-1 46:-1 47:-1 48:-1 49:-1 50:-1 51:-1 52:-1 53:-1 54:-1 55:-1 56:0.591837 57:-0.684983 58:-0.495727 59:-1 60:-1 61:-1 62:-1 63:-1 64:-1 65:-0.857394 66:-1 67:-1 68:-1 69:-1 70:-1 71:-1 72:-1 73:-1 74:-1 75:-1 76:-0.528394 77:-1 78:0.410911 79:0.025648 80:0.254448 81:-1 82:-1 83:-0.0769258 84:0.630761 85:-1 86:-1 87:0.802277 88:-1 89:-1 90:-1 91:-1 92:-1 93:-1 94:-1 95:-1 96:-1 97:-1 98:-0.621327 99:-0.961461 100:0.227926 101:-0.12308 102:0.569233 103:-1 104:-1 105:-0.479283 106:0.148713 107:-0.789166 108:-0.497437 109:0.319706 110:-1 111:-1 112:-1 113:-1 114:-1 115:-1 116:-1 117:-1 118:-1 119:-1 120:0.364455 121:-1 122:-1 123:-1 124:-1 125:-1 126:-1 127:-0.538457 128:-0.342648 129:-1 130:-1 131:-0.708145 
