svm_type c_svc
kernel_type rbf
gamma 0.03125
nr_class 10
total_sv 670
rho -0.178273 -0.0541746 -0.353922 0.10161 0.392068 -0.0622965 0.190794 0.400759 0.0624345 0.725237 0.872362 0.47962 0.565862 0.0736528 0.254826 1.31977 0.561247 -0.307268 0.107037 0.30132 -0.472663 -0.73034 0.232355 -0.136065 0.107968 1.17384 0.0250285 -0.456178 0.778682 0.038097 0.540698 -0.127539 -0.0271025 0.967651 -0.121358 -0.0769224 -0.659761 0.129253 -0.583845 -0.38136 0.918407 -0.049169 0.712747 0.214424 -0.744228
label 5 4 2 8 9 0 7 3 1 6
nr_sv 70 56 68 83 72 44 79 70 67 61
SV
0 0 0 0 0 0 0.599058473627875 0 0 1:-1 2:-1 3:-1 4:-1 5:-1 6:-1 7:-1 8:-1 9:-1 10:-1 11:-1 12:-1 13:0.120289 14:-0.901737 15:-0.138061 16:-0.913429 17:-1 18:-1 19:-0.751854 20:-1 21:-1 22:-0.589417 23:-1 24:-1 25:-1 26:-0.630137 27:-1 28:-1 29:-0.758909 30:-1 31:-1 32:-0.738379 33:-0.930385 34:-1 35:-0.770269 36:-0.895518 37:-0.705758 38:-0.902987 39:-0.12935 40:-0.726631 41:-0.607673 42:-0.699361 43:-0.55224 44:0.0580617 45:-1 46:-1 47:-1 48:-1 49:-1 50:-1 51:-0.888147 52:-1 53:-0.616788 54:-1 55:-1 56:-1 57:-0.233694 58:-0.552245 59:-0.847009 60:-1 61:-0.247766 62:-0.899782 63:-0.796776 64:-0.662144 65:-0.293526 66:-0.179994 67:-1 68:-1 69:-1 70:-1 71:-1 72:-1 73:-0.259947 74:-1 75:-0.981391 76:-1 77:-0.703743 78:-1 79:-1 80:-1 81:-1 82:-0.481785 83:-0.338306 84:-0.726631 85:-1 86:-1 87:-0.516975 88:-0.471591 89:-0.20764 90:-1 91:-1 92:-1 93:-0.956674 94:-1 95:-1 96:-1 97:-0.563434 98:-1 99:-1 100:-0.841516 101:-0.71016 102:-0.562421 103:-0.821953 104:0.382568 105:-0.42389 106:-0.800379 107:-0.861073 108:-0.164185 109:-0.411507 110:-0.114365 111:-0.55553 112:-1 113:-1 114:-1 115:-0.935289 116:-1 117:-0.956067 118:-1 119:-0.723016 120:-1 121:-0.635905 122:-1 123:-1 124:-0.676235 125:-0.242253 126:-0.774467 127:-0.634339 128:-0.408956 129:-0.378117 130:-0.223875 131:-0.517417 132:0.278912 
0 0 0 0 0 0 2.446483377962835 0 0 1:-1 2:-1 3:-1 4:-1 5:-1 6:-1 7:-0.685298 8:-1 9:-1 10:-1 11:-1 12:-1 13:-0.20157 14:-0.625949 15:-0.562505 16:-0.604545 17:-0.88636 18:-0.916664 19:-0.43325 20:-0.868178 21:-1 22:-0.271881 23:-1 24:-1 25:-1 26:-1 27:-1 28:-1 29:-0.460233 30:-1 31:-1 32:-0.294814 33:-1 34:-1 35:-0.909772 36:-1 37:-0.850645 38:-0.889207 39:-0.9053 40:-0.791871 41:-0.77598 42:-0.847404 43:-1 44:-0.590613 45:-1 46:-0.98506 47:-0.897335 48:-1 49:-1 50:-1 51:-0.984187 52:-1 53:-0.548449 54:-1 55:-1 56:-1 57:-0.351647 58:-0.590909 59:-0.767038 60:-0.803564 61:-0.618171 62:-1 63:-0.845274 64:-0.314042 65:-0.865526 66:-0.133373 67:-1 68:-1 69:-1 70:-1 71:-1 72:-1 73:-0.928402 74:-1 75:-0.513252 76:-0.448397 77:-1 78:-1 79:-1 80:-0.91711 81:-1 82:-0.408178 83:0.133509 84:-0.861239 85:-1 86:-0.117039 87:-0.264475 88:-0.0260876 89:-0.24774 90:-0.941377 91:-1 92:-1 93:-1 94:-0.894155 95:-1 96:-0.961563 97:-0.279809 98:-1 99:-1 100:-0.941029 101:-0.626327 102:-0.866732 103:-0.32224 104:-0.138762 105:0.0965974 106:-0.848007 107:-0.788455 108:-0.124999 109:-0.439935 110:-0.235895 111:-0.0572848 112:-1 113:-1 114:-1 115:-1 116:-1 117:-0.989649 118:-1 119:0.077017 120:-0.953906 121:-0.935648 122:-1 123:-1 124:-0.506992 125:-0.23078 126:-0.398986 127:-0.582399 128:-0.549998 129:-0.526517 130:0.0974111 131:-0.755044 132:0.377877 
0 0 0 0 0 0.2359484782471936 0 0 0 1:-0.932453 2:-0.8533 3:-1 4:-0.741946 5:-1 6:-0.80971 7:-0.406638 8:-1 9:-1 10:-0.724525 11:-1 12:-1 13:-0.743897 14:-0.324788 15:-0.753196 16:-0.107694 17:-0.74358 18:-1 19:-0.573699 20:-0.40513 21:-0.271065 22:0.246497 23:-1 24:-1 25:-1 26:-1 27:-1 28:-0.882413 29:-0.810159 30:-0.981665 31:-1 32:-0.774037 33:-0.276377 34:-1 35:-1 36:-1 37:-0.663004 38:1 39:-0.786317 40:-0.373819 41:-0.326008 42:0.893773 43:-0.48718 44:0.00454351 45:-1 46:-1 47:-0.897093 48:-1 49:-1 50:-1 51:-0.931293 52:-1 53:-0.234648 54:-1 55:-1 56:-0.823712 57:-0.997035 58:-1 59:-1 60:-1 61:-1 62:-1 63:-1 64:-1 65:-1 66:0.0901365 67:-1 68:-1 69:-1 70:-1 71:-1 72:-1 73:-0.906149 74:-1 75:-0.95604 76:-1 77:0.2189 78:-1 79:-1 80:-1 81:-1 82:-1 83:-1 84:-1 85:-1 86:-1 87:-1 88:-0.622121 89:-0.882343 90:-1 91:-1 92:-1 93:-1 94:-1 95:-1 96:-1 97:0.203181 98:-1 99:-0.895682 100:-0.785219 101:-1 102:-1 103:-1 104:-1 105:-1 106:-1 107:-1 108:-1 109:-1 110:-0.19528 111:-1 112:-1 113:-1 114:-1 115:-1 116:-1 117:-1 118:-1 119:-0.954207 120:-1 121:-0.210562 122:-1 123:-1 124:-1 125:-1 126:-1 127:-1 128:-1 129:-1 130:-1 131:-1 132:-0.557205 
3.810411523874592 0 1.655690818626953 1.320426636675897 0.1422112065002165 0 0 0 5.440428226849884 1:-1 2:-1 3:-1 4:-1 5:-1 6:-0.980819 7:-0.767199 8:-1 9:-1 10:-1 11:-1 12:-1 13:-0.113591 14:-0.874008 15:-0.171056 16:-0.777988 17:-0.80862 18:-0.92982 19:-0.363624 20:-0.889 21:-1 22:-0.390349 23:-1 24:-1 25:-1 26:-1 27:-1 28:-0.961125 29:-0.00949564 30:-1 31:-1 32:-0.956102 33:-0.541229 34:-1 35:-0.688515 36:-0.93301 37:-0.748459 38:-0.595693 39:-0.760767 40:-0.82473 41:-0.748459 42:-0.453859 43:-1 44:-0.255813 45:-1 46:-0.607956 47:-0.886586 48:-1 49:-0.860416 50:-1 51:-0.70516 52:-1 53:-1 54:-1 55:-1 56:-0.994643 57:-0.791512 58:-0.598085 59:0.177028 60:-0.586472 61:-0.678483 62:-0.678748 63:0.172617 64:-0.63898 65:-0.886755 66:0.520013 67:-1 68:-0.759703 69:-0.785587 70:-1 71:-1 72:-1 73:-0.75664 74:-1 75:-1 76:-1 77:-0.493859 78:-1 79:-1 80:-0.790601 81:-0.73446 82:-0.169373 83:-0.787888 84:-0.591033 85:-0.834592 86:-0.468909 87:-0.845141 88:0.027785 89:-0.988949 90:-1 91:-0.361248 92:-1 93:-1 94:-1 95:-1 96:-1 97:-0.138717 98:-1 99:-0.976048 100:-0.336329 101:-1 102:-0.943885 103:-0.429263 104:-0.677659 105:-0.815297 106:-1 107:-0.821869 108:0.004781 109:-0.71702 110:-0.628697 111:-1 112:-1 113:-0.777289 114:-1 115:-1 116:-1 117:-1 118:-1 119:-0.689043 120:-1 121:-0.406532 122:-1 123:-1 124:-0.654037 125:-0.1903 126:-0.927693 127:-1 128:-0.621054 129:-0.362033 130:-0.57348 131:-1 132:-0.030304 
0 0.1940825570865873 0 0 0 0.3445705700302502 0 0 0 1:-0.792451 2:-0.978532 3:-1 4:-0.863272 5:-1 6:-0.657677 7:-0.422954 8:-1 9:-1 10:-0.811878 11:-1 12:-0.845259 13:-1 14:-1 15:0.228729 16:0.234041 17:-1 18:-1 19:-0.292535 20:-0.0127716 21:0.209717 22:0.268341 23:-1 24:-1 25:-1 26:-0.755909 27:-1 28:-0.985546 29:-0.154062 30:-1 31:-1 32:-0.863491 33:-0.557774 34:-1 35:-1 36:-1 37:-0.72036 38:0.38298 39:0.0638333 40:-0.220602 41:-1 42:1 43:-0.57446 44:-0.149577 45:-0.697327 46:-1 47:-0.30423 48:-1 49:-1 50:-1 51:-1 52:-1 53:-0.140134 54:-1 55:-1 56:-0.800825 57:-1 58:-1 59:-1 60:-1 61:-1 62:-1 63:-1 64:-1 65:-1 66:-0.730293 67:-0.861661 68:-1 69:-0.89371 70:-1 71:-1 72:-1 73:-0.88124 74:-1 75:-0.513718 76:-1 77:-0.372716 78:-1 79:-1 80:-1 81:-1 82:-1 83:-1 84:-1 85:-1 86:-1 87:-1 88:-0.161951 89:0.0846804 90:-1 91:-1 92:-1 93:-1 94:-1 95:-1 96:-1 97:-0.94718 98:-1 99:-0.98219 100:-0.624568 101:-1 102:-1 103:-1 104:-1 105:-1 106:-1 107:-1 108:-1 109:-1 110:-0.192013 111:-0.374851 112:-1 113:-1 114:-1 115:-1 116:-1 117:-1 118:-1 119:-1 120:-1 121:-0.39586 122:-1 123:-1 124:-1 125:-1 126:-1 127:-1 128:-1 129:-1 130:-1 131:-1 132:-0.0608693 
0 0 4.922198358791972 1.193050786160914 0 0 0 0 1.641364495549136 1:-1 2:-1 3:-1 4:-0.665454 5:-1 6:-1 7:-0.40389 8:-1 9:-0.967313 10:-0.945203 11:-1 12:-1 13:-0.536423 14:-0.549859 15:-0.0128205 16:-0.504275 17:-0.65812 18:-0.749289 19:0.420948 20:-0.80171 21:-0.757022 22:-0.0296094 23:-1 24:-1 25:-1 26:-0.469133 27:-1 28:-1 29:-0.0682177 30:-1 31:-1 32:-0.628898 33:-0.879783 34:-1 35:-1 36:-1 37:-1 38:-0.388889 39:-0.7151 40:-0.895637 41:-0.663004 42:-0.540903 43:-0.48718 44:-0.334009 45:-1 46:-1 47:-1 48:-1 49:-0.850611 50:-1 51:-0.602653 52:-1 53:-1 54:-1 55:-1 56:-0.610147 57:-0.987601 58:-0.384617 59:-0.824787 60:-0.409034 61:0.148713 62:-0.885226 63:-1 64:-0.742036 65:0.0113955 66:0.409837 67:-1 68:-1 69:-1 70:-1 71:-0.924012 72:-1 73:-0.123697 74:-1 75:-1 76:-1 77:-0.853828 78:-1 79:-1 80:-1 81:-1 82:-0.554871 83:0.136746 84:-0.895637 85:-1 86:-1 87:-1 88:-0.421498 89:-1 90:-1 91:-1 92:-1 93:-0.978621 94:-1 95:-1 96:-1 97:-1 98:-1 99:-1 100:0.127624 101:-1 102:-0.899767 103:-1 104:-1 105:-1 106:-1 107:-1 108:-0.880342 109:-0.326006 110:-0.800223 111:-1 112:-1 113:-1 114:-1 115:-0.659479 116:-1 117:-0.826607 118:-1 119:-1 120:-1 121:-0.916598 122:-0.512667 123:-1 124:-1 125:-1 126:-1 127:-0.371798 128:-0.210256 129:-0.85755 130:-0.365078 131:0.28964 132:0.420288 
0 1.349620182609451 0 0 0 0 5.284699532222426 0 0 1:-1 2:-1 3:-1 4:-1 5:-0.987782 6:-0.991569 7:-1 8:-1 9:-0.822308 10:-0.992057 11:-1 12:-1 13:-0.286706 14:-0.496007 15:-0.539482 16:-0.777988 17:-0.61722 18:-1 19:-0.840898 20:-0.722494 21:-0.319906 22:-0.0345233 23:-1 24:-1 25:-1 26:-0.898997 27:-1 28:-0.940192 29:-0.422406 30:-1 31:-1 32:-0.428181 33:-1 34:-1 35:-1 36:-1 37:-0.874236 38:-0.782295 39:-0.20255 40:-0.707887 41:-0.811348 42:-0.775118 43:-0.80862 44:-0.290883 45:-0.578295 46:-0.99093 47:-1 48:-1 49:-1 50:-0.910156 51:-1 52:-1 53:-0.177847 54:-1 55:-1 56:-1 57:-0.223788 58:-1 59:-0.803836 60:-1 61:-0.839225 62:-0.935744 63:-0.8697 64:-1 65:-1 66:-0.9488 67:-0.705626 68:-1 69:-1 70:-1 71:-1 72:-1 73:-0.993314 74:-1 75:-0.145699 76:-0.729609 77:-1 78:-1 79:-1 80:-0.441592 81:-1 82:-0.667746 83:-0.151508 84:-0.47419 85:-0.917288 86:-0.681341 87:0.548497 88:0.134339 89:0.0393988 90:-0.98814 91:-1 92:-1 93:-1 94:-0.75911 95:-1 96:-0.922251 97:-1 98:-1 99:-1 100:-0.853253 101:-0.948785 102:-0.438886 103:-0.77171 104:-0.274745 105:0.292842 106:-0.808016 107:-0.821869 108:-0.330141 109:-0.339708 110:-0.0517567 111:0.132368 112:-1 113:-1 114:-1 115:-1 116:-1 117:-1 118:-0.990916 119:-1 120:-1 121:-0.734969 122:-1 123:-1 124:-0.723221 125:0.133607 126:-0.638497 127:-1 128:-0.557892 129:-0.1228 130:-0.502388 131:-0.793736 132:0.169045 
0 0 0 0 0 0 0.2230617422542693 0 0 1:-1 2:-1 3:-1 4:-1 5:-1 6:-0.979214 7:-0.848665 8:-1 9:-0.675881 10:-1 11:-1 12:-1 13:-0.550886 14:-0.805423 15:-0.525853 16:-0.31429 17:-0.60592 18:-0.927752 19:-0.836209 20:-0.714281 21:-0.0197009 22:0.12897 23:-1 24:-0.977652 25:-1 26:-1 27:-1 28:-1 29:0.0412516 30:-1 31:-1 32:-0.502782 33:-1 34:-1 35:-0.986506 36:-1 37:-0.870517 38:-0.711822 39:-0.343183 40:-0.819553 41:-0.935258 42:-0.570023 43:-1 44:-0.375933 45:-0.181015 46:-1 47:-1 48:-1 49:-0.991107 50:-1 51:-1 52:-1 53:0.0992653 54:-1 55:-1 56:-1 57:-0.614679 58:-0.940888 59:-0.697051 60:-0.8297 61:-0.834487 62:-0.867702 63:-0.865861 64:-0.776986 65:-0.650254 66:-0.786658 67:-0.717813 68:-1 69:-1 70:-1 71:-0.942986 72:-1 73:-0.88053 74:-1 75:-0.724471 76:-0.613847 77:-1 78:-1 79:-1 80:-0.928138 81:-1 82:-0.914484 83:0.0919469 84:-0.699242 85:-0.91485 86:-1 87:0.753681 88:0.124632 89:-0.16194 90:-1 91:-1 92:-1 93:-1 94:-1 95:-1 96:-1 97:-1 98:-1 99:-1 100:-0.589758 101:-1 102:-0.768926 103:-0.882479 104:-0.336269 105:0.140911 106:-0.934115 107:-1 108:-0.379309 109:-0.0288519 110:-0.191376 111:-0.221391 112:-1 113:-1 114:-1 115:-0.703442 116:-1 117:-0.984509 118:-1 119:-1 120:-0.965524 121:-0.783384 122:-0.963978 123:-1 124:-0.643798 125:-0.499822 126:-0.330049 127:-0.758627 128:-0.67487 129:-0.261083 130:-0.26812 131:-0.787636 132:0.129888 
0 0 0 0 0 0 0 0.6089513873414623 0.6218398224619385 1:-1 2:-1 3:-1 4:-0.69033 5:-1 6:-1 7:-0.390114 8:-1 9:-1 10:-1 11:-1 12:-1 13:-0.566754 14:-0.481629 15:0.0610226 16:-0.817323 17:-0.84252 18:-0.884515 19:0.309061 20:-1 21:-1 22:-0.0405036 23:-1 24:-1 25:-1 26:-0.401096 27:-1 28:-1 29:-0.366869 30:-1 31:-1 32:-0.473522 33:-1 34:-1 35:-1 36:-0.779528 37:-1 38:-0.846457 39:-0.6063 40:-0.519271 41:-0.793026 42:-0.841395 43:-0.68504 44:-0.318404 45:-1 46:-1 47:-1 48:-1 49:-1 50:-1 51:-0.44828 52:-1 53:-0.299942 54:-1 55:-1 56:-1 57:-1 58:-0.338585 59:-1 60:-0.863892 61:0.0582622 62:-0.68279 63:-1 64:-0.762348 65:0.118109 66:-0.0456477 67:-1 68:-1 69:-1 70:-1 71:-1 72:-1 73:-0.231528 74:-1 75:-1 76:-0.465518 77:-1 78:-1 79:-1 80:-1 81:-1 82:-0.863307 83:-0.127303 84:-0.903854 85:-1 86:-1 87:-1 88:-0.663623 89:-0.53473 90:-1 91:-1 92:-1 93:-1 94:-1 95:-1 96:-1 97:0.121533 98:-1 99:-1 100:-0.725716 101:-1 102:-0.722979 103:-1 104:-0.204312 105:-0.0881825 106:-1 107:-1 108:-0.669292 109:-0.223846 110:-0.472178 111:-0.505215 112:-1 113:-1 114:-1 115:-0.881801 116:-1 117:-1 118:-1 119:-0.620503 120:-0.799011 121:-0.964369 122:-1 123:-1 124:-0.77226 125:-0.466992 126:-0.643045 127:-0.228351 128:-0.168505 129:-0.737533 130:0.0528693 131:0.0183652 132:0.641024 
0 0 0 0 0 0 0 0 0.2476631360554511 1:-1 2:-1 3:-1 4:-1 5:-1 6:-1 7:0.155854 8:-1 9:-1 10:-1 11:-1 12:-1 13:-0.455487 14:-0.464144 15:-0.440402 16:-0.595346 17:-1 18:-0.488369 19:-0.42005 20:-0.797673 21:-1 22:-0.131344 23:-1 24:-1 25:-1 26:-0.871321 27:-1 28:-1 29:0.403092 30:-1 31:-1 32:-0.530718 33:-1 34:-1 35:-0.975583 36:-1 37:-0.923587 38:-0.811045 39:-0.8062 40:-0.858016 41:-0.847175 42:-0.765779 43:-0.88372 44:-0.557824 45:-1 46:-0.555162 47:-0.749942 48:-1 49:-1 50:-1 51:-0.422147 52:-1 53:-1 54:-1 55:-1 56:-1 57:-0.927891 58:-0.162798 59:-0.404065 60:-0.598002 61:-0.80465 62:-0.531557 63:-0.208398 64:-0.649045 65:-1 66:0.418854 67:-1 68:-0.911704 69:-0.416362 70:-1 71:-0.896859 72:-1 73:-0.731712 74:-1 75:-1 76:-0.779912 77:-0.976384 78:-1 79:-1 80:-0.830368 81:-0.677323 82:-0.192549 83:-0.613371 84:-0.574048 85:-0.698501 86:-0.354645 87:-0.623677 88:0.0550636 89:-0.761759 90:-1 91:-0.452303 92:-1 93:-1 94:-1 95:-1 96:-0.982666 97:0.6184 98:-1 99:-1 100:-0.944141 101:-1 102:-0.863636 103:-0.722588 104:-0.11872 105:-0.551155 106:-1 107:-0.89177 108:-0.186039 109:-0.426904 110:-0.45136 111:-1 112:-1 113:-0.781753 114:-1 115:-1 116:-1 117:-1 118:-1 119:-0.311064 120:-1 121:-0.545947 122:-1 123:-1 124:-0.831841 125:0.377469 126:-1 127:-1 128:-0.769765 129:-0.031 130:-0.827241 131:-1 132:-0.124379 
0 0.2890842418862908 0 0 0 0.8213730728682124 8 0 0 1:-1 2:-1 3:-1 4:-1 5:-1 6:-1 7:-1 8:-1 9:-0.995054 10:-1 11:-1 12:-1 13:0.104949 14:-0.895918 15:-0.619562 16:-0.908302 17:-1 18:-1 19:-1 20:-1 21:-0.887622 22:-0.793987 23:-1 24:-0.886495 25:-1 26:-1 27:-0.993063 28:-0.857457 29:-0.472603 30:-1 31:-1 32:-0.734169 33:-0.885779 34:-1 35:-0.763956 36:-0.391307 37:-0.636364 38:-0.717393 39:-0.7365 40:-0.565635 41:-0.272727 42:-0.761152 43:-1 44:0.18495 45:-1 46:-1 47:-0.974001 48:-1 49:-1 50:-1 51:-0.826493 52:-1 53:-0.497718 54:-1 55:-1 56:-1 57:-0.557814 58:-0.81028 59:-0.270754 60:-0.453406 61:-0.86718 62:-0.787694 63:-0.461836 64:-0.105274 65:-0.812915 66:0.178849 67:-1 68:-1 69:-1 70:-1 71:-1 72:-1 73:-0.47948 74:-1 75:-0.528202 76:-1 77:-0.837981 78:-1 79:-1 80:-0.827013 81:-1 82:-0.245219 83:-0.386696 84:-0.758683 85:-0.931669 86:-0.210279 87:-0.3604 88:-0.114178 89:-0.702863 90:-1 91:-1 92:-1 93:-0.941841 94:-1 95:-1 96:-1 97:-0.00158286 98:-1 99:-0.758477 100:-1 101:-0.842332 102:-0.721888 103:0.131573 104:-0.334299 105:-0.847413 106:-0.8414 107:-0.411363 108:-0.225295 109:-1 110:-0.198131 111:-0.983427 112:-1 113:-1 114:-1 115:-1 116:-1 117:-1 118:-1 119:-0.372077 120:-1 121:-0.458895 122:-1 123:-1 124:-0.885682 125:0.204007 126:-0.761093 127:-1 128:-0.895654 129:-0.0777333 130:-0.765108 131:-1 132:-0.20904 
0 0.4565651734039951 0 0 0 0 0.5572307419138242 1.14942034905688 0 1:-1 2:-1 3:-1 4:-1 5:-1 6:-1 7:-1 8:-1 9:-0.8701 10:-1 11:-1 12:-1 13:-0.0865387 14:-0.281825 15:-0.930007 16:-0.789089 17:-1 18:-1 19:-1 20:-0.957822 21:-0.79324 22:-0.558344 23:-1 24:-0.928949 25:-1 26:-0.896412 27:-1 28:-0.972113 29:-0.381023 30:-1 31:-1 32:-0.613023 33:-0.824514 34:-1 35:-1 36:-1 37:-0.904412 38:-0.574542 39:-0.57575 40:-0.467181 41:-0.808837 42:-0.51169 43:-0.85454 44:-0.147551 45:-1 46:-1 47:-0.894254 48:-1 49:-1 50:-0.976538 51:-0.918547 52:-1 53:-0.892668 54:-1 55:-1 56:-1 57:-0.331499 58:-0.607277 59:-0.478173 60:-0.245717 61:-0.633459 62:-0.853508 63:-0.504888 64:-0.341492 65:-0.48364 66:0.500376 67:-1 68:-0.991381 69:-1 70:-1 71:-1 72:-1 73:-0.325824 74:-1 75:-1 76:-1 77:-0.605871 78:-1 79:-1 80:-1 81:-0.899101 82:-0.747498 83:-0.43575 84:-0.866795 85:-0.87428 86:-0.838539 87:-1 88:-0.615412 89:-0.765402 90:-1 91:-1 92:-1 93:-0.993932 94:-1 95:-1 96:-1 97:0.390848 98:-1 99:-1 100:-0.96262 101:-0.79944 102:-0.914708 103:-0.826486 104:0.347368 105:-0.859649 106:-0.951369 107:-0.932314 108:-0.032725 109:-0.713255 110:-0.277347 111:-0.929983 112:-1 113:-0.989349 114:-1 115:-1 116:-1 117:-0.93438 118:-1 119:-0.0535925 120:-1 121:-0.621242 122:-1 123:-1 124:-0.947418 125:-0.138447 126:-0.560403 127:-0.554543 128:-0.759997 129:-0.333333 130:-0.351692 131:-0.294555 132:0.181301 
0.07648531646990887 0 0.7088946577930765 0 0.331845261594319 0 1.473495035761529 0 0.2420944591465879 1:-1 2:-1 3:-1 4:-1 5:-1 6:-1 7:-1 8:-1 9:-0.840986 10:-1 11:-1 12:-1 13:-0.0531757 14:-0.619458 15:-0.666185 16:-0.664737 17:-1 18:-1 19:-1 20:-1 21:-0.507022 22:-0.425184 23:-1 24:-1 25:-1 26:-0.946192 27:-1 28:-1 29:-0.405307 30:-1 31:-1 32:-0.437512 33:-1 34:-1 35:-0.979584 36:-1 37:-0.924034 38:-0.812137 39:-0.807317 40:-0.505937 41:-0.620145 42:-0.883567 43:-0.8844 44:-0.285256 45:-0.237584 46:-1 47:-0.953523 48:-1 49:-1 50:-0.798984 51:-0.946307 52:-1 53:-0.795621 54:-1 55:-1 56:-1 57:-0.246257 58:-0.722549 59:-0.52602 60:-0.700247 61:-0.611552 62:-0.767135 63:-0.527789 64:-0.651083 65:-0.72639 66:-0.392687 67:-0.435922 68:-0.975391 69:-0.960948 70:-1 71:-0.963034 72:-1 73:-0.763182 74:-1 75:-0.85114 76:-0.631905 77:-1 78:-1 79:-1 80:-0.662706 81:-0.839605 82:-0.0968778 83:-0.231219 84:-0.647091 85:-0.700247 86:-0.486713 87:0.122431 88:-0.266549 89:-0.166892 90:-1 91:-1 92:-1 93:-1 94:-0.790406 95:-1 96:-0.971002 97:-1 98:-1 99:-1 100:-0.793134 101:-0.945442 102:-0.457697 103:-0.862105 104:-0.318535 105:-0.107521 106:-0.845372 107:-0.784788 108:-0.595372 109:-0.202318 110:0.0771857 111:0.133377 112:-1 113:-1 114:-1 115:-0.982749 116:-1 117:-0.976567 118:-0.966123 119:-1 120:-1 121:-0.755538 122:-1 123:-1 124:-0.749223 125:-0.217444 126:-0.475917 127:-0.858391 128:-0.694802 129:-0.13295 130:-0.484723 131:-0.87541 132:0.254213 
0 0 0 0.7648618546883972 0 0 0 0 0 1:-1 2:-0.791663 3:-1 4:-1 5:-0.939824 6:-1 7:-0.193621 8:-1 9:-0.988331 10:-1 11:-1 12:-1 13:-0.700853 14:-0.653507 15:0.013167 16:-0.267368 17:-1 18:-0.536843 19:-0.299983 20:-0.694735 21:-0.850381 22:0.172662 23:-1 24:-1 25:-1 26:-1 27:-1 28:-1 29:-0.405535 30:-1 31:-1 32:-0.176359 33:-1 34:-1 35:-1 36:-1 37:-1 38:-0.589473 39:-0.73685 40:-0.807208 41:-0.861658 42:-0.858644 43:-1 44:-0.527824 45:-1 46:-1 47:0.493634 48:-1 49:-0.9763 50:-1 51:-1 52:-0.97871 53:-0.918193 54:-1 55:-1 56:-0.907225 57:-1 58:-0.17895 59:-0.784217 60:-0.909025 61:-0.823164 62:-0.787976 63:0.289873 64:-0.761729 65:-0.750885 66:0.30455 67:-1 68:-1 69:0.736383 70:-1 71:-0.945749 72:-1 73:-1 74:-1 75:-0.882025 76:-0.816784 77:-0.982608 78:-1 79:-1 80:-0.462541 81:-0.853952 82:-1 83:-0.416665 84:-0.485875 85:-0.727075 86:-0.415784 87:-0.148322 88:0.0166054 89:-0.617225 90:-1 91:-1 92:-1 93:-1 94:-1 95:-1 96:-1 97:-0.218283 98:-1 99:-1 100:-0.506382 101:-1 102:-0.753106 103:-0.748879 104:-0.468143 105:-0.593693 106:-0.859215 107:-1 108:-0.557894 109:-0.68873 110:-0.583382 111:-0.843444 112:-1 113:-1 114:-1 115:-1 116:-1 117:-1 118:-1 119:-0.199983 120:-1 121:-0.519062 122:-1 123:-1 124:-0.771667 125:0.246958 126:-0.840941 127:-1 128:-0.7221 129:-0.1228 130:-0.687212 131:-1 132:-0.164544 
0.09207287180155913 0 0 0.4213285536005719 0.377474928959647 0 0 0 0 1:-1 2:-1 3:-1 4:-0.81379 5:-1 6:-1 7:-0.876503 8:-1 9:-1 10:-1 11:-1 12:-1 13:-0.253553 14:-0.843251 15:0.145838 16:-0.792859 17:-1 18:-0.738098 19:-0.0104073 20:-0.861902 21:-1 22:-0.0757009 23:-1 24:-1 25:-1 26:-1 27:-1 28:-1 29:-1 30:0.410811 31:-1 32:-0.774836 33:-0.692731 34:-1 35:-0.990994 36:-1 37:-0.921774 38:-0.41964 39:-0.20635 40:-0.781956 41:-0.843534 42:-0.360544 43:-0.16666 44:0.32734 45:-1 46:-1 47:-1 48:-1 49:-1 50:-1 51:-0.439173 52:-1 53:-0.782693 54:-1 55:-1 56:-1 57:-0.48548 58:-0.785716 59:-0.633932 60:-0.588425 61:0.199987 62:-0.600338 63:-0.513738 64:-0.730521 65:0.126984 66:0.29207 67:-1 68:-1 69:-1 70:-1 71:-1 72:-1 73:-1 74:-1 75:-1 76:-1 77:0.525472 78:-1 79:-1 80:-1 81:-1 82:-1 83:-1 84:-1 85:-1 86:-1 87:-1 88:-1 89:-0.880104 90:-1 91:-1 92:-1 93:-1 94:-0.762121 95:-1 96:-1 97:-0.550413 98:-1 99:-0.497565 100:-0.955824 101:-0.662888 102:-0.581173 103:0.278056 104:-0.197996 105:-0.310714 106:-0.522326 107:-0.00275508 108:-0.0833351 109:-0.530602 110:0.247719 111:-1 112:-1 113:-1 114:-1 115:-1 116:-1 117:-1 118:-1 119:-1 120:-1 121:-0.139145 122:-1 123:-1 124:-1 125:-1 126:-1 127:-1 128:-1 129:-1 130:-1 131:-1 132:-1 
0.1241313794079721 0 2.055545925212771 0 3.444135732924058 0 0 0 5.286484017702415 1:-1 2:-1 3:-1 4:-0.980737 5:-1 6:-1 7:-1 8:-1 9:-0.99153 10:-0.924308 11:-1 12:-1 13:-0.00250654 14:-0.491412 15:-0.669535 16:-0.850639 17:-0.91416 18:-0.496421 19:-0.85729 20:-1 21:-0.877985 22:-0.412947 23:-1 24:-1 25:-1 26:-0.845309 27:-1 28:-0.969467 29:-1 30:-1 31:-1 32:-0.231065 33:-0.98221 34:-1 35:-1 36:-1 37:-0.943591 38:-0.637339 39:-0.64235 40:-0.947592 41:-0.943591 42:-0.481301 43:-0.91416 44:-0.24173 45:-1 46:-0.978396 47:-1 48:-1 49:-0.957011 50:-0.603984 51:-0.91996 52:-1 53:-1 54:-1 55:-1 56:-1 57:-0.113869 58:-0.175962 59:-0.736042 60:-0.925809 61:-0.423191 62:-0.538929 63:-0.649375 64:-1 65:-1 66:-0.0126688 67:-1 68:-1 69:-1 70:-1 71:-0.559137 72:-1 73:-0.490321 74:-1 75:-1 76:-1 77:-0.810708 78:-1 79:-1 80:-1 81:-1 82:-0.254941 83:-0.33405 84:-0.842777 85:-0.851619 86:-0.428327 87:-0.166607 88:-0.219518 89:-0.780136 90:-1 91:-1 92:-1 93:-0.667841 94:-0.330419 95:-1 96:-1 97:-1 98:-1 99:-1 100:-0.680228 101:-1 102:-0.547012 103:-1 104:-0.34944 105:0.325343 106:-0.770392 107:-0.840206 108:-0.278971 109:-0.069286 110:-0.0916565 111:-0.730215 112:-1 113:-1 114:-1 115:-0.129055 116:-1 117:-1 118:-1 119:-1 120:-1 121:-0.727487 122:-1 123:-1 124:-0.875862 125:0.162106 126:-0.610874 127:-1 128:-0.603432 129:-0.499283 130:-0.298592 131:-0.907484 132:0.00946133 
0 0 0 0 0 0 6.633349967619698 0 0 1:-1 2:-1 3:-1 4:-1 5:-1 6:-1 7:-0.590093 8:-1 9:-1 10:-1 11:-1 12:-1 13:-0.319084 14:-0.940421 15:-0.390275 16:-0.370132 17:-1 18:-1 19:-0.247747 20:-0.580092 21:-1 22:-0.14853 23:-1 24:-1 25:-1 26:-1 27:-1 28:-1 29:-0.183111 30:-1 31:-1 32:-0.505428 33:-1 34:-1 35:-0.860786 36:-1 37:-0.821586 38:-0.764706 39:-0.924583 40:-0.889495 41:-0.762114 42:-0.726567 43:-1 44:-0.434046 45:-1 46:-0.842802 47:-0.812794 48:-1 49:-0.983318 50:-1 51:-0.51192 52:-0.970029 53:-0.879082 54:-1 55:-1 56:-0.744247 57:-0.981312 58:-0.728513 59:-0.536208 60:0.173238 61:-0.84796 62:-0.939236 63:-0.383928 64:0.297412 65:-0.892908 66:0.298826 67:-1 68:-1 69:-0.745895 70:-1 71:-1 72:-1 73:-0.822318 74:-1 75:-0.584816 76:-0.632984 77:-1 78:-1 79:-1 80:-1 81:-1 82:0.178279 83:-0.297896 84:-0.889495 85:-0.843564 86:-0.0959263 87:0.0250817 88:0.0193672 89:-0.854076 90:-1 91:-1 92:-1 93:-1 94:-1 95:-1 96:-1 97:-0.621176 98:-1 99:-1 100:-0.077681 101:-1 102:-0.787737 103:-1 104:-0.771368 105:-0.301334 106:-1 107:-1 108:-0.80995 109:-0.732378 110:-0.7588 111:-0.380166 112:-1 113:-1 114:-1 115:-1 116:-1 117:-1 118:-1 119:0.469489 120:-1 121:-0.851704 122:-1 123:-1 124:-0.934562 125:0.225195 126:-0.24786 127:-1 128:-0.701363 129:-0.396683 130:0.00840174 131:-0.804923 132:0.301835 
0 0 0 0 0 0 7.389746464108719 0 0 1:-1 2:-0.885714 3:-1 4:-1 5:-1 6:-0.856574 7:-0.18083 8:-1 9:-0.879083 10:-1 11:-1 12:-0.775338 13:-0.833185 14:-0.709992 15:-0.491183 16:0.124224 17:-0.47136 18:-0.870772 19:-0.414098 20:-0.540084 21:-0.248579 22:0.422725 23:-1 24:-1 25:-1 26:-1 27:-1 28:-1 29:-0.560015 30:-1 31:-1 32:-0.231177 33:-1 34:-1 35:-0.956156 36:-1 37:-0.942106 38:-0.685023 39:-0.779733 40:-0.838626 41:-0.942106 42:-0.852111 43:-1 44:-0.61506 45:-1 46:-1 47:-0.451277 48:-1 49:-1 50:-1 51:-1 52:-1 53:-0.147332 54:-1 55:-1 56:-0.78794 57:-1 58:-0.788548 59:-1 60:-1 61:-1 62:-0.763375 63:-0.640117 64:-0.667607 65:-0.478718 66:-0.382142 67:-1 68:-1 69:-0.339844 70:-1 71:-1 72:-1 73:-1 74:-1 75:-0.129109 76:-0.832493 77:-0.9735 78:-1 79:-1 80:-0.614404 81:-0.877761 82:-0.847041 83:-0.218806 84:-0.677251 85:-0.847695 86:-0.119814 87:-0.00200654 88:0.134707 89:-0.309807 90:-1 91:-1 92:-1 93:-1 94:-1 95:-1 96:-1 97:-0.289208 98:-1 99:-0.947329 100:-0.731369 101:-1 102:-0.793354 103:-0.789794 104:-0.183865 105:-0.149789 106:-0.941083 107:-0.917999 108:-0.259917 109:-0.652614 110:-0.406064 111:-0.510944 112:-1 113:-1 114:-1 115:-1 116:-1 117:-1 118:-1 119:-0.203153 120:-1 121:-0.678945 122:-1 123:-1 124:-0.87258 125:0.34193 126:-0.600583 127:-1 128:-0.767403 129:-0.3392 130:-0.280051 131:-1 132:-0.022576 
0 1.383217677512188 0 0 2.822639748131702 0.3253581478055151 6.03483804772833 0 0 1:-1 2:-1 3:-0.92682 4:-1 5:-0.614323 6:-1 7:-1 8:-1 9:-0.834164 10:-0.70566 11:-1 12:-0.89729 13:-0.98404 14:-0.623816 15:-0.779992 16:-0.204577 17:-0.54286 18:-1 19:-0.429992 20:-0.867424 21:-0.0253013 22:0.61206 23:-1 24:-1 25:-0.928976 26:-1 27:-1 28:-0.988276 29:-1 30:-1 31:-1 32:-0.051456 33:-1 34:-1 35:-1 36:-1 37:-0.924902 38:-0.88857 39:-0.333333 40:-0.790675 41:-0.924902 42:-0.846531 43:-0.77142 44:-0.546809 45:-0.351042 46:-1 47:-0.623701 48:-1 49:-0.990095 50:-1 51:-1 52:-1 53:-0.138286 54:-1 55:-1 56:-0.915977 57:-1 58:-0.725717 59:-1 60:-0.70367 61:-0.232007 62:-0.923269 63:-0.844403 64:-0.655067 65:-0.729514 66:-0.578256 67:-0.56229 68:-1 69:-0.482612 70:-1 71:-0.981861 72:-1 73:-1 74:-1 75:-0.178115 76:-0.840946 77:-1 78:-1 79:-1 80:-0.499829 81:-1 82:-0.900805 83:-0.239997 84:-0.511579 85:-1 86:-0.873149 87:0.29454 88:-0.163983 89:-0.373357 90:-1 91:-1 92:-1 93:-1 94:-1 95:-1 96:-1 97:-1 98:-1 99:-1 100:-0.322076 101:-1 102:-0.865969 103:-0.86368 104:-0.711276 105:0.544014 106:-0.923575 107:-1 108:-0.439999 109:0.0138888 110:-0.415279 111:0.652351 112:-1 113:-1 114:-1 115:-0.9873 116:-1 117:-1 118:-0.987534 119:-1 120:-1 121:-0.785573 122:-0.959877 123:-1 124:-0.58682 125:0.160447 126:-0.481901 127:-0.719991 128:-0.622862 129:-0.14285 130:-0.405713 131:-0.630475 132:0.173787 
3.750447089271135 2.733485347558762 8 3.840917892776299 1.46493104144043 2.359129439187735 5.172855192568774 2.228691841578049 3.032445709136433 1:-1 2:-1 3:-1 4:-1 5:-1 6:-0.96097 7:-1 8:-1 9:-1 10:-1 11:-1 12:-1 13:0.00512884 14:-0.872165 15:0.121352 16:-0.211653 17:-0.80582 18:-1 19:-1 20:-1 21:-1 22:-0.281483 23:-1 24:-1 25:-1 26:-1 27:-1 28:-0.920885 29:-0.64077 30:-1 31:-1 32:-0.415273 33:-1 34:-1 35:-0.594316 36:-1 37:-0.489597 38:-0.747572 39:-0.676383 40:-0.407252 41:-0.489597 42:-0.54369 43:-1 44:-0.219351 45:-1 46:-1 47:-1 48:-1 49:-0.866331 50:-1 51:-1 52:-1 53:-0.907721 54:-1 55:-1 56:-0.258709 57:-1 58:-0.650489 59:-0.800966 60:-1 61:-0.673779 62:-1 63:-1 64:-0.560462 65:0.148875 66:-0.0192443 67:-1 68:-0.93888 69:-1 70:-1 71:-0.908205 72:-1 73:-0.613097 74:-1 75:-1 76:-0.503207 77:-1 78:-1 79:-1 80:-1 81:-0.730575 82:0.011258 83:0.291246 84:-0.644356 85:-1 86:-1 87:-1 88:-0.0350808 89:-1 90:-1 91:-1 92:-1 93:-0.91393 94:-1 95:-1 96:-0.964004 97:-0.963865 98:-1 99:-1 100:0.143428 101:-1 102:-0.658432 103:-0.536764 104:-1 105:-1 106:-1 107:-0.819263 108:-0.728162 109:-0.0429871 110:-0.551822 111:-1 112:-1 113:-1 114:-1 115:-0.785751 116:-1 117:-1 118:-1 119:-1 120:-0.935235 121:-0.845 122:-1 123:-1 124:-1 125:-1 126:-1 127:-0.762131 128:-0.487377 129:-0.514567 130:0.730936 131:-1 132:0.280885 
0 0.2380105440111236 0 1.192659587152892 0 0 0.5170223890749129 0 0 1:-1 2:-1 3:-1 4:-1 5:-1 6:-0.844126 7:-0.716224 8:-1 9:-0.868589 10:-0.926569 11:-1 12:-1 13:-0.820811 14:-0.329094 15:-0.509548 16:-0.187259 17:-0.74522 18:-0.71975 19:-0.576426 20:-0.852228 21:-0.63785 22:0.257406 23:-1 24:-1 25:-1 26:-1 27:-1 28:-0.80255 29:0.0958186 30:-1 31:-1 32:-0.878387 33:-0.672057 34:-1 35:-1 36:-1 37:-0.748866 38:-0.503185 39:-0.575367 40:-0.84445 41:-0.58144 42:-0.657873 43:-1 44:-0.136517 45:-1 46:-1 47:-1 48:-1 49:-1 50:-1 51:-1 52:-1 53:0.566167 54:-1 55:-1 56:-1 57:-1 58:-0.847132 59:-1 60:-1 61:-1 62:-1 63:-1 64:-0.42327 65:-0.547777 66:-0.52647 67:-1 68:-1 69:-0.927394 70:-1 71:-1 72:-1 73:-0.915022 74:-1 75:-0.0220246 76:-1 77:-0.632754 78:-1 79:-1 80:-0.535409 81:-0.646492 82:-1 83:-0.576441 84:-0.0667123 85:-0.889907 86:-0.575802 87:-0.175443 88:0.0760879 89:-0.932644 90:-1 91:-1 92:-1 93:-1 94:-1 95:-1 96:-1 97:0.515287 98:-1 99:-0.756694 100:-0.925553 101:-1 102:-0.775916 103:-0.240219 104:-0.356345 105:-0.754154 106:-1 107:-0.644297 108:-0.554142 109:-0.623298 110:-0.423206 111:-1 112:-1 113:-1 114:-1 115:-1 116:-1 117:-1 118:-1 119:-0.64292 120:-1 121:-0.348795 122:-1 123:-1 124:-0.815775 125:-0.353269 126:-0.8075 127:-1 128:-0.66369 129:-0.2569 130:-0.621469 131:-1 132:-0.175573 
0 0 1.146976344629036 1.502719496968215 0 0 0 0 0 1:-1 2:-0.898317 3:-1 4:-1 5:-1 6:-0.324418 7:-0.708455 8:-1 9:-1 10:-1 11:-1 12:-0.933371 13:-0.792897 14:-0.368001 15:-0.229999 16:-0.257601 17:-0.52 18:-0.296002 19:-0.201995 20:-0.9072 21:-0.772572 22:0.185689 23:-1 24:-1 25:-1 26:-0.884388 27:-1 28:-0.863082 29:-0.332204 30:-1 31:-1 32:-0.878182 33:-0.381594 34:-1 35:-0.912237 36:-0.776 37:-0.894857 38:-0.479999 39:-0.6 40:-1 41:-0.684572 42:-0.462857 43:-0.68 44:-0.103959 45:-1 46:-1 47:-1 48:-1 49:-1 50:-1 51:-1 52:-1 53:-0.574092 54:-1 55:-1 56:-0.383652 57:-1 58:-0.904 59:-1 60:-0.723427 61:-0.731201 62:-1 63:-1 64:-0.0341809 65:-0.242666 66:-0.0350908 67:-1 68:-1 69:-1 70:-1 71:-1 72:-1 73:-0.848216 74:-1 75:-0.829382 76:-1 77:-0.0945061 78:-1 79:-1 80:-0.883294 81:-1 82:-0.444478 83:-0.468003 84:-0.609263 85:-0.861714 86:-0.8224 87:-0.223276 88:0.00636367 89:-0.974053 90:-1 91:-1 92:-1 93:-1 94:-1 95:-1 96:-0.979232 97:-0.270279 98:-1 99:-1 100:-0.378572 101:-1 102:-0.906182 103:-0.236568 104:-0.730526 105:-0.691197 106:-1 107:-0.851077 108:-0.664 109:-0.684571 110:-0.627284 111:-1 112:-1 113:-1 114:-1 115:-1 116:-1 117:-1 118:-1 119:-0.841278 120:-1 121:-0.29952 122:-1 123:-1 124:-0.884308 125:-0.187694 126:-1 127:-1 128:-0.6832 129:-0.333333 130:-0.762285 131:-1 132:-0.269963 
0 0 0 0 0 0 0.23067695729055 0 0 1:-1 2:-1 3:-1 4:-0.765183 5:-1 6:-0.981158 7:-0.923764 8:-1 9:-1 10:-0.955617 11:-1 12:-1 13:-0.40219 14:-0.881382 15:-0.219585 16:-0.425221 17:-0.81982 18:-0.867868 19:-0.251106 20:-0.686487 21:-0.743888 22:-0.0301928 23:-1 24:-1 25:-1 26:-0.983868 27:-1 28:-0.961813 29:-0.845866 30:-0.869783 31:-1 32:-0.741273 33:-0.641145 34:-1 35:-1 36:-1 37:-0.940791 38:-0.297297 39:-0.774767 40:-0.889995 41:-0.822388 42:-0.274131 43:-0.81982 44:0.140688 45:-1 46:-1 47:-1 48:-1 49:-1 50:-1 51:-0.10968 52:-1 53:-0.871933 54:-1 55:-1 56:-1 57:-0.716894 58:-0.729725 59:-0.815316 60:-0.0656341 61:-0.24323 62:-0.939504 63:-0.754677 64:-0.116291 65:-0.573574 66:0.162365 67:-1 68:-1 69:-1 70:-1 71:-1 72:-1 73:-0.7348 74:-1 75:-1 76:-1 77:0.367257 78:-1 79:-1 80:-1 81:-1 82:-0.687207 83:-0.700441 84:-1 85:-1 86:-1 87:-1 88:-0.86993 89:-1 90:-1 91:-1 92:-1 93:-1 94:-1 95:-1 96:-0.991306 97:0.0204796 98:-1 99:-0.741194 100:-0.995998 101:-0.722049 102:-0.894349 103:-0.247734 104:0.441448 105:-1 106:-1 107:-0.664588 108:0.513514 109:-0.555974 110:0.0265155 111:-1 112:-1 113:-1 114:-1 115:-1 116:-1 117:-1 118:-1 119:-1 120:-1 121:-0.0242362 122:-1 123:-1 124:-1 125:-1 126:-1 127:-1 128:-0.762162 129:-0.624617 130:-0.79922 131:-1 132:-0.546101 
0 0 0 2.84574036529899 0 0 0 2.032492826234779 0 1:-1 2:-1 3:-1 4:-1 5:-1 6:-1 7:-1 8:-1 9:-0.889074 10:-1 11:-1 12:-1 13:-0.349609 14:-0.202022 15:-0.416667 16:-0.765657 17:-0.79798 18:-1 19:-1 20:-1 21:-0.712844 22:-0.145547 23:-1 24:-1 25:-1 26:-1 27:-1 28:-1 29:0.816326 30:-1 31:-1 32:-0.94525 33:-1 34:-1 35:-0.786334 36:-1 37:-0.734488 38:-0.80303 39:-0.49495 40:-0.383307 41:-0.468976 42:-0.728716 43:-1 44:-0.253899 45:-1 46:-1 47:-1 48:-1 49:-1 50:-1 51:-1 52:-1 53:-0.222349 54:-1 55:-1 56:-1 57:-0.453181 58:-0.151518 59:-1 60:-1 61:-1 62:-1 63:-1 64:-1 65:-0.282829 66:-0.455662 67:-1 68:-1 69:-1 70:-1 71:-1 72:-1 73:-0.452245 74:-1 75:-0.875394 76:-1 77:-1 78:-1 79:-1 80:-0.852644 81:-1 82:-0.649292 83:-0.104382 84:0.110047 85:-1 86:-0.775758 87:-0.346192 88:0.288488 89:-1 90:-1 91:-1 92:-1 93:-1 94:-1 95:-1 96:-1 97:0.126792 98:-1 99:-0.794625 100:-0.972071 101:-0.486208 102:-0.526172 103:-0.0360721 104:-0.489634 105:-1 106:-1 107:-0.623932 108:-0.575758 109:-0.800865 110:-0.321907 111:-1 112:-1 113:-1 114:-1 115:-1 116:-1 117:-1 118:-1 119:-0.721778 120:-1 121:-0.281602 122:-1 123:-1 124:-0.415697 125:-0.316241 126:-1 127:-1 128:-0.333333 129:0.17845 130:-0.849928 131:-1 132:-0.011584 
1.455641264816389 0.4895802754460356 3.886773226281114 0.8856374645975253 0 1.788157808632785 0.7248266351251811 0.6726237307922738 0 1:-1 2:-1 3:-1 4:-1 5:-0.884299 6:-1 7:-1 8:-1 9:-1 10:-0.699118 11:-1 12:-1 13:-0.608394 14:-0.507791 15:-0.100466 16:-0.783173 17:-0.25234 18:-0.862926 19:-0.689244 20:-0.674771 21:-0.734307 22:0.184396 23:-1 24:-1 25:-1 26:-1 27:-1 28:-1 29:-1 30:-1 31:-1 32:-0.125127 33:-0.976421 34:-1 35:-1 36:-1 37:-1 38:-0.514021 39:-0.37695 40:-1 41:-0.754334 42:-1 43:-1 44:-0.239811 45:-1 46:-1 47:-0.606599 48:-0.266507 49:-0.931647 50:-1 51:-0.9394 52:-0.959059 53:-0.905624 54:-1 55:-1 56:-0.940537 57:-0.931934 58:0.00934198 59:-0.808407 60:-0.676894 61:0.256065 62:-0.874496 63:-0.491 64:-0.153777 65:-0.557622 66:0.546275 67:-1 68:-1 69:-1 70:-0.63356 71:-1 72:-1 73:-0.788959 74:-0.958745 75:-1 76:-1 77:0.337659 78:-1 79:-1 80:-1 81:-1 82:-1 83:-0.585663 84:-0.657653 85:-0.838447 86:0.659807 87:-0.395061 88:-0.535987 89:-1 90:-1 91:-1 92:-1 93:-1 94:-1 95:-1 96:-1 97:-0.433281 98:-1 99:-0.93354 100:-0.514157 101:-1 102:-0.671203 103:-0.331115 104:-0.212985 105:-1 106:-1 107:-0.826021 108:-0.476637 109:-0.263019 110:-0.314886 111:-1 112:-1 113:-1 114:-1 115:-1 116:-1 117:-0.900823 118:-1 119:-1 120:-1 121:-0.119317 122:-1 123:-1 124:-1 125:-1 126:-1 127:-0.771024 128:-0.506544 129:-0.532717 130:-0.861145 131:-1 132:-0.569893 
0 0 0 0 0 0 0.8985759762216806 0 0 1:-1 2:-1 3:-1 4:-1 5:-1 6:-1 7:-0.716546 8:-1 9:-1 10:-1 11:-1 12:-1 13:-0.149797 14:-1 15:0.00785401 16:-0.878537 17:-0.89528 18:-0.923206 19:0.044522 20:-0.939262 21:-1 22:-0.426824 23:-1 24:-1 25:-1 26:-0.944488 27:-1 28:-0.868517 29:-0.608595 30:-1 31:-1 32:-1 33:-0.0977168 34:-1 35:-0.856725 36:-0.853406 37:-0.449512 38:-0.625652 39:-0.825483 40:-0.744287 41:-0.449512 42:-0.543005 43:-0.89528 44:0.262218 45:-1 46:-1 47:-0.894514 48:-1 49:-1 50:-1 51:-0.91136 52:-1 53:-0.29064 54:-1 55:-1 56:-1 57:-0.647421 58:-0.937168 59:-0.678007 60:-0.547493 61:-0.296351 62:-1 63:-0.572284 64:-0.446933 65:-0.256535 66:-0.0520765 67:-1 68:-1 69:-1 70:-1 71:-1 72:-1 73:-0.848239 74:-1 75:-0.864836 76:-1 77:-0.0217661 78:-1 79:-1 80:-0.694494 81:-1 82:-1 83:-0.30366 84:-0.616418 85:-1 86:-1 87:-0.152788 88:-0.491833 89:-0.708463 90:-1 91:-1 92:-1 93:-1 94:-0.962926 95:-1 96:-0.994017 97:0.0210868 98:-1 99:-0.902789 100:-0.944917 101:-0.718513 102:-0.877204 103:-0.750191 104:0.499032 105:-0.393704 106:-1 107:-0.610157 108:-0.193711 109:-0.380694 110:-0.080735 111:-1 112:-1 113:-1 114:-1 115:-1 116:-1 117:-1 118:-1 119:-0.725641 120:-1 121:-0.364543 122:-1 123:-1 124:-0.47 125:-0.291195 126:-1 127:-1 128:-0.447117 129:-0.5637 130:-0.84443 131:-1 132:-0.270656 
1.1580584159439 0.9173714117520272 1.430824665429154 0.6661458669051141 0.7900385415570843 1.170978965007178 1.133248159208554 1.396052505205486 1.44545388484882 1:-1 2:-1 3:-1 4:-1 5:-1 6:-0.828634 7:-0.984594 8:-1 9:-0.991974 10:-0.964123 11:-1 12:-1 13:-0.036898 14:-1 15:-1 16:-1 17:-1 18:-1 19:-1 20:-1 21:-1 22:-0.383625 23:-1 24:-1 25:-1 26:-1 27:-1 28:-0.971057 29:-1 30:-0.924811 31:-1 32:-0.992077 33:-0.181938 34:-1 35:-0.431066 36:0.826092 37:1 38:0.130436 39:-0.275367 40:0.592681 41:1 42:0.167703 43:-0.13044 44:0.155191 45:-1 46:-1 47:-1 48:-1 49:-1 50:-1 51:-0.52304 52:-1 53:-0.65113 54:-0.684253 55:-1 56:-1 57:-0.488678 58:-1 59:-1 60:-1 61:-1 62:-1 63:-1 64:-1 65:-1 66:0.257794 67:-1 68:-1 69:-1 70:-1 71:-1 72:-1 73:-1 74:-1 75:-1 76:-1 77:0.507315 78:-1 79:-1 80:-1 81:-1 82:-1 83:-1 84:-1 85:-1 86:-1 87:-1 88:-1 89:-0.330855 90:-0.91965 91:-1 92:-1 93:-1 94:-0.854917 95:-1 96:-1 97:-1 98:-1 99:-0.738459 100:-0.923206 101:-0.909125 102:-1 103:-1 104:-1 105:-1 106:-1 107:-1 108:-1 109:-1 110:0.671775 111:-1 112:-1 113:-1 114:-1 115:-1 116:-1 117:-1 118:-1 119:-1 120:-1 121:-0.206098 122:-1 123:-1 124:-1 125:-1 126:-1 127:-1 128:-1 129:-1 130:-1 131:-1 132:-1 
0 0 0 0 0 0 0 0 0.192270067782374 1:-1 2:-1 3:-1 4:-0.882176 5:-1 6:-0.965865 7:0.81213 8:-1 9:-1 10:-1 11:-1 12:-0.905721 13:-0.814759 14:-0.552834 15:-0.564141 16:-0.430939 17:-0.69812 18:-0.612581 19:-0.498121 20:-0.518496 21:-0.678161 22:0.0962972 23:-1 24:-1 25:-1 26:-1 27:-1 28:-0.986163 29:-0.609002 30:-1 31:-1 32:-0.13342 33:-1 34:-1 35:-0.991131 36:-0.894342 37:-0.950399 38:-0.950944 39:-0.9371 40:-0.769612 41:-0.950399 42:-0.898654 43:-1 44:-0.757054 45:-1 46:-0.3977 47:-0.818316 48:-1 49:-1 50:-1 51:-0.362493 52:-1 53:-0.979825 54:-1 55:-1 56:-0.786423 57:-1 58:-0.23019 59:-0.613206 60:-0.478159 61:-0.619616 62:-0.391913 63:-0.486208 64:-0.829156 65:-0.642775 66:0.29564 67:-1 68:-0.914455 69:-0.270657 70:-1 71:-0.962529 72:-1 73:-0.918782 74:-1 75:-1 76:-0.502915 77:-1 78:-1 79:-1 80:-0.834847 81:-0.790571 82:-0.344901 83:-0.330814 84:-0.815694 85:-0.739088 86:-0.16226 87:-0.511505 88:0.0592351 89:-0.47288 90:-1 91:-0.147307 92:-1 93:-1 94:-1 95:-1 96:-1 97:-0.298304 98:-1 99:-0.98295 100:-0.724613 101:-1 102:-0.822989 103:-0.819949 104:-0.364446 105:-0.271689 106:-0.949523 107:-0.789255 108:-0.366037 109:-0.404844 110:-0.434569 111:-0.806921 112:-1 113:-0.445036 114:-1 115:-0.992506 116:-1 117:-1 118:-1 119:-0.345467 120:-1 121:-0.667858 122:-1 123:-1 124:-0.781718 125:0.277216 126:-0.657854 127:-1 128:-0.750942 129:-0.245283 130:-0.551476 131:-1 132:-0.049584 
0.2713458102454182 0 0 2.634003706749849 0 0.9031864606240874 0 0 0 1:-1 2:-1 3:-1 4:-1 5:-1 6:-1 7:-0.867407 8:-1 9:-1 10:-1 11:-1 12:-1 13:-0.124786 14:-0.259021 15:-0.75 16:-0.799135 17:-1 18:-0.492065 19:-0.71212 20:-1 21:-1 22:-0.287765 23:-1 24:-1 25:-1 26:-0.848996 27:-1 28:-1 29:0.276056 30:-1 31:-1 32:-0.719385 33:-1 34:-1 35:-0.967247 36:-1 37:-0.943105 38:-0.634199 39:-0.78355 40:-0.841422 41:-0.829314 42:-0.593074 43:-0.91342 44:-0.250176 45:-1 46:-0.972879 47:-0.990687 48:-1 49:-1 50:-1 51:-1 52:-1 53:-0.761597 54:-1 55:-1 56:-1 57:0.0880231 58:-0.584417 59:-1 60:-0.92517 61:-0.709092 62:-0.941868 63:-0.882117 64:-0.738686 65:-0.897547 66:-0.438039 67:-1 68:-0.822344 69:-0.63991 70:-1 71:-1 72:-1 73:-0.98251 74:-1 75:-0.110655 76:-0.93583 77:-0.960404 78:-1 79:-1 80:-0.494781 81:-0.279221 82:-0.0981798 83:-0.424246 84:-0.471406 85:-0.551019 86:0.153247 87:-0.579695 88:0.649682 89:-1 90:-1 91:-1 92:-1 93:-1 94:-1 95:-1 96:-1 97:-0.539029 98:-1 99:-0.842602 100:-0.983947 101:0.164918 102:-1 103:-0.48361 104:0.239461 105:-1 106:-0.9421 107:-0.758242 108:-0.030303 109:-0.829313 110:-0.443044 111:-1 112:-1 113:-1 114:-1 115:-1 116:-1 117:-1 118:-1 119:-0.235921 120:-1 121:-0.526576 122:-1 123:-1 124:-0.937396 125:0.465198 126:-0.67292 127:-1 128:-0.885714 129:-0.20635 130:-0.421149 131:-1 132:-0.0582773 
0 2.677912351380366 8 0 2.134912038710069 0.0341952487340006 0 0.07222521561610677 6.372013446473988 1:-1 2:-1 3:-1 4:-0.83651 5:-1 6:-0.971579 7:-0.0341005 8:-1 9:-0.712458 10:-1 11:-1 12:-1 13:-0.836631 14:-0.420339 15:-0.515727 16:-0.270442 17:-0.87422 18:-0.262063 19:-0.790889 20:-0.635215 21:-0.463612 22:0.0765459 23:-1 24:-1 25:-1 26:-0.756791 27:-1 28:-0.942399 29:0.336934 30:-1 31:-1 32:-0.657019 33:-1 34:-1 35:-1 36:-1 37:-0.917345 38:-0.713837 39:-0.580717 40:-0.846404 41:-0.834676 42:-0.619944 43:-0.74842 44:-0.515768 45:-1 46:-0.847123 47:-1 48:-1 49:-0.622834 50:-1 51:-0.902907 52:-1 53:-0.529638 54:-1 55:-1 56:-1 57:-0.872793 58:-0.245286 59:-0.484282 60:-0.565141 61:-0.577347 62:-0.915548 63:-0.828745 64:-1 65:-0.553457 66:0.0332355 67:-1 68:-1 69:-1 70:-1 71:-0.275894 72:-1 73:-0.808426 74:-1 75:-1 76:-0.761246 77:-1 78:-1 79:-1 80:-1 81:-1 82:-0.235724 83:0.115288 84:-0.616015 85:-1 86:-1 87:-1 88:-0.0935851 89:-1 90:-1 91:-1 92:-1 93:0.833075 94:-1 95:-1 96:-1 97:-0.947375 98:-1 99:-0.946759 100:-0.891399 101:-0.913677 102:-0.409955 103:-0.399823 104:-0.89408 105:-1 106:-1 107:-0.882928 108:-0.119497 109:-0.504046 110:-0.251673 111:-1 112:-1 113:-1 114:-1 115:0.0452293 116:-1 117:-1 118:-1 119:-1 120:-1 121:-0.548543 122:-1 123:-1 124:-1 125:-1 126:-1 127:-1 128:-0.667927 129:0.0482167 130:-0.439349 131:-1 132:-0.150683 
0 0 0 0 0 0 0.5111966760454498 0 0 1:-1 2:-1 3:-1 4:-1 5:-1 6:-1 7:-0.310259 8:-1 9:-1 10:-1 11:-1 12:-0.977871 13:-0.659596 14:-0.205459 15:-0.502156 16:-0.199995 17:-0.48276 18:-0.873559 19:-0.140083 20:-0.800005 21:-0.754918 22:0.37603 23:-1 24:-1 25:-1 26:-1 27:-1 28:-1 29:0.23872 30:-1 31:-1 32:-0.579937 33:-1 34:-1 35:-0.854275 36:-1 37:-0.773404 38:-0.887933 39:-0.71265 40:-0.789478 41:-0.6601 42:-0.768471 43:-1 44:-0.46643 45:-1 46:-1 47:-1 48:-1 49:-1 50:-1 51:-0.974453 52:-1 53:-0.164697 54:-1 55:-1 56:-0.49879 57:-1 58:-0.896548 59:-1 60:-1 61:-0.420704 62:-1 63:-1 64:-0.739817 65:0.224135 66:-0.361581 67:-1 68:-1 69:-1 70:-1 71:-1 72:-1 73:-0.706488 74:-1 75:-0.660083 76:-0.63454 77:-1 78:-1 79:-1 80:-0.748485 81:-1 82:-0.700695 83:0.337641 84:-0.473689 85:-1 86:-1 87:0.394964 88:0.0675263 89:-1 90:-1 91:-1 92:-1 93:-1 94:-1 95:-1 96:-1 97:0.391531 98:-1 99:-0.971983 100:-0.533332 101:-1 102:-0.898899 103:-0.588677 104:-0.274055 105:-1 106:-1 107:-0.839517 108:-0.637932 109:-0.660105 110:-0.704592 111:-1 112:-1 113:-1 114:-1 115:-1 116:-1 117:-1 118:-1 119:-0.0512814 120:-1 121:-0.75503 122:-1 123:-1 124:-0.501323 125:0.167115 126:-0.869727 127:-1 128:-0.203445 129:-0.281617 130:-0.359611 131:-0.814171 132:0.291403 
0 0.2130396867542816 0 0 0 0 0 0 0 1:-1 2:-1 3:-1 4:-1 5:-1 6:-0.98973 7:-0.509631 8:-1 9:-0.987008 10:-1 11:-1 12:-1 13:-0.305671 14:-0.753428 15:-0.35112 16:-0.608988 17:-0.9251 18:-0.890132 19:-0.252801 20:-0.739325 21:-0.787042 22:-0.0774462 23:-1 24:-1 25:-1 26:-0.903306 27:-1 28:-0.989593 29:-0.663881 30:-0.634945 31:-1 32:-0.878182 33:-0.235651 34:-1 35:-1 36:-1 37:-0.95078 38:-0.488761 39:-0.625467 40:-0.908531 41:-0.753874 42:-0.497059 43:-0.70038 44:-0.00741383 45:-1 46:-0.983422 47:-1 48:-1 49:-1 50:-1 51:-0.812867 52:-1 53:-0.474851 54:-1 55:-1 56:-1 57:-0.385916 58:-0.820228 59:-0.923228 60:-0.352595 61:-0.622472 62:-0.94971 63:-1 64:-0.265238 65:-0.645449 66:-0.24911 67:-1 68:-0.983918 69:-1 70:-1 71:-1 72:-1 73:-0.926694 74:-1 75:-0.897851 76:-1 77:0.155202 78:-1 79:-1 80:-0.726807 81:-0.792125 82:-0.869956 83:-0.667923 84:-0.588407 85:-0.935265 86:-0.8337 87:-0.757565 88:-0.40586 89:-0.0945705 90:-1 91:-1 92:-1 93:-0.569675 94:-1 95:-1 96:-1 97:-1 98:-1 99:-0.916622 100:-0.923684 101:-0.852921 102:-0.780384 103:0.161585 104:0.387739 105:-0.421728 106:-0.949911 107:-0.233065 108:0.101129 109:-0.556979 110:0.176464 111:-0.956424 112:-1 113:-1 114:-1 115:-1 116:-1 117:-1 118:-1 119:-1 120:-1 121:-0.225 122:-1 123:-1 124:-0.729179 125:-0.746459 126:-1 127:-1 128:-0.604488 129:-0.625467 130:-0.94436 131:-1 132:-0.565216 
0.03400535899325069 0 0 0 2.017798850445997 0 0 0 0 1:-1 2:-1 3:-1 4:-1 5:-1 6:-1 7:-0.876806 8:-1 9:-1 10:-1 11:-1 12:-1 13:0.0110304 14:-0.822672 15:-0.287037 16:-1 17:-1 18:-0.851852 19:-0.440233 20:-1 21:-1 22:-0.559289 23:-1 24:-1 25:-1 26:-1 27:-1 28:-0.990922 29:-0.25819 30:-1 31:-1 32:-0.996272 33:-0.18283 34:-1 35:-0.691664 36:-1 37:-0.734488 38:-0.584175 39:-0.887767 40:-0.835549 41:-0.645984 42:-0.547859 43:-1 44:-0.158547 45:-1 46:-0.980727 47:-0.232151 48:-1 49:-0.988501 50:-1 51:-1 52:-1 53:-0.835909 54:-1 55:-1 56:-1 57:-0.3472 58:-0.636365 59:-0.378789 60:-0.650793 61:-0.886869 62:-0.954786 63:0.0085505 64:-0.593511 65:-0.920314 66:0.0809274 67:-1 68:-0.992995 69:-0.482743 70:-1 71:-1 72:-1 73:-0.959166 74:-1 75:-0.898217 76:-1 77:-0.172852 78:-1 79:-1 80:-0.361459 81:-0.906566 82:-0.53239 83:-0.701461 84:-0.301081 85:-0.941799 86:-0.551515 87:-0.782064 88:-0.0357885 89:0.124821 90:-1 91:-1 92:-1 93:-0.733411 94:-1 95:-1 96:-1 97:-0.991706 98:-1 99:-1 100:-0.880228 101:-0.840676 102:-0.763086 103:-0.357381 104:0.247562 105:-0.350163 106:-0.819866 107:-0.623932 108:-0.010101 109:-0.535353 110:-0.0605584 111:-0.518825 112:-1 113:-1 114:-1 115:-1 116:-1 117:-1 118:-1 119:-1 120:-1 121:-0.436904 122:-1 123:-1 124:-0.659156 125:-0.0883214 126:-1 127:-1 128:-0.6 129:-0.382717 130:-0.849928 131:-1 132:-0.228917 
0 0 0 0 0 0 0 0 0.934972398390459 1:-1 2:-1 3:-1 4:-1 5:-1 6:-0.951965 7:-0.0828209 8:-1 9:-1 10:-1 11:-1 12:-1 13:-0.496437 14:-0.835417 15:0.203126 16:-0.6375 17:-0.75 18:-0.908334 19:0.454697 20:-0.492501 21:-1 22:0.270282 23:-1 24:-1 25:-1 26:-1 27:-1 28:-1 29:-0.931243 30:-1 31:-1 32:-1 33:0.514725 34:-1 35:-0.887683 36:-1 37:-0.917857 38:-0.228124 39:-1 40:-1 41:-0.671429 42:-0.286606 43:-1 44:-0.0670167 45:-1 46:-1 47:-1 48:-1 49:-1 50:-1 51:0.70632 52:-1 53:-0.97161 54:-1 55:-1 56:-1 57:-0.705177 58:-0.250001 59:-1 60:-1 61:0.0499966 62:-0.412499 63:-1 64:-1 65:-0.704167 66:-0.172381 67:-1 68:-1 69:-1 70:-1 71:-1 72:-1 73:-0.954296 74:-1 75:-1 76:-1 77:0.448495 78:-1 79:-1 80:-1 81:-1 82:-1 83:-1 84:-1 85:-1 86:-1 87:-1 88:-1 89:-0.878242 90:-1 91:-1 92:-1 93:-1 94:-0.981708 95:-0.592145 96:-1 97:-0.564203 98:-1 99:-0.808063 100:-0.946985 101:-0.766588 102:-0.926705 103:-0.701785 104:1 105:0.206261 106:-0.749219 107:-0.650961 108:0.487501 109:0.232146 110:0.630944 111:-1 112:-1 113:-1 114:-1 115:-1 116:-1 117:-0.964201 118:-1 119:-1 120:-1 121:-0.218006 122:-1 123:-1 124:-1 125:-1 126:-1 127:-1 128:-1 129:-0.895833 130:-1 131:-1 132:-0.981797 
0 0 0 0 0 0 0.1330756013057577 0 0 1:-1 2:-1 3:-1 4:-0.967536 5:-0.950923 6:-0.983067 7:-0.698563 8:-1 9:-1 10:-1 11:-1 12:-1 13:-0.482173 14:-0.623816 15:-0.450008 16:-0.289802 17:-0.83674 18:-0.820407 19:-0.592851 20:-0.905309 21:-1 22:0.226202 23:-1 24:-1 25:-1 26:-0.869578 27:-1 28:-1 29:-0.393919 30:-1 31:-1 32:-0.372851 33:-1 34:-1 35:-0.967003 36:-1 37:-0.946351 38:-0.68163 39:-0.523817 40:-0.950157 41:-0.892715 42:-0.808166 43:-0.83674 44:-0.51836 45:-1 46:-1 47:-0.436771 48:-1 49:-1 50:-1 51:-1 52:-1 53:-0.0791942 54:-1 55:-1 56:-1 57:-0.826761 58:-0.902044 59:-0.832659 60:-1 61:-1 62:-1 63:-0.555401 64:-0.199261 65:-0.806809 66:-0.431949 67:-1 68:-1 69:-0.758112 70:-1 71:-1 72:-1 73:-1 74:-1 75:0.0905492 76:-0.814644 77:-1 78:-1 79:-1 80:-0.821367 81:-1 82:-0.787426 83:-0.276195 84:-0.651133 85:-1 86:-0.275103 87:0.320949 88:0.0751558 89:1 90:-1 91:-1 92:-1 93:-0.775962 94:-1 95:-1 96:-1 97:-0.984323 98:-1 99:-1 100:-0.942486 101:-0.933868 102:-0.5692 103:-0.610483 104:-0.106341 105:0.260417 106:-0.727044 107:-0.772055 108:-0.028567 109:-0.678124 110:-0.29642 111:0.975265 112:-1 113:-1 114:-1 115:-1 116:-1 117:-1 118:-1 119:-1 120:-1 121:-0.787057 122:-1 123:-1 124:-0.763887 125:0.657782 126:-0.691613 127:-1 128:-0.676732 129:-0.319733 130:-0.272295 131:-1 132:0.0355253 
0 0.1354532549682427 0.5283678797194574 0.2228858282302764 0 0 0 0 0 1:-1 2:-1 3:-1 4:0.364114 5:-1 6:-0.851773 7:-1 8:-1 9:-1 10:-1 11:-1 12:-1 13:-0.481984 14:-0.337533 15:-0.394645 16:-0.635215 17:-0.74842 18:-0.72327 19:-0.372635 20:-0.781131 21:-1 22:-0.172576 23:-1 24:-1 25:-1 26:0.522039 27:-1 28:-1 29:-0.969681 30:-1 31:-1 32:-0.592913 33:-1 34:-1 35:-1 36:-0.823894 37:-1 38:-0.754716 39:-0.475883 40:-0.616015 41:-0.917345 42:-0.662177 43:-0.62264 44:-0.1985 45:-1 46:-1 47:-1 48:-1 49:-1 50:-1 51:-0.797467 52:-1 53:-0.211525 54:-1 55:-1 56:-1 57:-0.772539 58:-0.622637 59:-1 60:-0.456414 61:-0.577347 62:-0.915548 63:-1 64:-0.430529 65:-0.255754 66:-0.0305737 67:-1 68:-1 69:-1 70:-1 71:-1 72:-1 73:-0.30651 74:-1 75:-0.719248 76:-0.818889 77:-1 78:-1 79:-1 80:-0.908255 81:-1 82:-0.235724 83:-0.442356 84:-0.616015 85:-1 86:-0.301876 87:-0.796466 88:-0.202343 89:-0.863359 90:-1 91:-1 92:-1 93:-1 94:-1 95:-1 96:-1 97:0.29 98:-1 99:-0.925965 100:-0.886726 101:-0.871374 102:-0.704978 103:-0.399823 104:-0.152606 105:-0.757242 106:-0.915885 107:-0.882928 108:-0.295603 109:-0.62803 110:-0.328086 111:-1 112:-1 113:-1 114:-1 115:-1 116:-1 117:-1 118:-1 119:-0.749247 120:-0.975403 121:-0.548733 122:-1 123:-1 124:-1 125:-0.361392 126:-0.809917 127:-0.84592 128:-0.667927 129:-0.475883 130:-0.252476 131:-1 132:0.0154027 
0.8837768887946726 3.403087973672721 0.3235128179485604 1.017364453388578 0.5445173630430202 1.198144346412879 7.523460473175384 1.705461758589099 0.03580024776486922 1:-1 2:-1 3:-1 4:-1 5:-1 6:-1 7:-1 8:-1 9:-0.989348 10:-1 11:-1 12:-1 13:0.0571711 14:-0.0214024 15:-1 16:-0.764868 17:-1 18:-1 19:-1 20:-1 21:-0.807909 22:-0.5586 23:-1 24:-1 25:-1 26:-0.978377 27:-1 28:-1 29:-0.483308 30:-1 31:-1 32:-0.40602 33:-1 34:-1 35:-1 36:-1 37:-1 38:-0.736483 39:-0.54955 40:-0.339972 41:-0.822388 42:-0.818533 43:-0.86486 44:-0.270711 45:-1 46:-1 47:-1 48:-1 49:-1 50:-1 51:-1 52:-1 53:-0.738688 54:-1 55:-1 56:-1 57:0.469975 58:-0.837832 59:-1 60:-1 61:-1 62:-1 63:-1 64:-1 65:-0.840084 66:-0.947904 67:-1 68:-1 69:-1 70:-1 71:-1 72:-1 73:-0.979966 74:-1 75:-0.174533 76:-0.736327 77:-1 78:-1 79:-1 80:-0.901427 81:-0.624986 82:-0.178921 83:0.0484118 84:-0.587479 85:-0.8832 86:-0.0999889 87:0.530697 88:0.421832 89:-0.985441 90:-1 91:-1 92:-1 93:-1 94:-0.831562 95:-1 96:-0.895143 97:-0.89474 98:-1 99:-0.684516 100:-0.983912 101:-0.0463217 102:-0.603807 103:-0.0328037 104:0.0241853 105:-0.478355 106:-0.909625 107:-0.245314 108:-0.527024 109:-0.333971 110:-0.0378699 111:-1 112:-1 113:-1 114:-1 115:-0.98613 116:-1 117:-1 118:-0.986386 119:-0.804119 120:-1 121:-0.540185 122:-1 123:-1 124:-0.902283 125:-0.31394 126:-0.387381 127:-1 128:-0.643243 129:-0.0991 130:-0.397675 131:-0.7087 132:0.416475 
1.330177290449513 0 1.479730330319312 1.178499669423619 0.3759528902633171 0 0 1.414895154422554 2.585105096500704 1:-1 2:-1 3:-1 4:-1 5:-1 6:-1 7:-1 8:-1 9:-1 10:-1 11:-1 12:-1 13:0.156598 14:-0.44209 15:-0.510588 16:-0.90169 17:-1 18:-1 19:-1 20:-1 21:-1 22:-0.578522 23:-1 24:-1 25:-1 26:-1 27:-1 28:-0.915035 29:-0.514166 30:-1 31:-1 32:-1 33:-0.480099 34:-1 35:-0.237543 36:-1 37:-0.554484 38:-0.724575 39:-0.717517 40:-0.586087 41:-0.22034 42:-0.829296 43:-1 44:-0.0784273 45:-0.74582 46:-1 47:-0.91738 48:-1 49:-1 50:-0.97021 51:-1 52:-1 53:-0.669637 54:-1 55:-1 56:-1 57:-0.106539 58:-0.491525 59:-0.652546 60:-1 61:-1 62:-0.886193 63:-0.769218 64:-0.616328 65:-0.799425 66:-0.354154 67:-0.945789 68:-1 69:-0.965283 70:-1 71:-1 72:-1 73:-0.822708 74:-1 75:-0.841192 76:-1 77:-0.367882 78:-1 79:-1 80:-0.629109 81:-1 82:-0.705764 83:-0.248598 84:-0.172162 85:-1 86:-0.811855 87:-0.451471 88:0.141111 89:0.159282 90:-1 91:-1 92:-1 93:-1 94:-0.946754 95:-1 96:-1 97:-1 98:-1 99:-1 100:-0.798294 101:-1 102:-0.304316 103:-0.595644 104:-0.429086 105:0.308475 106:-0.659955 107:-1 108:-0.525428 109:-0.164644 110:-0.132933 111:-0.565348 112:-1 113:-1 114:-1 115:-1 116:-1 117:-1 118:-1 119:-1 120:-1 121:-0.426612 122:-1 123:-1 124:-0.387222 125:-0.426342 126:-1 127:-1 128:-0.216949 129:-0.293783 130:-0.622271 131:-1 132:0.042832 
1.150413765051872 0 0 0 0 2.392762702240817 0 0 0 1:-1 2:-1 3:-1 4:-1 5:-1 6:-0.978383 7:-0.498546 8:-1 9:-0.811665 10:-1 11:-1 12:-0.914707 13:-0.579171 14:-0.656522 15:-0.581524 16:-0.394782 17:-0.73914 18:-0.617392 19:-0.566318 20:-0.848701 21:-0.258386 22:0.150607 23:-1 24:-1 25:-1 26:-0.950661 27:-1 28:-0.985392 29:0.599028 30:-1 31:-1 32:-1 33:-1 34:-1 35:-0.531913 36:-0.939128 37:-0.657142 38:-0.689131 39:-0.927533 40:-0.681464 41:-0.542852 42:-0.73727 43:-0.82608 44:-0.226035 45:-1 46:-0.992253 47:-1 48:-1 49:-1 50:-1 51:-0.794867 52:-0.346032 53:-0.804079 54:-1 55:-1 56:-0.738367 57:-1 58:-0.426089 59:-0.376083 60:-0.699383 61:-0.853908 62:-0.649688 63:-0.171228 64:-0.475092 65:-0.691316 66:0.417822 67:-1 68:-0.988722 69:-0.812043 70:-1 71:-1 72:-1 73:-0.511427 74:-0.419201 75:-0.945404 76:-1 77:-1 78:-0.885133 79:-1 80:-0.682867 81:-0.879343 82:-0.396165 83:-0.132623 84:-0.522202 85:-1 86:-0.324342 87:-0.29645 88:-0.0160588 89:-1 90:-1 91:-1 92:-1 93:-1 94:-1 95:-1 96:-1 97:-1 98:-1 99:-1 100:0.278805 101:-1 102:-1 103:-1 104:-1 105:-1 106:-1 107:-1 108:-1 109:-1 110:-1 111:-1 112:-1 113:-1 114:-1 115:-1 116:-1 117:-0.994633 118:-1 119:-0.126359 120:-1 121:-0.966617 122:-0.038093 123:-1 124:0.00601599 125:-0.26422 126:-1 127:-0.893474 128:-0.0817411 129:-0.71015 130:-0.483223 131:-0.906277 132:-0.0154773 
0 0 0 0 3.846986396025204 0 0 0 0 1:-1 2:-0.627126 3:-1 4:-1 5:-0.917152 6:-1 7:-0.568263 8:-1 9:-0.887544 10:-1 11:-1 12:-1 13:-0.55311 14:-0.749689 15:-0.0484715 16:-0.38251 17:-0.92396 18:-0.721173 19:-0.24143 20:-0.735358 21:-0.675716 22:-0.0479826 23:-1 24:-1 25:-1 26:-1 27:-1 28:-0.971033 29:-0.132855 30:-1 31:-1 32:-0.361668 33:-1 34:-1 35:-0.987617 36:-1 37:-0.900049 38:-0.678705 39:-0.5564 40:-0.907139 41:-0.750141 42:-0.77023 43:-1 44:-0.430332 45:-1 46:-1 47:1 48:-1 49:-0.991839 50:-1 51:-1 52:-1 53:-0.876106 54:-1 55:-1 56:-1 57:-0.890343 58:-0.361217 59:-0.688216 60:-1 61:-0.872253 62:-0.69364 63:0.138932 64:-0.827858 65:-0.820015 66:0.0224136 67:-1 68:-1 69:1 70:-1 71:-0.947714 72:-1 73:-1 74:-1 75:-1 76:-0.825375 77:-1 78:-1 79:-1 80:-0.445312 81:-1 82:-0.933997 83:-0.494292 84:-0.44287 85:-1 86:-0.831169 87:-0.0155668 88:-0.0290105 89:0.295477 90:-1 91:-1 92:-1 93:-1 94:-1 95:-1 96:-0.991209 97:-0.523645 98:-1 99:-0.952403 100:-0.870559 101:-0.975195 102:-0.598682 103:-0.72786 104:-0.423646 105:0.0273869 106:-0.847432 107:-0.85843 108:-0.467677 109:-0.550237 110:-0.394567 111:-0.232136 112:-1 113:-1 114:-1 115:-1 116:-1 117:-1 118:-0.979472 119:-0.55675 120:-1 121:-0.684703 122:-1 123:-1 124:-0.780055 125:-0.0991522 126:-0.712723 127:-1 128:-0.648668 129:-0.366283 130:-0.491572 131:-0.918046 132:0.021664 
0 0 0 0 0 0 4.827976440418578 0 0 1:-1 2:-1 3:-1 4:-1 5:-1 6:-1 7:-1 8:-1 9:-0.984204 10:-1 11:-1 12:-1 13:0.0424603 14:-0.509319 15:-0.521733 16:-0.927952 17:-1 18:-1 19:-1 20:-1 21:-0.823431 22:-0.658408 23:-1 24:-1 25:-1 26:-1 27:-1 28:-0.97152 29:-0.588083 30:-1 31:-1 32:-1 33:-0.18673 34:-1 35:-0.878296 36:-1 37:-0.83674 38:-0.273293 39:-0.896483 40:-0.54495 41:-0.428575 42:-0.457854 43:-1 44:0.456999 45:-1 46:-1 47:-1 48:-1 49:-1 50:-1 51:-1 52:-1 53:-0.761915 54:-1 55:-1 56:-1 57:0.245868 58:-0.776392 59:-0.872675 60:-1 61:-1 62:-1 63:-1 64:-0.718796 65:-0.853006 66:-0.70945 67:-1 68:-1 69:-1 70:-1 71:-1 72:-1 73:-0.903429 74:-1 75:-0.68061 76:-1 77:-0.0818297 78:-1 79:-1 80:-0.546949 81:-1 82:-0.784353 83:-0.173919 84:-0.46911 85:-1 86:-0.586325 87:-0.396938 88:-0.0837059 89:-0.805705 90:-1 91:-1 92:-1 93:-1 94:-0.33972 95:-1 96:-0.94816 97:-0.826536 98:-1 99:-1 100:-0.908526 101:-0.471596 102:-0.854324 103:-0.407267 104:0.150703 105:0.438519 106:-1 107:-0.88438 108:0.130431 109:-0.265306 110:-0.00521978 111:-0.89404 112:-1 113:-1 114:-1 115:-1 116:-1 117:-1 118:-1 119:-0.762288 120:-1 121:-0.4172 122:-1 123:-1 124:-0.640703 125:-0.159094 126:-0.906145 127:-1 128:-0.508075 129:-0.378883 130:-0.630873 131:-1 132:-0.100704 
0 0 0 0 0 0.5550605254968205 0 0 0 1:-1 2:-0.919785 3:-0.975488 4:-1 5:-0.971915 6:-1 7:-0.78831 8:-1 9:-0.828448 10:-1 11:-1 12:-1 13:-0.523247 14:-0.836944 15:-0.404019 16:0.00556799 17:-0.93808 18:-0.954592 19:-0.382344 20:-0.640864 21:-0.647942 22:0.37268 23:-1 24:-1 25:-1 26:-0.97513 27:-1 28:-0.906716 29:-0.162743 30:-0.990428 31:-1 32:-1 33:-0.12447 34:-1 35:-1 36:-1 37:-0.918619 38:-0.255418 39:-0.7936 40:-0.924392 41:-0.593097 42:-0.56347 43:-0.87616 44:-0.180534 45:-0.493273 46:-1 47:-0.863927 48:-1 49:-1 50:-0.891573 51:-1 52:-1 53:-0.441616 54:-1 55:-1 56:-1 57:-0.550829 58:-0.851392 59:-0.809596 60:-0.892966 61:-0.895975 62:-0.91685 63:-0.747079 64:-0.299178 65:-0.780184 66:-0.33445 67:-0.877823 68:-1 69:-0.891688 70:-1 71:-1 72:-1 73:-0.973109 74:-1 75:-0.573293 76:-1 77:-0.190318 78:-1 79:-1 80:-0.638679 81:-0.656344 82:-0.83876 83:-0.794117 84:-0.621962 85:-0.625382 86:-0.587612 87:-0.59921 88:-0.126928 89:0.26721 90:-1 91:-1 92:-1 93:-1 94:-0.547775 95:-1 96:-1 97:-1 98:-1 99:-0.721701 100:-0.9095 101:-1 102:-0.636924 103:-0.409104 104:-0.0614232 105:-0.402467 106:-0.710138 107:-0.711834 108:-0.0897891 109:-0.633786 110:-0.160755 111:-0.849305 112:-1 113:-1 114:-1 115:-1 116:-1 117:-1 118:-1 119:-1 120:-1 121:-0.2545 122:-1 123:-1 124:-1 125:-0.371275 126:-0.906432 127:-1 128:-0.959133 129:-0.484 130:-0.816009 131:-1 132:-0.584123 
0.3807760607293677 0.2225513891121264 0 0 0.2504097783910937 0.2764168012932833 0 0.6504406610749029 0 1:-1 2:-0.62977 3:-1 4:-1 5:-1 6:-1 7:0.833866 8:-1 9:-1 10:-0.975166 11:-1 12:-1 13:-0.907094 14:-0.406909 15:-0.653153 16:-0.111708 17:-0.72972 18:-0.471473 19:-0.550657 20:-0.320716 21:-1 22:0.108363 23:-1 24:-0.981104 25:-1 26:-1 27:-1 28:-0.9822 29:-0.919149 30:-1 31:-1 32:0.0454625 33:-1 34:-1 35:-1 36:-1 37:-0.940791 38:-0.707207 39:-0.84985 40:-0.944992 41:-1 42:-0.969752 43:-1 44:-0.866235 45:-1 46:-0.725952 47:-0.207883 48:-1 49:-1 50:-1 51:-1 52:-0.58112 53:-0.963658 54:-1 55:-1 56:-0.847887 57:-1 58:-0.459461 59:-0.445947 60:-0.454945 61:-0.848632 62:-0.697548 63:-0.0187076 64:-0.456184 65:-0.573574 66:0.468678 67:-1 68:-1 69:0.549371 70:-1 71:-1 72:-1 73:-1 74:-1 75:-0.875205 76:-0.89714 77:-1 78:-1 79:-1 80:-0.540005 81:-1 82:-0.843603 83:-0.500743 84:-0.449976 85:-0.922128 86:0.100011 87:-0.416874 88:0.296762 89:-0.908897 90:-1 91:-1 92:-1 93:-1 94:-1 95:-1 96:-1 97:-0.487608 98:-1 99:-1 100:-0.119839 101:-1 102:-0.894349 103:-1 104:-0.620665 105:-0.652249 106:-1 107:-1 108:-0.873874 109:-0.644787 110:-0.809078 111:-0.85096 112:-1 113:-1 114:-1 115:-1 116:-1 117:-1 118:-1 119:0.48608 120:-1 121:-0.787789 122:-1 123:-1 124:-0.739432 125:0.219678 126:-0.523517 127:-1 128:-0.702696 129:-0.24925 130:-0.263826 131:-1 132:0.166389 
0.2990596321443013 0.347437981700654 0.1669109551670371 0.6711719380730818 1.033034767417925 1.010066081211575 0.530805596628213 0 0 1:-1 2:-1 3:-1 4:-0.165376 5:-1 6:-1 7:-1 8:-0.567317 9:-1 10:-0.96719 11:-1 12:-1 13:-0.711751 14:-0.74516 15:0.117752 16:-0.251615 17:-0.87096 18:-0.810757 19:0.287116 20:-0.476133 21:-0.816579 22:0.455946 23:-1 24:-1 25:-1 26:-1 27:-1 28:-0.991183 29:-1 30:-0.553051 31:-1 32:-0.391363 33:-1 34:-1 35:-1 36:-1 37:-0.915202 38:-0.748385 39:0.39785 40:-1 41:-0.915202 42:-0.78341 43:-0.2258 44:0.0260733 45:-1 46:-1 47:-1 48:0.583618 49:-1 50:-1 51:-0.315987 52:-0.8393 53:-0.948542 54:-1 55:0.142857 56:-0.92219 57:-1 58:-0.458069 59:-0.867734 60:-0.665434 61:0.734191 62:-0.74009 63:-0.64864 64:-0.513197 65:-0.23656 66:0.254687 67:-1 68:-1 69:-1 70:-1 71:-1 72:-1 73:-1 74:-0.419745 75:-1 76:-0.995571 77:0.208865 78:-1 79:-1 80:-1 81:-1 82:-1 83:-0.856981 84:-1 85:-0.888472 86:-0.283872 87:-0.164827 88:-0.710936 89:-1 90:-1 91:-1 92:-1 93:-1 94:-1 95:-1 96:-1 97:-0.290661 98:-1 99:-0.0650124 100:-0.818886 101:-1 102:-0.546038 103:-0.230413 104:-0.456707 105:-1 106:-0.309677 107:-0.279398 108:-0.548388 109:-0.491252 110:-0.101055 111:-1 112:-1 113:-1 114:-1 115:-1 116:-1 117:-1 118:-1 119:-1 120:-1 121:-0.0492571 122:-1 123:-1 124:-1 125:-1 126:-1 127:-1 128:-1 129:-1 130:-1 131:-1 132:-1 
0 0.3759450659543645 0 0 0 0 0 0 0 1:-1 2:-1 3:-1 4:-0.841202 5:-1 6:-1 7:-0.765437 8:-1 9:-0.921436 10:-0.970731 11:-1 12:-1 13:-0.481058 14:-0.757668 15:0.0628898 16:-0.430673 17:-0.7546 18:-0.640081 19:0.0199501 20:-0.64417 21:-0.476774 22:0.411826 23:-1 24:-1 25:-1 26:-0.805088 27:-1 28:-1 29:-0.957647 30:-0.32538 31:-1 32:-0.547626 33:-0.724847 34:-1 35:-1 36:-1 37:-1 38:-0.720857 39:-0.07975 40:-0.925088 41:-0.919369 42:-0.588078 43:-0.2638 44:-0.149502 45:-1 46:-1 47:-0.984698 48:-1 49:-1 50:-1 51:0.273213 52:-1 53:-0.932686 54:-1 55:-1 56:-0.953737 57:-0.96028 58:-0.337421 59:-0.748465 60:0.060483 61:-0.175459 62:-0.752847 63:-0.164692 64:-0.259338 65:-0.274025 66:0.710177 67:-1 68:-1 69:-1 70:-1 71:-1 72:-1 73:-0.905583 74:-1 75:-1 76:-1 77:0.463621 78:-1 79:-1 80:-1 81:-1 82:-1 83:-0.864008 84:-0.775265 85:-1 86:-1 87:-1 88:-0.899056 89:-0.964204 90:-1 91:-1 92:-1 93:-1 94:-1 95:-1 96:-1 97:0.00650491 98:-1 99:-0.534561 100:-0.846154 101:-1 102:-0.640267 103:0.170913 104:-0.586695 105:-0.763187 106:-0.917945 107:-0.200562 108:-0.57055 109:-0.637158 110:-0.222033 111:-1 112:-1 113:-1 114:-1 115:-1 116:-1 117:-1 118:-1 119:-1 120:-1 121:-0.164015 122:-1 123:-1 124:-1 125:-1 126:-1 127:-1 128:-0.676072 129:-0.7955 130:-1 131:-1 132:-0.852965 
0.158655512288604 0.4390742022230265 1.81399058860298 0.1725049999550644 0.3688720911050584 1.283347827759969 0 0.7221003283816593 0 1:-1 2:-1 3:-1 4:-1 5:-1 6:-0.994426 7:-1 8:-0.989346 9:-1 10:-1 11:0.214903 12:-1 13:-0.279146 14:-0.707411 15:-0.358339 16:-0.420001 17:-0.88888 18:-0.837039 19:-0.261114 20:-0.677776 21:-0.842051 22:0.0625987 23:-1 24:-1 25:-1 26:-1 27:-1 28:-0.994351 29:-1 30:-1 31:-1 32:-0.995356 33:-0.090663 34:-1 35:-0.499905 36:-1 37:-0.634918 38:-0.205556 39:-0.814817 40:-0.932158 41:-0.488888 42:-0.142061 43:-1 44:0.555255 45:-1 46:-1 47:-1 48:-1 49:-1 50:-1 51:-0.8412 52:-1 53:-0.884591 54:-1 55:0.794178 56:-1 57:-0.350801 58:-0.466673 59:-0.886102 60:-1 61:-0.253343 62:-0.328571 63:-0.848705 64:-1 65:-0.342587 66:-0.251112 67:-1 68:-1 69:-1 70:-1 71:-1 72:-1 73:-1 74:-1 75:-1 76:-1 77:0.472126 78:-1 79:-1 80:-1 81:-1 82:-1 83:-1 84:-1 85:-1 86:-1 87:-1 88:-1 89:-0.980719 90:-1 91:-1 92:-1 93:-1 94:-0.38362 95:-1 96:-1 97:-0.963844 98:-1 99:0.247006 100:-0.969212 101:-0.796666 102:-0.348481 103:0.45794 104:-0.719293 105:-0.356648 106:-0.108331 107:-0.172658 108:-0.222215 109:-0.671421 110:0.331313 111:-1 112:-1 113:-1 114:-1 115:-1 116:-1 117:-1 118:-1 119:-1 120:-1 121:-0.113865 122:-1 123:-1 124:-1 125:-1 126:-1 127:-1 128:-1 129:-1 130:-1 131:-1 132:-1 
0 0.08889726259104615 0 1.916637782167081 0 1.208832957505736 0 0 0 1:-1 2:-1 3:-1 4:-0.987248 5:-1 6:-1 7:-0.36474 8:-1 9:-0.97756 10:-1 11:-1 12:-1 13:-0.378934 14:-0.864265 15:-0.206187 16:-0.342269 17:-0.79382 18:-0.924394 19:0.199734 20:-0.76082 21:-0.706931 22:0.0241774 23:-1 24:-1 25:-1 26:-1 27:-1 28:-1 29:-0.489726 30:-1 31:-1 32:-0.991692 33:-0.00392112 34:-1 35:-0.766618 36:-1 37:-0.796759 38:-0.363402 39:-0.914083 40:-1 41:-0.593518 42:-0.411633 43:-0.8969 44:0.0452607 45:-1 46:-1 47:-1 48:-1 49:-1 50:-1 51:-0.946973 52:-1 53:-0.0955418 54:-1 55:-1 56:-1 57:-0.65967 58:-1 59:-1 60:-0.465385 61:-0.480411 62:-1 63:-1 64:-0.377696 65:-0.146059 66:-0.420145 67:-1 68:-1 69:-1 70:-1 71:-1 72:-1 73:-0.881291 74:-1 75:-0.855077 76:-1 77:0.0325075 78:-1 79:-1 80:-0.774408 81:-0.427822 82:-0.642053 83:-0.542948 84:-0.622353 85:-0.732693 86:-0.656699 87:-0.666365 88:-0.199575 89:-0.946339 90:-1 91:-1 92:-1 93:-1 94:-0.936627 95:-1 96:-1 97:-0.30392 98:-1 99:-0.567973 100:-0.980229 101:-0.740188 102:-0.697754 103:0.352729 104:-0.131857 105:-0.602069 106:-1 107:-0.232357 108:-0.134015 109:-0.796765 110:0.144602 111:-1 112:-1 113:-1 114:-1 115:-1 116:-1 117:-1 118:-1 119:-1 120:-1 121:-0.21179 122:-1 123:-1 124:-1 125:-1 126:-1 127:-1 128:-0.931954 129:-0.484533 130:-1 131:-1 132:-0.720432 
0 0 0 0 0 0.0838732684871691 0 0 0 1:-1 2:-1 3:-1 4:-1 5:-1 6:-1 7:0.00819587 8:-1 9:-0.935682 10:-1 11:-1 12:-0.962383 13:-0.6726 14:-0.545975 15:-0.004312 16:1 17:-1 18:-1 19:0.146567 20:1 21:-1 22:0.0850409 23:-1 24:-1 25:-0.980488 26:-0.978236 27:-1 28:-0.987113 29:0.417162 30:-1 31:-1 32:-0.994708 33:-0.650844 34:-1 35:-0.752227 36:-1 37:-0.320199 38:0.00861901 39:-0.425283 40:-0.578944 41:-0.320199 42:0.273399 43:-0.65518 44:-0.290374 45:-0.961447 46:-0.972639 47:-0.793251 48:-1 49:-1 50:-1 51:-0.927613 52:-0.765326 53:-0.924851 54:-1 55:-1 56:-0.339527 57:-1 58:-1 59:-1 60:-1 61:-1 62:-1 63:-1 64:-1 65:-1 66:0.153213 67:-1 68:-1 69:-0.842077 70:-1 71:-1 72:-1 73:-0.606792 74:-1 75:-0.735095 76:-1 77:-0.616568 78:-1 79:-1 80:-1 81:-1 82:-1 83:-1 84:-1 85:-1 86:-1 87:-1 88:0.0602478 89:-0.985347 90:-1 91:-1 92:-1 93:-1 94:-1 95:-1 96:-1 97:-0.788113 98:-1 99:-1 100:0.0741712 101:-1 102:-1 103:-1 104:-1 105:-1 106:-1 107:-1 108:-1 109:-1 110:-0.944931 111:-0.748328 112:-1 113:-1 114:-1 115:-1 116:-1 117:-0.962098 118:-1 119:0.0933432 120:-1 121:-0.764388 122:-0.977954 123:-1 124:-1 125:-1 126:-1 127:-1 128:-1 129:-1 130:-1 131:-1 132:0.234459 
1.795641020276945 1.635487636924785 6.054453262297927 2.054923478756228 1.136301138348874 4.006791871825124 0.7372192847449074 5.34770678340613 5.040096523374834 1:-1 2:-1 3:-1 4:-1 5:-1 6:-1 7:-1 8:-1 9:-1 10:-1 11:-1 12:-1 13:0.0740195 14:-0.811901 15:-0.450008 16:-0.668577 17:-1 18:-1 19:-1 20:-1 21:-1 22:-0.722118 23:-1 24:-1 25:-1 26:-1 27:-1 28:-1 29:-1 30:-1 31:-1 32:-1 33:-0.384872 34:-1 35:-0.548936 36:-1 37:-0.436737 38:-0.25714 39:-1 40:-0.82556 41:0.126526 42:-0.712246 43:-1 44:0.328023 45:-1 46:-1 47:-1 48:-1 49:-1 50:-1 51:-0.78436 52:-1 53:-1 54:-1 55:-0.274935 56:-1 57:-0.858732 58:-0.314285 59:-0.121432 60:0.234706 61:-1 62:-0.808159 63:0.556055 64:-0.784411 65:-1 66:0.994022 67:-1 68:-1 69:-1 70:-1 71:-1 72:-1 73:-1 74:-1 75:-1 76:-1 77:0.586441 78:-1 79:-1 80:-1 81:-1 82:-1 83:-1 84:-1 85:-0.506128 86:-0.68285 87:-1 88:-0.872847 89:-1 90:-1 91:-1 92:-1 93:-1 94:-1 95:-0.448199 96:-1 97:-1 98:-1 99:-0.211722 100:-0.611398 101:-1 102:0.172725 103:-1 104:-1 105:0.654295 106:-0.235714 107:-0.734061 108:0.199997 109:-0.436742 110:0.1734 111:-1 112:-1 113:-1 114:-1 115:-1 116:-1 117:-1 118:-1 119:-1 120:-1 121:0.128032 122:-1 123:-1 124:-1 125:-1 126:-1 127:-1 128:-1 129:-1 130:-1 131:-1 132:-1 
1.63856180837641 0.4922352644343442 0.5539783549995534 1.867224581914595 0 1.385460917424367 0 0.5076781361302694 0.1821745487697596 1:-1 2:-1 3:-1 4:-0.157967 5:-1 6:-1 7:0.309652 8:-1 9:-1 10:-0.84193 11:-1 12:-1 13:-0.970503 14:-0.157335 15:-0.692 16:-0.304001 17:-0.52 18:-0.354668 19:-0.467997 20:-0.489601 21:-0.431431 22:0.611944 23:-1 24:-1 25:-1 26:-0.91555 27:-1 28:-1 29:-0.404565 30:-1 31:-1 32:-0.388088 33:-1 34:-1 35:-1 36:-1 37:-1 38:-0.844 39:-0.6 40:-1 41:-0.947429 42:-0.731428 43:-0.84 44:-0.529507 45:-1 46:-0.559395 47:-1 48:-1 49:-1 50:-1 51:0.24736 52:-1 53:-1 54:-1 55:-1 56:-0.848403 57:-1 58:-0.232002 59:-0.754 60:-0.377712 61:-0.059203 62:-0.301713 63:-0.891076 64:-0.939636 65:-0.432 66:0.214783 67:-1 68:-0.930445 69:-1 70:-1 71:-1 72:-1 73:-0.651734 74:-0.79349 75:-1 76:-0.525187 77:-1 78:-1 79:-1 80:-1 81:-0.556 82:-0.513918 83:-0.29067 84:-0.902316 85:-0.792571 86:-0.289599 87:-0.482184 88:-0.193868 89:-1 90:-1 91:-1 92:-1 93:-1 94:-1 95:-1 96:-0.959036 97:-1 98:-1 99:-1 100:-0.0216381 101:-1 102:-1 103:-1 104:-1 105:-1 106:-1 107:-0.851077 108:-0.495999 109:-0.763428 110:-0.785413 111:-1 112:-1 113:-1 114:-1 115:-1 116:-1 117:-1 118:-0.750107 119:-0.721745 120:-0.954974 121:-0.990204 122:0.300298 123:-1 124:-0.190155 125:-0.593847 126:-1 127:-0.706001 128:-0.155199 129:-0.866667 130:-0.762285 131:-0.568891 132:-0.0846453 
0 0 0.8630741790758621 0 0 0 0 0 0 1:-1 2:-1 3:-1 4:-0.958263 5:-1 6:-0.927444 7:-0.765172 8:-0.944535 9:-1 10:-1 11:0.579827 12:-1 13:-0.43285 14:-0.526949 15:-0.308385 16:-0.305393 17:-0.64072 18:-0.824352 19:-0.00448878 20:-0.652696 21:-0.489311 22:0.121063 23:-1 24:-1 25:-1 26:-1 27:-1 28:-1 29:-1 30:-0.985665 31:-1 32:-0.990942 33:-0.0230807 34:-1 35:-0.698373 36:-1 37:-0.685202 38:-0.338325 39:-0.8004 40:-0.926883 41:-0.370405 42:-0.396922 43:-0.88024 44:0.400705 45:-1 46:-1 47:-1 48:-1 49:-1 50:-1 51:-0.5126 52:-1 53:-0.849917 54:-1 55:1 56:-1 57:-0.675273 58:-0.353297 59:-1 60:-1 61:0.00598078 62:-0.276307 63:-1 64:-1 65:-0.29142 66:-0.00348794 67:-1 68:-1 69:-1 70:-1 71:-1 72:-1 73:-1 74:-1 75:-1 76:-1 77:0.531593 78:-1 79:-1 80:-1 81:-1 82:-1 83:-1 84:-1 85:-1 86:-1 87:-1 88:-1 89:-0.874599 90:-1 91:-1 92:-1 93:-1 94:-0.958532 95:-0.891295 96:-1 97:-0.738026 98:-1 99:0.00564435 100:-0.926075 101:-0.779645 102:-0.22755 103:-0.571429 104:-0.596598 105:0.386833 106:-0.279196 107:-0.554124 108:-0.329343 109:-0.291703 110:0.238423 111:-1 112:-1 113:-1 114:-1 115:-1 116:-1 117:-1 118:-1 119:-1 120:-1 121:-0.0780677 122:-1 123:-1 124:-1 125:-1 126:-1 127:-1 128:-1 129:-1 130:-1 131:-1 132:-1 
0 0 0 0 0 0 6.815670875312922 0 0 1:-1 2:-1 3:-1 4:-0.821805 5:-1 6:-1 7:-0.899736 8:-1 9:-0.934704 10:-1 11:-1 12:-1 13:-0.237895 14:-0.457047 15:-0.702318 16:-0.282471 17:-0.8969 18:-0.848802 19:-0.657224 20:-0.940202 21:-0.706931 22:-0.221047 23:-1 24:-1 25:-1 26:-0.549354 27:-1 28:-1 29:-0.493151 30:-1 31:-1 32:-0.684174 33:-1 34:-1 35:-0.919508 36:-1 37:-0.932249 38:-0.530927 39:-0.398633 40:-0.811176 41:-0.86451 42:-0.550075 43:-0.79382 44:-0.0561057 45:-1 46:-1 47:-0.977099 48:-1 49:-1 50:-1 51:-1 52:-1 53:-0.295076 54:-1 55:-1 56:-1 57:-0.168091 58:-0.690725 59:-1 60:-1 61:-1 62:-1 63:-0.859625 64:-0.68884 65:-0.512017 66:-0.427781 67:-1 68:-1 69:-0.807607 70:-1 71:-1 72:-1 73:-0.803477 74:-1 75:-0.178525 76:-0.921141 77:-1 78:-1 79:-1 80:-0.924798 81:-1 82:-0.731544 83:-0.0859176 84:-0.622353 85:-0.910892 86:-0.198979 87:0.000938542 88:0.106197 89:-0.321788 90:-1 91:-1 92:-1 93:-1 94:-0.911487 95:-1 96:-0.985712 97:-0.526757 98:-1 99:-1 100:-0.644896 101:-0.758052 102:-0.758196 103:-1 104:0.128589 105:-0.204099 106:-1 107:-0.904038 108:-0.422681 109:-0.288667 110:-0.411072 111:-0.386805 112:-1 113:-1 114:-1 115:-1 116:-1 117:-1 118:-1 119:-0.213916 120:-1 121:-0.738592 122:-1 123:-1 124:-0.925451 125:0.221235 126:-0.532644 127:-1 128:-0.59175 129:-0.312717 130:-0.310745 131:-0.888882 132:0.103696 
0 0.8260443500660897 0 0 0 0 1.503061547610859 0 0 1:-1 2:-1 3:-1 4:-1 5:-1 6:-1 7:-1 8:-1 9:-0.974648 10:-1 11:-1 12:-1 13:-0.225499 14:-0.628055 15:-0.673731 16:-0.475704 17:-1 18:-1 19:-0.812136 20:-0.737852 21:-0.678787 22:0.0253543 23:-1 24:-1 25:-1 26:-1 27:-1 28:-1 29:-0.0158061 30:-1 31:-1 32:-1 33:-0.484881 34:-1 35:-0.765553 36:-1 37:-0.777242 38:-0.338982 39:-0.529183 40:-0.862033 41:-0.480227 42:-0.544791 43:-1 44:-0.0492716 45:-1 46:-1 47:-0.925896 48:-1 49:-1 50:-1 51:-1 52:-1 53:-0.217823 54:-1 55:-1 56:-1 57:-0.192305 58:-1 59:-1 60:-1 61:-1 62:-1 63:-1 64:-0.829488 65:-0.866283 66:-0.963694 67:-1 68:-1 69:-0.98755 70:-1 71:-1 72:-1 73:-0.948325 74:-1 75:-0.116988 76:-1 77:-0.559072 78:-1 79:-1 80:-0.423065 81:-0.843212 82:-0.803849 83:-0.624299 84:-0.241152 85:-1 86:-0.623732 87:0.0970582 88:0.0988959 89:-0.63034 90:-0.929484 91:-1 92:-1 93:-1 94:-0.923599 95:-1 96:-1 97:-0.443071 98:-1 99:-0.83725 100:-0.991489 101:-0.451903 102:-0.734976 103:-0.191287 104:0.332143 105:-0.781908 106:-0.924431 107:-0.579311 108:0.186445 109:-0.888614 110:-0.0709449 111:-0.971656 112:-1 113:-1 114:-1 115:-1 116:-1 117:-1 118:-1 119:-0.533606 120:-1 121:-0.432684 122:-1 123:-1 124:-0.918292 125:0.338546 126:-0.914622 127:-1 128:-0.850853 129:-0.0583833 130:-0.664242 131:-1 132:-0.0958507 
0 0.3580725224619823 0 0 0 0 0 0 0 1:-1 2:-1 3:-0.880847 4:-1 5:-0.986339 6:-1 7:-0.64935 8:-1 9:-0.849091 10:-1 11:-1 12:-1 13:-0.588465 14:-0.517456 15:-0.294506 16:-0.392671 17:-0.68586 18:-0.616057 19:0.044522 20:-0.574872 21:-0.553474 22:0.33873 23:-1 24:-1 25:-1 26:-1 27:-1 28:-1 29:-0.41236 30:-1 31:-1 32:-0.99216 33:0.176699 34:-1 35:-0.951045 36:-1 37:-0.931184 38:-0.489528 39:-0.912733 40:-1 41:-0.724762 42:-0.507856 43:-1 44:-0.273091 45:-1 46:-1 47:-0.930362 48:-1 49:-1 50:-1 51:-0.74256 52:-1 53:-0.515581 54:-1 55:-1 56:-1 57:-0.734969 58:-0.560213 59:-0.141358 60:-0.638001 61:-0.472246 62:-0.507856 63:-0.28715 64:-0.683966 65:-0.876081 66:0.332679 67:-1 68:-1 69:-1 70:-1 71:-1 72:-1 73:-0.682507 74:-1 75:-1 76:-1 77:0.0653939 78:-1 79:-1 80:-1 81:-1 82:-0.909103 83:-0.767894 84:-1 85:-1 86:-1 87:-1 88:-0.928435 89:-0.869741 90:-1 91:1 92:-1 93:-1 94:-1 95:-1 96:-1 97:-0.30224 98:-1 99:-0.941173 100:-0.768028 101:-0.99182 102:-0.8158 103:-0.250549 104:-0.382754 105:-0.595816 106:-1 107:-0.415216 108:-0.267015 109:-0.483918 110:-0.166878 111:-1 112:-1 113:-0.890616 114:-1 115:-1 116:-1 117:-0.929789 118:-1 119:-0.880467 120:-1 121:-0.282985 122:-1 123:-1 124:-0.545706 125:-0.645597 126:-1 127:-0.743462 128:-0.447117 129:-0.650967 130:-0.766638 131:-0.774293 132:-0.323381 
0 0 0 0 0 0 0.05228018590688973 0 0 1:-1 2:-1 3:-1 4:-1 5:-0.645327 6:-1 7:-1 8:-1 9:-1 10:-1 11:-1 12:-1 13:-0.333418 14:-0.832626 15:0.0603873 16:-0.508474 17:-1 18:-1 19:-0.295561 20:-0.803392 21:-0.879549 22:-0.0795435 23:-1 24:-1 25:-1 26:-0.967775 27:-1 28:-0.980918 29:0.15508 30:-1 31:-1 32:-0.73756 33:-1 34:-1 35:-0.889934 36:-1 37:-0.777242 38:-0.697035 39:-0.435033 40:-0.84478 41:-0.498784 42:-0.829296 43:-0.8305 44:-0.1621 45:-1 46:-1 47:-0.819112 48:-1 49:-0.959708 50:-1 51:-1 52:-1 53:-0.0430663 54:-1 55:-1 56:-0.931648 57:-0.987961 58:-0.745769 59:-0.652546 60:-0.92676 61:-1 62:-1 63:-0.538464 64:-0.296612 65:-0.799425 66:-0.152254 67:-1 68:-1 69:-0.871398 70:-1 71:-1 72:-1 73:-0.779798 74:-1 75:-0.313567 76:-0.707676 77:-1 78:-1 79:-1 80:-0.876365 81:-1 82:-0.705764 83:-0.248598 84:-0.586087 85:-1 86:-0.52967 87:0.0970582 88:-0.0372787 89:-0.0672208 90:-1 91:-1 92:-1 93:-1 94:-1 95:-1 96:-1 97:-0.503242 98:-1 99:-1 100:-0.456499 101:-1 102:-0.900612 103:-0.898917 104:-0.286349 105:0.308475 106:-1 107:-1 108:-0.466095 109:-0.248174 110:-0.674319 111:0.197798 112:-1 113:-1 114:-1 115:-1 116:-1 117:-1 118:-0.959436 119:-0.469209 120:-0.906296 121:-0.937702 122:-0.951046 123:-1 124:-0.63233 125:-0.569748 126:-0.295671 127:-0.792363 128:-0.384747 129:-0.6469 130:-0.244557 131:-0.451974 132:0.28976 
0 0.7520632927857719 0 0.1518989568982736 0 0 2.261083896400837 0 0 1:-1 2:-0.887019 3:-1 4:-0.952022 5:-1 6:-1 7:-0.716565 8:-1 9:-1 10:-1 11:-1 12:-1 13:-0.270547 14:-0.382814 15:-0.473627 16:-0.86406 17:-0.92188 18:-0.48438 19:-0.610341 20:-0.95469 21:-0.888958 22:-0.0761938 23:-1 24:-0.827715 25:-1 26:-1 27:-0.911246 28:-1 29:-0.483164 30:-1 31:-1 32:-0.510647 33:-1 34:-1 35:-1 36:-1 37:-0.897328 38:-0.466798 39:-0.674483 40:-0.856905 41:-0.794643 42:-0.816404 43:-0.92188 44:-0.0942353 45:-1 46:-1 47:-0.9852 48:-1 49:-1 50:-1 51:-1 52:-1 53:-0.532683 54:-1 55:-1 56:-1 57:-0.104098 58:-0.906256 59:-1 60:-0.662391 61:-1 62:-1 63:-0.893636 64:-0.705259 65:-0.72265 66:-0.616372 67:-1 68:-1 69:-0.738943 70:-1 71:-1 72:-1 73:-1 74:-1 75:0.298563 76:-0.895548 77:-0.99371 78:-1 79:-1 80:-0.259196 81:-0.891608 82:-1 83:-0.567065 84:-0.33223 85:-0.72991 86:-0.0460872 87:-0.241464 88:0.184023 89:-0.682867 90:-1 91:-1 92:-1 93:-1 94:-0.742625 95:-1 96:-0.995388 97:-0.490351 98:-1 99:-1 100:-0.857658 101:-0.318216 102:-1 103:-0.813627 104:0.0526316 105:-0.095285 106:-1 107:-0.927288 108:-0.234367 109:-0.383927 110:-0.395686 111:-0.568411 112:-1 113:-1 114:-1 115:-1 116:-1 117:-1 118:-0.994613 119:0.340382 120:-1 121:-0.779753 122:-1 123:-1 124:-0.548077 125:0.322096 126:-0.468754 127:-1 128:-0.53594 129:-0.21875 130:-0.419649 131:-0.915804 132:0.0793653 
0.03188267576825888 1.013503730388579 0.6806419181329938 0.01712774446043994 0.9331328763842542 0.5728605003480546 0.4010174468369116 0.2503379786399335 0 1:0.0650081 2:-1 3:-0.864999 4:-0.22532 5:-1 6:-0.992377 7:-0.592879 8:-1 9:-0.807183 10:-0.971272 11:-1 12:-1 13:-0.624903 14:-0.824449 15:0.283341 16:0.0826615 17:-0.46666 18:-1 19:0.330008 20:0.0826615 21:0.137139 22:-0.229582 23:-0.472027 24:-1 25:-0.96491 26:-0.217187 27:-1 28:-0.992275 29:-0.594621 30:-0.894638 31:-0.864431 32:-0.68911 33:-0.810904 34:-1 35:-1 36:-0.253337 37:-0.824766 38:-0.219999 39:1 40:-0.348776 41:-0.474286 42:-0.104763 43:0.86666 44:-0.395445 45:-0.976889 46:-0.975398 47:-0.560485 48:-1 49:-1 50:-1 51:-0.609373 52:-1 53:-1 54:-1 55:-1 56:-0.995742 57:-0.86839 58:-1 59:-1 60:-1 61:-1 62:-1 63:-1 64:-1 65:-1 66:0.720599 67:-0.992606 68:-0.988062 69:-0.753807 70:-1 71:-1 72:-1 73:-0.628209 74:-1 75:-1 76:-1 77:-0.396487 78:-1 79:-1 80:-1 81:-1 82:-1 83:-1 84:-1 85:-1 86:-1 87:-1 88:-0.398109 89:-0.218191 90:-1 91:0.0155009 92:-1 93:-1 94:-1 95:-1 96:-1 97:-0.80237 98:-1 99:-1 100:-0.459487 101:-1 102:-1 103:-1 104:-1 105:-1 106:-1 107:-1 108:-1 109:-1 110:-0.572746 111:-0.407169 112:-1 113:-0.734438 114:-1 115:-1 116:-1 117:-0.994319 118:-1 119:-0.871041 120:-1 121:-0.621583 122:-1 123:-1 124:-1 125:-1 126:-1 127:-1 128:-1 129:-1 130:-1 131:-1 132:0.089248 
0 0 0 0 0 0 7.2400936577319 0 0 1:-1 2:-0.832132 3:-1 4:-1 5:-1 6:-1 7:0.0570679 8:-1 9:-1 10:-1 11:-1 12:-0.984281 13:-0.663004 14:-0.734903 15:0.0335528 16:-0.455033 17:-0.86578 18:-0.901572 19:0.562095 20:-0.844293 21:-0.809217 22:0.124448 23:-1 24:-1 25:-1 26:-1 27:-1 28:-1 29:-0.283169 30:-1 31:-1 32:-0.303897 33:-1 34:-1 35:-1 36:-1 37:-1 38:-0.869129 39:-0.776283 40:-0.918055 41:-0.823584 42:-0.864814 43:-1 44:-0.715216 45:-1 46:-1 47:-1 48:-1 49:-1 50:-1 51:-1 52:-1 53:0.0263865 54:-1 55:-1 56:-0.884312 57:-1 58:-0.758392 59:-0.862425 60:-0.303936 61:-1 62:-1 63:-1 64:0.0128122 65:-0.841173 66:-0.199247 67:-1 68:-1 69:-1 70:-1 71:-1 72:-1 73:-0.987367 74:-1 75:-0.0946968 76:-0.65934 77:-1 78:-1 79:-1 80:-0.706281 81:-1 82:-0.650473 83:0.190145 84:-0.590251 85:-1 86:-0.404018 87:0.303214 88:0.129897 89:-0.37584 90:-1 91:-1 92:-1 93:-1 94:-1 95:-1 96:-1 97:0.239034 98:-1 99:-1 100:-0.79032 101:-1 102:-0.842585 103:-0.839894 104:-0.208758 105:0.036265 106:-1 107:-1 108:-0.436247 109:-0.338446 110:-0.432388 111:-0.752219 112:-1 113:-1 114:-1 115:-1 116:-1 117:-1 118:-1 119:0.257728 120:-1 121:-0.741665 122:-1 123:-1 124:-0.514715 125:0.362915 126:-0.695753 127:-1 128:-0.468462 129:-0.10515 130:-0.501437 131:-1 132:0.272912 
0 0.3956854159674238 0 0 0.1709767105967729 0 0 0 0 1:-1 2:-0.826262 3:-0.469149 4:-0.83907 5:-1 6:-1 7:-0.354753 8:-1 9:-1 10:-1 11:-1 12:-1 13:-0.956573 14:-0.330516 15:-0.510588 16:0.0322016 17:-0.74576 18:-0.689273 19:-0.0137656 20:-0.262716 21:-0.879549 22:0.61206 23:-1 24:-1 25:-0.742404 26:-1 27:-1 28:-0.968102 29:-0.388411 30:-1 31:-1 32:-0.528447 33:-1 34:-1 35:-1 36:-1 37:-0.944314 38:-0.669494 39:-0.3644 40:-0.896516 41:-0.944314 42:-0.630143 43:-0.57628 44:-0.113762 45:-1 46:-1 47:-0.286504 48:-1 49:-1 50:-1 51:-1 52:-1 53:0.203123 54:-1 55:-1 56:-1 57:-1 58:-0.847456 59:-1 60:-1 61:-1 62:-1 63:-0.653841 64:-0.93606 65:-0.899724 66:-0.807202 67:-1 68:-1 69:-0.452636 70:-1 71:-1 72:-1 73:-1 74:-1 75:0.58995 76:-0.957268 77:-0.993408 78:-1 79:-1 80:-0.505489 81:-0.764819 82:-1 83:-0.718219 84:-0.430867 85:-0.853503 86:-1 87:-0.17719 88:-0.250042 89:0.559638 90:-1 91:-1 92:-1 93:-1 94:-1 95:-1 96:-1 97:-0.68913 98:-1 99:-1 100:-0.901998 101:-1 102:-0.60247 103:-1 104:-0.357709 105:0.144925 106:-0.773308 107:-1 108:-0.406777 109:-0.582332 110:-0.362913 111:0.320348 112:-1 113:-1 114:-1 115:-1 116:-1 117:-1 118:-1 119:-0.659791 120:-1 121:-0.722221 122:-1 123:-1 124:-0.63233 125:0.147315 126:-0.743882 127:-1 128:-0.608474 129:-0.435033 130:-0.559321 131:-1 132:-0.08832 
0 0 0 0 0 0 0 0.08211887023368981 0 1:-1 2:-1 3:-1 4:-1 5:-1 6:-0.860977 7:-0.735345 8:-1 9:-0.703553 10:-1 11:-1 12:-1 13:-0.64278 14:-0.286539 15:-0.431027 16:-0.657139 17:-0.60592 18:-0.638746 19:-0.344838 20:-0.828575 21:-0.859961 22:0.180493 23:-1 24:-1 25:-1 26:-1 27:-1 28:-0.900557 29:-0.439745 30:-1 31:-1 32:-1 33:0.0503729 34:-1 35:-0.723794 36:-1 37:-0.676278 38:-0.615765 39:-1 40:-0.759404 41:-0.546795 42:-0.636173 43:-1 44:-0.262519 45:-1 46:-1 47:-0.395608 48:-1 49:-1 50:-1 51:-0.86964 52:-0.987428 53:-0.90334 54:-1 55:-1 56:-0.890376 57:-0.926798 58:0.0640379 59:-0.596068 60:-0.91485 61:-0.172401 62:-0.536942 63:-0.463443 64:-0.628295 65:-0.183902 66:0.740737 67:-1 68:-1 69:-1 70:-1 71:-1 72:-1 73:-0.67578 74:-1 75:-1 76:-1 77:0.130284 78:-1 79:-1 80:-1 81:-1 82:-1 83:-0.454015 84:-0.458646 85:-1 86:-1 87:-0.840577 88:-0.672616 89:-0.745595 90:-1 91:-1 92:-1 93:-0.990989 94:-1 95:-1 96:-1 97:-0.379182 98:-1 99:-1 100:-0.340381 101:-1 102:-0.711146 103:-0.529917 104:-0.834072 105:-0.239419 106:-1 107:-0.908301 108:-0.793108 109:-0.514416 110:-0.668838 111:-0.988444 112:-1 113:-1 114:-1 115:-1 116:-1 117:-0.993908 118:-1 119:-0.873187 120:-1 121:-0.320794 122:-1 123:-1 124:-0.430086 125:-0.666548 126:-1 127:-0.879314 128:-0.0896479 129:-0.589483 130:-0.853627 131:-0.787636 132:-0.135136 
0.7582211962938374 1.18781699172498 3.116591627121215 6.304463556619657 0 2.925689756674386 5.155198639279924 0.7947544050001579 0 1:-1 2:-0.811492 3:-1 4:-0.807907 5:-1 6:-1 7:-0.756796 8:-1 9:-1 10:-1 11:-1 12:-1 13:-0.815712 14:-0.337994 15:-0.247209 16:0.231281 17:-0.77654 18:-0.754187 19:-0.256991 20:-0.675978 21:-0.682369 22:0.53563 23:-1 24:-0.973041 25:-1 26:-1 27:-1 28:-1 29:-0.67983 30:-1 31:-1 32:-0.124474 33:-1 34:-1 35:-0.983722 36:-1 37:-0.853155 38:-0.818435 39:-0.348233 40:-0.863572 41:-0.779726 42:-0.887468 43:-1 44:-0.514938 45:-1 46:-1 47:-0.777845 48:-1 49:-1 50:-1 51:-1 52:-0.17166 53:-0.896371 54:-1 55:-1 56:-0.286455 57:-1 58:-0.597761 59:-1 60:-1 61:-1 62:-0.924974 63:-0.23936 64:-0.325541 65:-0.735572 66:-0.332566 67:-1 68:-1 69:-0.48667 70:-1 71:-1 72:-1 73:-1 74:-1 75:-0.146021 76:-0.693953 77:-1 78:-1 79:-1 80:-0.592507 81:-1 82:-1 83:-0.133155 84:-0.454275 85:-1 86:-0.503918 87:0.446422 88:0.00666287 89:-1 90:-1 91:-1 92:-1 93:-1 94:-1 95:-1 96:-1 97:-0.90724 98:-1 99:-1 100:0.228236 101:-1 102:-0.541394 103:-1 104:-0.811823 105:-1 106:-1 107:-1 108:-1 109:-0.889856 110:-0.880901 111:-0.575033 112:-1 113:-1 114:-1 115:-1 116:-1 117:-1 118:-1 119:-0.240824 120:-1 121:-0.813504 122:-0.967429 123:-1 124:-0.676843 125:-0.0545768 126:-0.662327 127:-0.726263 128:-0.262568 129:-0.348233 130:-0.418995 131:-0.638731 132:0.436251 
0 0 0.0215958491621034 0 0.0927969952392538 0.4539398056988612 0 0 0 1:-0.945472 2:-0.365471 3:-1 4:-0.910195 5:-1 6:-0.859478 7:-0.57552 8:-1 9:-0.913123 10:-0.982348 11:-1 12:-1 13:-0.793231 14:-0.268514 15:-0.197909 16:0.61111 17:-0.72222 18:-1 19:-0.0763757 20:0.288886 21:0.184529 22:0.0410468 23:-1 24:-0.798438 25:-1 26:-1 27:-1 28:-0.91456 29:-0.10911 30:-1 31:-1 32:-0.929833 33:-1 34:-1 35:-0.878296 36:-1 37:-0.087308 38:-0.187499 39:0.1574 40:-0.660816 41:-0.087308 42:0.398809 43:-1 44:0.151849 45:-0.2758 46:-0.989922 47:-0.0860387 48:-1 49:-1 50:-1 51:-1 52:-1 53:-0.418631 54:-1 55:-1 56:-1 57:-1 58:-1 59:-1 60:-1 61:-1 62:-1 63:-1 64:-1 65:-1 66:-0.317932 67:-0.536598 68:-1 69:0.978038 70:-1 71:-1 72:-1 73:-1 74:-1 75:-0.520916 76:-1 77:-1 78:-1 79:-1 80:-1 81:-1 82:-1 83:-1 84:-1 85:-1 86:-1 87:-1 88:-0.562368 89:0.360067 90:-1 91:-1 92:-1 93:-1 94:-1 95:-1 96:-1 97:-0.991327 98:-1 99:-1 100:-0.562514 101:-1 102:-1 103:-1 104:-1 105:-1 106:-1 107:-1 108:-1 109:-1 110:-0.373598 111:1 112:-1 113:-1 114:-1 115:-1 116:-1 117:-1 118:-1 119:-1 120:-1 121:-0.8047 122:-0.9594 123:-1 124:-1 125:-1 126:-1 127:-1 128:-1 129:-1 130:-1 131:-1 132:0.0573547 
0 0.5758794889220178 0 0.8032937815516434 0.3611212796812434 0.02528506958611735 0.1690487721577617 0 0 1:-1 2:-1 3:-1 4:-0.185919 5:-0.967621 6:-1 7:-1 8:-1 9:-0.987442 10:-1 11:-1 12:-1 13:-0.400569 14:-0.708701 15:-0.488931 16:-0.589384 17:-0.73452 18:-0.9351 19:-0.264372 20:-0.743362 21:-0.874204 22:-0.147192 23:-1 24:-1 25:-1 26:0.325825 27:-0.982388 28:-1 29:-1 30:-0.338142 31:-1 32:-0.789221 33:-1 34:-1 35:-1 36:-0.8761 37:-1 38:-0.511063 39:-0.410033 40:-0.729854 41:-0.941843 42:-0.554359 43:-0.38054 44:0.0806708 45:-1 46:-1 47:-1 48:-0.219841 49:-1 50:-1 51:-1 52:-1 53:-0.546518 54:-1 55:-1 56:-1 57:-0.318913 58:-0.8938 59:-1 60:-0.847021 61:-0.107956 62:-1 63:-1 64:-0.732906 65:-0.162247 66:-0.348052 67:-1 68:-1 69:-1 70:1 71:-1 72:-1 73:-0.870046 74:-0.318795 75:-0.964723 76:-1 77:-0.57411 78:-1 79:-1 80:-0.67725 81:-1 82:-0.615926 83:-0.509587 84:-0.621803 85:-1 86:-0.607082 87:-0.427198 88:-0.323736 89:-1 90:-1 91:-1 92:-1 93:-1 94:-0.957439 95:-1 96:-0.993131 97:-0.110334 98:-1 99:-0.795356 100:-0.987348 101:-0.288941 102:-0.844333 103:-0.577751 104:0.415933 105:-0.658387 106:-1 107:-0.752899 108:0.176995 109:-0.825528 110:-0.16582 111:-1 112:-1 113:-1 114:-1 115:-1 116:-1 117:-0.983348 118:-1 119:-0.453939 120:-1 121:-0.383747 122:-1 123:-1 124:-0.872016 125:-0.550727 126:-0.665682 127:-0.783176 128:-0.766373 129:-0.557517 130:-0.539828 131:-0.61849 132:-0.126528 
0 0.626226247512391 0.7979103297843598 0 0.7670428275424462 0 0 0.5843942477957441 2.142374310418643 1:-1 2:-1 3:-1 4:-1 5:-1 6:-1 7:-0.978245 8:-1 9:-1 10:-1 11:-1 12:-1 13:0.00149961 14:-0.707411 15:-0.287037 16:-0.570371 17:-1 18:-1 19:-0.507398 20:-1 21:-1 22:-0.413727 23:-1 24:-1 25:-1 26:-1 27:-1 28:-1 29:-0.945014 30:-0.57527 31:-1 32:-0.888113 33:-0.523615 34:-1 35:-0.877734 36:-1 37:-0.805289 38:-0.422221 39:-0.382717 40:-0.819101 41:-0.610577 42:-0.303701 43:-0.7037 44:0.281909 45:-0.959246 46:-1 47:-1 48:-1 49:-1 50:-0.914025 51:-0.556067 52:-1 53:-1 54:-1 55:-1 56:-1 57:-0.346698 58:-0.111114 59:-0.848157 60:-0.615875 61:-0.253343 62:-0.104756 63:-0.798301 64:-1 65:-0.824701 66:0.233968 67:-1 68:-1 69:-1 70:-1 71:-1 72:-1 73:-0.882731 74:-1 75:-1 76:-1 77:0.67246 78:-1 79:-1 80:-1 81:-1 82:-1 83:-1 84:-1 85:-1 86:-1 87:-1 88:-1 89:-0.84509 90:-1 91:-1 92:-1 93:-0.955538 94:-0.743896 95:-1 96:-1 97:-1 98:-1 99:-0.81533 100:-0.891553 101:-0.976669 102:-0.131316 103:-0.646555 104:-0.500968 105:0.143728 106:-0.504631 107:-0.724213 108:0.348145 109:-0.123816 110:0.545197 111:-1 112:-1 113:-1 114:-1 115:-1 116:-1 117:-0.91984 118:-1 119:-1 120:-1 121:0.00100556 122:-1 123:-1 124:-1 125:-1 126:-1 127:-0.818529 128:-0.804442 129:-0.753083 130:-1 131:-1 132:-0.923653 
0 0 0 0 0 0 4.077925946252967 0 0 1:-1 2:-1 3:-1 4:0.302485 5:-0.883195 6:-0.976966 7:-0.70186 8:-1 9:-1 10:-1 11:-1 12:-1 13:-0.899405 14:-0.169093 15:-0.626222 16:-0.380584 17:-0.61166 18:-0.644012 19:-0.515777 20:-0.662139 21:-0.862008 22:0.216032 23:-1 24:-1 25:-1 26:-0.251195 27:-1 28:-1 29:-0.682094 30:-1 31:-1 32:-0.329221 33:-1 34:-1 35:-1 36:-0.728162 37:-1 38:-0.810681 39:-0.757283 40:-0.525804 41:-0.808601 42:-0.869629 43:-0.70874 44:-0.433608 45:-1 46:-1 47:-1 48:-1 49:-1 50:-1 51:-0.698453 52:-1 53:-0.0336398 54:-1 55:-1 56:-1 57:-1 58:-0.883492 59:-1 60:-0.664362 61:-0.347591 62:-0.934818 63:-1 64:-0.70698 65:0.263753 66:-0.136751 67:-1 68:-1 69:-1 70:-1 71:-1 72:-1 73:-0.630215 74:-1 75:-0.912767 76:-0.419674 77:-1 78:-1 79:-1 80:-1 81:-1 82:-0.578637 83:0.0760535 84:-0.881448 85:-1 86:-0.78446 87:-0.371598 88:-0.168626 89:-0.681585 90:-1 91:-1 92:-1 93:-1 94:-1 95:-1 96:-1 97:0.71631 98:-1 99:-1 100:-0.941342 101:-1 102:-0.829216 103:-0.76837 104:-0.0189137 105:-0.625229 106:-1 107:-1 108:-0.184471 109:-0.7129 110:-0.468277 111:-0.951159 112:-1 113:-1 114:-1 115:-1 116:-1 117:-1 118:-1 119:0.460872 120:-0.980892 121:-0.756146 122:-1 123:-1 124:-0.859593 125:-0.178487 126:-0.559874 127:-0.881078 128:-0.487377 129:-0.35275 130:-0.278773 131:-0.476806 132:0.1216 
0.487337299768243 0.5913810479000295 0 3.501565355752232 0.9405325052610192 0 8 0.8838190381774754 0 1:-1 2:-1 3:-1 4:-1 5:-0.693488 6:-1 7:-1 8:-1 9:-1 10:-0.981885 11:-1 12:-1 13:-0.42529 14:-0.238928 15:-0.221106 16:-0.798845 17:-0.76878 18:-0.406559 19:-1 20:-1 21:-1 22:0.128929 23:-1 24:-1 25:-1 26:-1 27:-1 28:-1 29:-1 30:-1 31:-1 32:0.120166 33:-1 34:-1 35:-1 36:-1 37:-1 38:-1 39:-0.5183 40:-0.71768 41:-1 42:-1 43:-1 44:-0.794736 45:-1 46:-1 47:-1 48:-1 49:-0.777767 50:-1 51:-1 52:-1 53:-0.409038 54:-1 55:-1 56:-1 57:-0.55741 58:-0.514457 59:-1 60:-1 61:-1 62:-1 63:-1 64:-0.389391 65:-0.452803 66:-0.197075 67:-1 68:-1 69:-1 70:-1 71:-0.939709 72:-1 73:-1 74:-1 75:-0.526538 76:-0.417552 77:-1 78:-1 79:-1 80:-0.831346 81:-1 82:-0.899659 83:0.0250482 84:-0.294195 85:-1 86:-0.358375 87:-0.0646299 88:0.224 89:-0.390722 90:-1 91:-1 92:-1 93:-1 94:-0.945058 95:-1 96:-1 97:-0.145493 98:-1 99:-1 100:-0.877549 101:-0.724681 102:-0.728854 103:-0.862105 104:-0.123823 105:0.338737 106:-1 107:-1 108:-0.190757 109:-0.430216 110:-0.404794 111:-0.198013 112:-1 113:-1 114:-1 115:-1 116:-1 117:-1 118:-1 119:0.165581 120:-0.944172 121:-0.895011 122:-1 123:-1 124:-0.414858 125:-0.02178 126:-0.388574 127:-0.716757 128:-0.237 129:-0.421967 130:-0.0553207 131:-0.626207 132:0.232832 
0 0 0 0 0 0.05304466297502704 0 0 0 1:-1 2:-1 3:-1 4:-1 5:-1 6:-0.877746 7:-0.86464 8:-1 9:-1 10:-0.945446 11:-1 12:-1 13:-0.0858011 14:-1 15:-1 16:-1 17:-1 18:-1 19:-1 20:-1 21:-1 22:-0.482547 23:-0.977719 24:-1 25:-0.980254 26:-1 27:-1 28:-1 29:-1 30:-0.987307 31:-0.989607 32:-0.994645 33:-0.070964 34:-1 35:-0.699088 36:0.0566091 37:0.487876 38:0.962267 39:-0.685533 40:-0.308835 41:0.983821 42:0.646902 43:-0.24528 44:0.580758 45:-1 46:-1 47:-1 48:-1 49:-1 50:-1 51:-0.692307 52:-1 53:-0.82127 54:-0.425477 55:-1 56:-1 57:-0.275967 58:-1 59:-1 60:-1 61:-1 62:-1 63:-1 64:-1 65:-1 66:0.160358 67:-1 68:-1 69:-1 70:-1 71:-1 72:-1 73:-1 74:-1 75:-1 76:-1 77:0.487598 78:-1 79:-1 80:-1 81:-1 82:-1 83:-1 84:-1 85:-1 86:-1 87:-1 88:-1 89:-1 90:-1 91:-1 92:-1 93:-1 94:-1 95:-1 96:-0.988131 97:-0.684284 98:-1 99:-0.566146 100:-0.972682 101:-0.396999 102:-1 103:-1 104:-1 105:-1 106:-1 107:-1 108:-1 109:-1 110:0.453888 111:-1 112:-1 113:-1 114:-1 115:-1 116:-1 117:-1 118:-1 119:-1 120:-1 121:-0.216483 122:-1 123:-1 124:-1 125:-1 126:-1 127:-1 128:-1 129:-1 130:-1 131:-1 132:-1 
0.917120902523977 0 1.616310630794458 3.80980992424622 0 1.93402802095868 0 0.4498306441346639 0 1:-1 2:-1 3:-1 4:-0.827305 5:-1 6:-0.983617 7:0.139652 8:-1 9:-0.90335 10:-1 11:-1 12:-1 13:-0.762776 14:-0.470688 15:-0.22613 16:-0.533669 17:-0.59798 18:-0.557787 19:-0.164555 20:-0.533669 21:-0.571441 22:0.33015 23:-1 24:-1 25:-1 26:-0.831822 27:-1 28:-0.983399 29:-0.447337 30:-0.741301 31:-1 32:-0.918221 33:-0.12226 34:-1 35:-1 36:-0.92965 37:-0.933957 38:-0.706031 39:-0.497483 40:-0.877284 41:-1 42:-0.460157 43:-0.8995 44:-0.201488 45:-1 46:-0.920715 47:-0.782121 48:-1 49:-0.985974 50:-1 51:-0.62704 52:-0.937013 53:-0.762843 54:-1 55:-1 56:-0.702687 57:-0.989525 58:-0.457289 59:-0.484917 60:-0.391955 61:-0.662321 62:-0.730072 63:-0.452632 64:-0.165834 65:-0.881075 66:0.328275 67:-1 68:-1 69:-0.969486 70:-1 71:-1 72:-1 73:-0.873375 74:-1 75:-0.906933 76:-1 77:0.0855598 78:-1 79:-1 80:-0.560151 81:-0.860556 82:-0.825531 83:-0.665839 84:-0.325051 85:-0.913139 86:-1 87:-0.51212 88:-0.310497 89:-1 90:-1 91:-1 92:-1 93:-1 94:-1 95:-1 96:-1 97:-0.355569 98:-1 99:-0.9591 100:-0.374227 101:-1 102:-0.410694 103:-0.160798 104:-1 105:-1 106:-0.865582 107:-0.812915 108:-0.718586 109:-1 110:-0.569626 111:-1 112:-1 113:-1 114:-1 115:-1 116:-1 117:-1 118:-1 119:-0.988461 120:-1 121:-0.219579 122:-1 123:-1 124:-0.854662 125:-0.829923 126:-1 127:-1 128:-0.336686 129:-0.581233 130:-1 131:-1 132:-0.438016 
0 0 0.7906229375822996 0 0 0.6790334450836499 0 0 0 1:-1 2:-0.928862 3:-1 4:-1 5:-1 6:-0.988184 7:-0.349845 8:-1 9:-1 10:-1 11:-1 12:-0.696986 13:-0.722892 14:-0.78649 15:-0.791888 16:-0.122159 17:-0.56756 18:-0.762166 19:-0.820283 20:-0.56108 21:-0.231664 22:0.37519 23:-1 24:-0.898312 25:-1 26:-1 27:-1 28:-0.952106 29:0.123731 30:-1 31:-1 32:-0.788568 33:-1 34:-1 35:-0.585523 36:-0.848646 37:-0.715825 38:-0.789192 39:-0.639633 40:-0.801994 41:-0.786876 42:-0.600775 43:-1 44:-0.20055 45:-1 46:-1 47:-0.947603 48:-1 49:-1 50:-1 51:-1 52:-0.981826 53:-0.790486 54:-1 55:-1 56:0.0626349 57:-1 58:-0.93514 59:-1 60:-0.626247 61:-1 62:-1 63:-0.852817 64:-0.592138 65:-0.616221 66:-0.58597 67:-1 68:-1 69:-0.970649 70:-1 71:-1 72:-1 73:-0.93441 74:-1 75:0.242159 76:-0.861639 77:-1 78:-1 79:-1 80:-0.684574 81:-0.850011 82:-0.249299 83:-0.281094 84:-0.47198 85:-1 86:-0.159996 87:0.22457 88:0.281854 89:-0.986386 90:-1 91:-1 92:-1 93:-1 94:-1 95:-1 96:-1 97:-0.901537 98:-1 99:-1 100:-0.0317997 101:-1 102:-0.619662 103:-1 104:-0.908968 105:-0.582692 106:-0.783111 107:-1 108:-1 109:-0.786868 110:-0.782856 111:0.486887 112:-1 113:-1 114:-1 115:-1 116:-1 117:-1 118:-1 119:-0.333697 120:-1 121:-0.902245 122:-0.979517 123:-1 124:-0.609148 125:0.0976968 126:-0.591592 127:-0.60271 128:-0.500538 129:-0.459467 130:-0.277213 131:-0.650457 132:0.107173 
0 0 1.9473244831716 0.03445703489392964 0 0 0 2.033689160331698 1.597561060623309 1:-1 2:-1 3:-1 4:-1 5:-1 6:-1 7:-0.481017 8:-1 9:-0.99228 10:-1 11:-1 12:-1 13:-0.384857 14:-0.558167 15:-0.22484 16:-0.532892 17:-1 18:-0.704702 19:0.115777 20:-0.844293 21:-0.809217 22:0.117693 23:-1 24:-1 25:-1 26:-1 27:-1 28:-1 29:-0.934417 30:-1 31:-1 32:-1 33:0.355515 34:-1 35:-0.571467 36:-1 37:-0.558965 38:-0.563759 39:-1 40:-0.836098 41:-0.294347 42:-0.639503 43:-1 44:-0.071645 45:-1 46:-1 47:-1 48:-1 49:-1 50:-1 51:-0.499213 52:-1 53:-0.626325 54:-1 55:-1 56:-1 57:-0.683636 58:-0.194634 59:-0.862425 60:-1 61:0.804012 62:-0.188873 63:-1 64:-1 65:0.111861 66:0.409837 67:-1 68:-1 69:-1 70:-1 71:-1 72:-1 73:-0.938241 74:-1 75:-1 76:-1 77:0.554327 78:-1 79:-1 80:-1 81:-1 82:-1 83:-1 84:-0.918055 85:-1 86:-1 87:-1 88:-0.985472 89:-0.82052 90:-1 91:-1 92:-1 93:-1 94:-0.96509 95:-1 96:-1 97:-0.474045 98:-1 99:-0.645298 100:-0.976659 101:-0.777369 102:0.180594 103:-0.199423 104:-0.660901 105:-0.481867 106:-0.371644 107:-0.250396 108:-0.436247 109:-0.735374 110:0.278931 111:-1 112:-1 113:-1 114:-1 115:-1 116:-1 117:-1 118:-1 119:-1 120:-1 121:-0.144954 122:-1 123:-1 124:-1 125:-1 126:-1 127:-1 128:-0.557047 129:-0.88815 130:-1 131:-1 132:-0.919189 
-0 0 0.02143449763152636 0 0.1259516143725704 0 0 0 0 1:-1 2:-1 3:-1 4:-1 5:-1 6:-0.890744 7:-1 8:-1 9:-1 10:-1 11:-1 12:-1 13:0.132642 14:-0.92603 15:-1 16:-0.869663 17:-0.88764 18:-0.917603 19:-1 20:-1 21:-1 22:-0.922619 23:-1 24:-1 25:-1 26:-1 27:-1 28:-0.788631 29:-1 30:-1 31:-1 32:-0.995868 33:-0.885624 34:-1 35:1 36:-0.370783 37:-0.630817 38:-0.926966 39:-0.906367 40:-0.314012 41:-0.77849 42:-1 43:-1 44:-0.212743 45:-1 46:-0.497833 47:-1 48:-1 49:-1 50:-0.259036 51:-1 52:-1 53:-1 54:-1 55:-1 56:-1 57:-0.536416 58:-0.595505 59:-0.0786482 60:-1 61:-1 62:-0.396466 63:-0.0821011 64:-0.915219 65:-1 66:-0.058043 67:-1 68:-1 69:-1 70:-1 71:-1 72:0.418948 73:-1 74:-1 75:-1 76:-1 77:-0.569431 78:-1 79:-1 80:-0.0165211 81:-0.688201 82:-0.902471 83:-1 84:-0.314012 85:-0.611554 86:-1 87:-1 88:0.125461 89:-1 90:-0.42719 91:-1 92:-1 93:-0.923354 94:-0.527008 95:-1 96:-0.908394 97:-1 98:-1 99:-1 100:-0.645801 101:-0.965522 102:-0.538814 103:-0.46388 104:-0.0538105 105:-0.34943 106:-0.774578 107:-0.581675 108:0.022477 109:-0.667735 110:0.0233256 111:-1 112:-1 113:-1 114:-1 115:-1 116:-0.415869 117:-0.992599 118:-0.850185 119:-1 120:-1 121:-0.645038 122:-0.715901 123:-1 124:-0.350041 125:-0.619705 126:-0.660423 127:-0.724719 128:-0.258423 129:-0.7191 130:-0.415726 131:-0.636705 132:0.090112 
-0 0 0 1.463286350434409 0 0 0 0 0 1:-1 2:-0.542505 3:-1 4:-1 5:-0.976819 6:-0.00816197 7:-1 8:-1 9:-0.973029 10:-1 11:-1 12:-1 13:-0.771962 14:-0.490319 15:-0.13065 16:-0.40129 17:-0.48388 18:-0.243011 19:-0.356442 20:-1 21:-0.816579 22:-0.143701 23:-0.944612 24:-1 25:-1 26:-1 27:-1 28:0.102368 29:-1 30:-1 31:-1 32:-0.91346 33:-1 34:-1 35:-1 36:-0.367745 37:-0.576038 38:-0.790323 39:-0.677417 40:-0.133443 41:-1 42:-1 43:-0.87096 44:0.0727149 45:-1 46:-1 47:-1 48:-1 49:-1 50:-1 51:-1 52:-0.409451 53:-1 54:-1 55:-1 56:-0.0260259 57:-1 58:-0.535481 59:-1 60:-1 61:-1 62:-1 63:-0.472946 64:-0.026394 65:-0.847303 66:-0.22181 67:-1 68:-1 69:-1 70:-1 71:-1 72:-1 73:-0.701891 74:-0.776846 75:-1 76:-1 77:-1 78:-0.61748 79:-1 80:-0.247059 81:-0.820957 82:-0.887993 83:-0.856981 84:-0.212225 85:-0.553923 86:-0.713553 87:-0.373604 88:0.371418 89:-1 90:-1 91:-1 92:-1 93:-1 94:-1 95:-1 96:-1 97:-1 98:-1 99:-1 100:0.528102 101:-1 102:-1 103:-1 104:-1 105:-1 106:-1 107:-1 108:-1 109:-1 110:-1 111:-1 112:-1 113:-1 114:-1 115:-1 116:-1 117:-0.654252 118:-1 119:-1 120:-1 121:-0.98412 122:-0.0709689 123:-1 124:0.0263055 125:-1 126:-0.902503 127:-0.525805 128:-0.148388 129:-0.892467 130:-0.424878 131:-0.44374 132:0.204299 
-0.9559705622601703 1.509132456094829 1.054680885247446 0.3019015057793334 0 3.440710013308575 1.309281720729608 0 0 1:-1 2:-0.578073 3:-1 4:-1 5:-1 6:-0.747717 7:-0.228849 8:-1 9:-1 10:-0.518046 11:-1 12:-0.958526 13:-0.967778 14:-0.25727 15:-0.703838 16:-0.464614 17:-0.58974 18:-0.247866 19:-0.317938 20:-0.762049 21:-0.562628 22:0.207492 23:-1 24:-1 25:-1 26:-1 27:-1 28:-0.581011 29:-0.985667 30:-1 31:-1 32:-0.294317 33:-1 34:-1 35:-1 36:-0.78461 37:-0.865207 38:-0.766669 39:-0.914533 40:-0.749525 41:-0.932603 42:-1 43:-1 44:-0.492155 45:-1 46:-0.917074 47:-1 48:-1 49:-1 50:-0.790885 51:-1 52:-1 53:-1 54:-1 55:-1 56:0.0177191 57:-1 58:-0.938464 59:-1 60:-0.468134 61:0.0338351 62:-1 63:-1 64:-0.38088 65:-0.0290508 66:-0.349716 67:-1 68:-1 69:-1 70:-1 71:-1 72:-0.582849 73:-0.674916 74:-1 75:-0.907089 76:-1 77:-1 78:-0.712747 79:-1 80:-0.251887 81:-0.288462 82:-0.554871 83:-1 84:-0.248588 85:-0.468134 86:-0.0892219 87:-0.83404 88:0.60975 89:-1 90:-1 91:-1 92:-1 93:-1 94:-1 95:-1 96:-1 97:-1 98:-1 99:-1 100:0.130547 101:-1 102:-1 103:-1 104:-1 105:-1 106:-1 107:-1 108:-1 109:-1 110:-1 111:-1 112:-0.744088 113:-1 114:-1 115:-1 116:-1 117:-0.409828 118:-1 119:-0.98024 120:-1 121:-0.983768 122:-0.350054 123:-1 124:-0.110067 125:-0.305715 126:-0.767516 127:-0.623069 128:0.0830743 129:-0.829067 130:-0.466672 131:-0.336761 132:0.371141 
-0 0 0.7518228070061266 8 0.3419207687161275 0.2485018789330493 0 0 0 1:-1 2:-1 3:-1 4:-1 5:-0.174206 6:-1 7:-1 8:-1 9:-1 10:-1 11:-1 12:-1 13:-0.338388 14:-0.653507 15:0.519731 16:-0.694735 17:-1 18:-1 19:-1 20:-1 21:-1 22:-0.219543 23:-1 24:-1 25:-1 26:-1 27:-0.545194 28:-1 29:-1 30:-1 31:-1 32:-0.342007 33:-1 34:-1 35:-1 36:-1 37:-1 38:-0.771928 39:-0.5614 40:0.0710958 41:-1 42:-1 43:-1 44:-0.228014 45:-1 46:-1 47:-1 48:-1 49:-0.390184 50:-1 51:-1 52:-0.868533 53:-1 54:-1 55:-1 56:-0.602141 57:-0.945351 58:-0.473681 59:-0.460522 60:-1 61:-1 62:-1 63:-0.761131 64:0.456138 65:-0.584792 66:0.345018 67:-1 68:-0.977683 69:-0.964613 70:-1 71:-0.854826 72:-0.773859 73:-1 74:-1 75:-0.919055 76:-1 77:-0.436135 78:-1 79:-1 80:-0.616097 81:-0.26973 82:-0.39087 83:-0.805555 84:-0.036015 85:-0.0902145 86:0.168432 87:-0.716107 88:0.620314 89:-1 90:-1 91:-1 92:-1 93:-1 94:-1 95:-1 96:-1 97:-1 98:-1 99:-1 100:0.179352 101:-1 102:-1 103:-1 104:-1 105:-1 106:-1 107:-1 108:-1 109:-1 110:-1 111:-1 112:-1 113:-1 114:-1 115:-1 116:-1 117:-0.978767 118:-1 119:-0.939747 120:-1 121:-0.391881 122:-0.938257 123:-1 124:0.141694 125:-0.406204 126:-1 127:-0.570174 128:-0.189466 129:-0.5614 130:-0.739346 131:-0.621831 132:-0.14176 
-0 0 1.335112269698947 0 0 2.505972092026463 0.3549628913318369 0 0.6892562920246402 1:-1 2:-1 3:-1 4:-1 5:-0.983268 6:-1 7:-1 8:-1 9:-0.970788 10:-1 11:-1 12:-1 13:-0.102563 14:-0.341668 15:-0.197909 16:-0.71 17:-0.83334 18:-1 19:-1 20:-1 21:-0.763106 22:-0.374556 23:-1 24:-1 25:-1 26:-1 27:-1 28:-1 29:-1 30:-1 31:-1 32:-0.0292997 33:-1 34:-1 35:-1 36:-1 37:-1 38:-1 39:-0.583333 40:-0.0842099 41:-1 42:-1 43:-1 44:-0.609268 45:-1 46:-1 47:-1 48:-1 49:-0.189265 50:-1 51:-1 52:-1 53:-1 54:-1 55:-1 56:-1 57:-0.593887 58:-0.499997 59:0.366673 60:-0.855958 61:-1 62:-1 63:-1 64:-1 65:-1 66:0.227218 67:-1 68:-1 69:-1 70:-1 71:-1 72:-0.786127 73:-1 74:-1 75:-1 76:-0.417957 77:-0.876658 78:-1 79:-1 80:-1 81:-0.306249 82:0.157343 83:-0.445836 84:-0.18596 85:-0.279753 86:0.294994 87:-1 88:0.550239 89:-1 90:-1 91:-1 92:-1 93:-1 94:-1 95:-1 96:-0.786981 97:-1 98:-1 99:-1 100:-0.230264 101:-1 102:-0.706819 103:-1 104:-1 105:-1 106:-1 107:-0.689737 108:0.400001 109:-0.671421 110:-0.354549 111:-1 112:-1 113:-1 114:-1 115:-1 116:-1 117:-1 118:-1 119:-1 120:-1 121:-0.254806 122:-1 123:-1 124:0.205122 125:-1 126:-1 127:-1 128:-0.00999901 129:-0.44445 130:-0.876195 131:-0.820379 132:-0.212437 
-0 0 0 0 0 0 0 1.508796885262015 0 1:-1 2:-1 3:-1 4:-1 5:-1 6:0.18584 7:-1 8:-1 9:-1 10:-0.456927 11:-1 12:-0.983761 13:-0.969706 14:0.0449707 15:-0.847213 16:-0.815873 17:-0.68254 18:0.280426 19:-1 20:-1 21:-0.774363 22:-0.128607 23:-1 24:-1 25:-1 26:-1 27:-1 28:-0.515981 29:-0.915797 30:-1 31:-1 32:-0.321517 33:-1 34:-1 35:-1 36:-0.66666 37:-0.478452 38:-1 39:-0.867717 40:-0.321632 41:-0.895685 42:-1 43:-1 44:-0.484274 45:-1 46:-1 47:-1 48:-1 49:-1 50:-0.245233 51:-1 52:-1 53:-1 54:-1 55:-1 56:-0.595221 57:-1 58:-0.333329 59:-1 60:-0.588425 61:0.333345 62:-0.680265 63:-1 64:-0.520924 65:0.126984 66:0.405551 67:-0.952081 68:-1 69:-1 70:-1 71:-1 72:-0.912852 73:-0.91511 74:-1 75:-1 76:-0.45499 77:-1 78:-1 79:-1 80:-0.305324 81:-0.559524 82:-1 83:-0.824064 84:-0.030911 85:-0.725623 86:-1 87:-0.743131 88:0.469048 89:-1 90:-1 91:-1 92:-1 93:-1 94:-1 95:-1 96:-1 97:-1 98:-1 99:-1 100:0.265581 101:-1 102:-1 103:-1 104:-1 105:-1 106:-1 107:-1 108:-1 109:-0.843527 110:-0.987584 111:-1 112:-1 113:-1 114:-1 115:-1 116:-1 117:-0.97545 118:-1 119:-1 120:-0.494477 121:-0.983651 122:0.0135706 123:-1 124:-0.426123 125:-1 126:-0.760141 127:-0.0277706 128:-0.371429 129:-0.73545 130:-0.64625 131:0.368598 132:0.118539 
