svm_type c_svc
kernel_type rbf
gamma 0.03125
nr_class 10
total_sv 1552
rho -0.418438 -0.156373 0.313696 1.64128 0.327146 -0.349679 0.0438228 0.103308 0.359949 0.225198 1.49432 1.65386 2.04622 1.06687 1.11305 0.92577 1.09537 0.706633 1.2962 0.103517 0.774969 -0.678498 0.753774 -0.850648 1.03806 0.0543451 -0.339357 -0.422307 0.849538 -1.26716 -1.10474 -0.339355 -0.959868 -0.477881 -2.62482 -0.592834 -0.361131 0.140682 -0.178056 -0.3113 -0.0317251 -0.24507 0.474878 0.0554902 -0.633208
label 7 3 6 8 1 9 2 5 0 4
probA -3.67993 -4.57868 -4.39439 -3.60378 -3.70553 -3.49575 -4.43857 -4.48954 -4.06457 -4.26469 -3.77599 -4.24654 -3.79152 -3.76304 -3.56576 -4.2819 -4.15919 -3.6864 -4.32278 -4.13248 -4.12828 -3.75866 -3.68077 -3.873 -4.34766 -4.36025 -3.88985 -4.08898 -4.28321 -4.07061 -4.3452 -3.98203 -4.48986 -4.52304 -4.27765 -4.06718 -3.99263 -3.99442 -3.16592 -4.45842 -4.54954 -4.27745 -4.24436 -4.45999 -4.36393
probB 0.0351383 0.267455 -0.200364 0.393444 0.0648643 0.0358972 0.0326741 -0.216035 -0.0137255 0.0994994 -0.197077 -0.168118 0.074109 0.172854 -0.0639658 0.136489 -0.120275 0.102114 -0.206094 -0.0521669 -0.163767 0.098833 -0.273967 -0.188002 -0.288589 0.0713597 -0.0486576 0.103988 -0.16294 -0.270979 0.0257915 0.111558 0.217271 -0.242248 -0.126036 -0.113617 -0.0395135 -0.325946 -0.0667884 -0.0508675 0.0668879 0.091909 -0.0810392 -0.170158 0.0374823
nr_sv 153 151 126 213 138 187 157 153 111 163
SV
0.6015631100490145 1.620443535628368 7.471779469515518 5.174692544269244 0.0893346963923719 0 2.144855822587256 0.8395349080935032 2.784706073704298 1:-0.973066 2:-0.973311 3:-0.802254 4:-1 5:-1 6:-0.954616 7:-1 8:-1 9:-0.146272 10:-1 11:-1 12:-1 13:-0.850746 14:-0.37652 15:-0.0349676 16:-0.705558 17:-0.72028 18:-0.941513 19:0.0589358 20:-0.852148 21:-0.358793 22:-0.430891 23:-1 24:-1 25:-1 26:-1 27:-0.959339 28:-0.966753 29:-1 30:-0.941128 31:-1 32:-0.982984 33:-0.349727 34:-1 35:-1 36:-0.713286 37:-0.922441 38:-0.728887 39:-0.670331 40:-0.144388 41:-0.444055 42:-0.960839 43:-0.779333 44:0.303722 45:-1 46:-1 47:-1 48:-1 49:-1 50:-1 51:-1 52:-1 53:-0.452152 54:-1 55:-1 56:-1 57:-0.838597 58:-0.00419487 59:-0.496503 60:-1 61:-1 62:-1 63:-1 64:-1 65:-1 66:-0.04664 67:-1 68:-1 69:-1 70:-1 71:-1 72:-1 73:-0.981276 74:-1 75:-1 76:-1 77:0.381748 78:-1 79:-1 80:-1 81:-1 82:-0.884615 83:-0.835982 84:-0.160842 85:-0.3897 86:-0.892482 87:-1 88:-0.543498 89:-1 90:-1 91:-1 92:-1 93:-1 94:-1 95:-0.899739 96:-0.982997 97:-0.936564 98:-1 99:-0.262939 100:-1 101:-0.886841 102:-0.16084 103:-0.832168 104:-1 105:-0.76224 106:-0.384616 107:-0.664336 108:-0.664337 109:-0.874126 110:0.25821 111:-1 112:-1 113:-1 114:-1 115:-1 116:-1 117:-1 118:-1 119:-1 120:-1 121:0.00298511 122:-1 123:-1 124:-1 125:-1 126:-1 127:-1 128:-1 129:-1 130:-1 131:-1 132:-1 
2.677042077270635 0 0 0 0 0 0 0 0 1:-1 2:-1 3:-0.936171 4:-1 5:-1 6:-1 7:-1 8:-1 9:-0.47041 10:-1 11:-1 12:-0.252076 13:-0.972474 14:-0.770508 15:-0.861862 16:-0.241347 17:-1 18:-1 19:-0.727157 20:-0.52381 21:-0.173941 22:-0.204132 23:-1 24:-1 25:-0.94196 26:-1 27:-1 28:-0.978537 29:-0.972251 30:-1 31:-0.709859 32:-0.963391 33:-0.880074 34:-1 35:-1 36:-0.753753 37:-0.700246 38:-0.650728 39:-0.433721 40:-0.228408 41:-0.641891 42:-0.899099 43:-0.715717 44:0.371236 45:-1 46:-1 47:-1 48:-1 49:-1 50:-1 51:-1 52:-1 53:-0.304546 54:-1 55:-1 56:-0.288372 57:-1 58:-0.144744 59:-0.351351 60:-1 61:-1 62:-1 63:-1 64:-1 65:-1 66:-0.65463 67:-1 68:-1 69:-1 70:-1 71:-1 72:-1 73:-1 74:-1 75:-1 76:-1 77:-0.13255 78:-1 79:-1 80:-1 81:-0.805807 82:-1 83:-1 84:-0.243246 85:-0.0565093 86:-1 87:-1 88:-0.00164838 89:-1 90:-1 91:-1 92:-1 93:-1 94:-1 95:-1 96:-1 97:-0.836222 98:-1 99:-0.9756 100:-0.432242 101:-1 102:-0.27928 103:-0.783784 104:-1 105:-1 106:-1 107:-0.927928 108:-0.675677 109:-0.675676 110:-0.149324 111:-1 112:-1 113:-1 114:-1 115:-1 116:-1 117:-1 118:-1 119:-1 120:-1 121:-0.0828505 122:-1 123:-1 124:-1 125:-1 126:-1 127:-1 128:-0.0270299 129:-0.410705 130:-1 131:-1 132:-0.692621 
0 0.4851089149989967 4.034775086758139 8 0.250339687172592 0 0 1.400329055259557 0 1:-1 2:-1 3:-1 4:-1 5:-1 6:-1 7:-1 8:-1 9:-0.49173 10:-1 11:-1 12:0.0498803 13:-0.917294 14:-0.621678 15:-0.544555 16:-0.416362 17:-1 18:-1 19:-1 20:-0.267325 21:-0.773038 22:-0.284718 23:-1 24:-1 25:-1 26:-1 27:-1 28:-1 29:-1 30:-1 31:-1 32:-1 33:-0.699723 34:-1 35:-1 36:-0.458744 37:-1 38:-0.561309 39:-1 40:0.211413 41:-0.606434 42:-1 43:-0.843785 44:0.461025 45:-1 46:-1 47:-1 48:-1 49:-1 50:-1 51:-1 52:-1 53:-0.726315 54:-1 55:-1 56:0.214917 57:-1 58:0.174921 59:-0.465345 60:-1 61:-1 62:-1 63:-1 64:-1 65:-1 66:-0.502592 67:-1 68:-1 69:-1 70:-1 71:-1 72:-1 73:-1 74:-1 75:-1 76:-1 77:0.0679429 78:-1 79:-1 80:-1 81:-1 82:-1 83:-1 84:0.188118 85:-0.481546 86:-1 87:-1 88:-0.180311 89:-1 90:-1 91:-1 92:-1 93:-1 94:-1 95:-1 96:-1 97:-1 98:-1 99:-1 100:-0.213157 101:-1 102:-0.128712 103:-1 104:-1 105:-1 106:-1 107:-1 108:-0.881188 109:-0.643564 110:-0.374804 111:-1 112:-1 113:-1 114:-1 115:-1 116:-1 117:-0.984076 118:-1 119:-1 120:-1 121:-0.353215 122:-1 123:-1 124:-1 125:-1 126:-1 127:-0.75495 128:0.0693059 129:-0.676179 130:-0.789794 131:-1 132:-0.445344 
0 0 0 8 0 0 0 0 0 1:-1 2:-1 3:-1 4:-1 5:-1 6:-1 7:-1 8:-1 9:-0.216517 10:-0.597841 11:-1 12:-0.789405 13:-1 14:-0.357809 15:-1 16:-0.575411 17:-0.4958 18:-0.92972 19:-1 20:-0.733494 21:-0.0368375 22:-0.179557 23:-1 24:-1 25:-1 26:-1 27:-1 28:-1 29:-1 30:-1 31:-0.705894 32:-0.562111 33:-1 34:-1 35:-1 36:-0.885159 37:-0.813595 38:-0.76729 39:-0.471797 40:-0.0746473 41:-1 42:-0.905881 43:-0.734824 44:-0.00941564 45:-1 46:-1 47:-1 48:-1 49:-1 50:-1 51:-1 52:-1 53:0.2307 54:-1 55:-1 56:-0.764173 57:-1 58:-0.401682 59:-0.243693 60:-1 61:-1 62:-1 63:-1 64:-1 65:-1 66:-0.669557 67:-1 68:-1 69:-1 70:-1 71:-1 72:-1 73:-1 74:-1 75:-0.931981 76:-1 77:-0.417923 78:-1 79:-1 80:-0.430436 81:-0.81887 82:-1 83:-1 84:0.109242 85:-0.119939 86:-1 87:-1 88:0.30766 89:-1 90:-1 91:-1 92:-1 93:-1 94:-1 95:-1 96:-1 97:-0.784176 98:-1 99:-0.950541 100:-0.805338 101:-1 102:-0.260504 103:-0.79832 104:-1 105:-0.7143 106:-0.731096 107:-0.932776 108:-0.697481 109:-0.54622 110:0.0553906 111:-1 112:-1 113:-1 114:-1 115:-1 116:-1 117:-0.988184 118:-1 119:-1 120:-1 121:-0.0763887 122:-1 123:-1 124:-1 125:-1 126:-1 127:-1 128:-0.495797 129:-0.312898 130:-1 131:-1 132:-0.82044 
1.539812578793341 0 0 0 3.17514842960923 0 0 0 8 1:-1 2:-1 3:-1 4:-1 5:-1 6:-0.793168 7:-1 8:-0.887466 9:-1 10:-0.428011 11:-1 12:-0.977238 13:-0.933649 14:-0.44889 15:-0.483973 16:-0.716598 17:-0.23076 18:-0.557688 19:-0.563191 20:-0.949173 21:-0.559165 22:0.396965 23:-1 24:-1 25:-1 26:-1 27:-1 28:-0.0829393 29:-1 30:-1 31:-1 32:-0.561435 33:-1 34:-1 35:-1 36:-0.93429 37:-0.680072 38:-0.866866 39:-0.773353 40:-0.647062 41:-1 42:-1 43:-1 44:-0.590714 45:-1 46:-1 47:-0.87809 48:-1 49:-1 50:-1 51:-1 52:-0.711338 53:-0.836402 54:-1 55:-1 56:-0.15029 57:-1 58:-0.543583 59:-0.82693 60:-0.648171 61:-1 62:-0.940085 63:-0.538454 64:-0.625407 65:-0.576918 66:-0.465896 67:-0.963902 68:-1 69:-0.972711 70:-1 71:-0.976043 72:-0.980756 73:-0.889644 74:-0.99101 75:-0.820265 76:-1 77:-0.937529 78:-1 79:-1 80:-0.804488 81:-0.378212 82:-0.127397 83:-0.323428 84:-0.538457 85:-0.0769137 86:-0.482569 87:0.118358 88:0.93029 89:-1 90:-1 91:-1 92:-1 93:-1 94:-1 95:-1 96:-1 97:-1 98:-1 99:-1 100:0.110019 101:-1 102:-0.961536 103:-1 104:-1 105:-1 106:-1 107:-1 108:-0.711545 109:-0.913456 110:-0.939568 111:-1 112:-1 113:-1 114:-1 115:-1 116:-1 117:-0.936136 118:-0.875866 119:-0.969862 120:-1 121:-0.802955 122:0.110476 123:-1 124:-0.326413 125:-0.872245 126:-1 127:-0.762029 128:-0.365381 129:-0.685516 130:-0.693789 131:-0.463465 132:-0.380976 
8 0 0 0 0 0 0 0 0 1:-1 2:-1 3:-0.955532 4:-1 5:-1 6:-1 7:-1 8:-0.771005 9:-0.816477 10:-0.802112 11:-1 12:-0.559897 13:-0.941691 14:-0.796758 15:-0.510637 16:-0.328109 17:-0.46808 18:-1 19:-0.355613 20:-0.212766 21:-0.146479 22:0.400773 23:-1 24:-1 25:-1 26:-1 27:-1 28:-0.994019 29:-1 30:-1 31:-0.98203 32:-0.334692 33:-1 34:-1 35:-1 36:-0.927307 37:-0.941007 38:-0.882158 39:-0.331311 40:-0.73967 41:-1 42:-0.940427 43:-0.832157 44:-0.476798 45:-1 46:-1 47:-1 48:-1 49:-1 50:-1 51:-1 52:-0.977973 53:-0.766728 54:-1 55:-1 56:0.00321036 57:-1 58:-0.873762 59:-0.808516 60:-0.299328 61:-1 62:-1 63:-0.872343 64:-0.668433 65:-0.414887 66:-0.510143 67:-0.983474 68:-1 69:-1 70:-1 71:-1 72:-0.977966 73:-0.993263 74:-0.993143 75:-0.769312 76:-0.765729 77:-0.942107 78:-0.957769 79:-1 80:-0.783694 81:-0.65604 82:-0.210111 83:0.12282 84:-0.808516 85:-0.350096 86:0.144948 87:-0.226669 88:0.808459 89:-1 90:-1 91:-1 92:-1 93:-1 94:-1 95:-1 96:-1 97:-1 98:-1 99:-1 100:0.0891541 101:-1 102:-1 103:-1 104:-1 105:-1 106:-1 107:-1 108:-1 109:-1 110:-1 111:-1 112:-1 113:-1 114:-1 115:-1 116:-1 117:-0.938266 118:-1 119:-0.961667 120:-1 121:-0.650793 122:-0.412929 123:-1 124:-0.254756 125:-0.717334 126:-1 127:-0.605064 128:-0.425537 129:-0.565077 130:-0.943537 131:-0.505315 132:-0.273985 
4.935712085062871 0 0 0 0 0 0 0 0 1:-1 2:-1 3:-1 4:-1 5:-1 6:-0.974916 7:-1 8:-0.973616 9:-0.867608 10:-0.908794 11:-1 12:0.28644 13:-0.998586 14:-0.879268 15:-0.854656 16:-0.401347 17:-0.62086 18:-1 19:-0.712923 20:-0.348683 21:-0.45679 22:-0.00540184 23:-1 24:-1 25:-0.992546 26:-1 27:-1 28:-0.988973 29:-1 30:-1 31:0.29214 32:-0.753566 33:-1 34:-1 35:-1 36:-0.611373 37:-0.94744 38:-0.711263 39:-0.404194 40:-0.478117 41:-0.937208 42:-0.787676 43:-0.476574 44:0.0988188 45:-1 46:-1 47:-1 48:-1 49:-1 50:-1 51:-1 52:-1 53:-0.981831 54:-1 55:-1 56:0.339645 57:-1 58:-0.831279 59:-1 60:-0.7919 61:-1 62:-1 63:-1 64:-0.852285 65:-1 66:-0.893783 67:-0.903513 68:-1 69:-0.955209 70:-1 71:-1 72:-1 73:-0.996895 74:-1 75:0.0057582 76:-0.9918 77:-0.846188 78:-1 79:-1 80:-0.293308 81:-0.387049 82:-0.218015 83:-0.555371 84:-0.374405 85:-0.338209 86:-0.271331 87:-0.586584 88:0.579732 89:-1 90:-1 91:-1 92:-1 93:-1 94:-1 95:-1 96:-1 97:-1 98:-1 99:-1 100:-0.0539587 101:-1 102:-1 103:-1 104:-1 105:-1 106:-1 107:-1 108:-1 109:-1 110:-1 111:-1 112:-1 113:-1 114:-1 115:-1 116:-1 117:-0.997005 118:-1 119:-0.187217 120:-1 121:-0.647306 122:-1 123:-1 124:-0.275631 125:0.133375 126:-0.933654 127:-0.88271 128:-0.601901 129:-0.0699743 130:-0.798764 131:-1 132:0.0923791 
0 0 0 0 8 0 0 0 0 1:-1 2:-1 3:-1 4:-1 5:-1 6:-1 7:-1 8:-0.901572 9:-1 10:-1 11:-1 12:-1 13:-0.814009 14:-0.230658 15:-0.279641 16:-0.773928 17:-1 18:-0.831606 19:-0.593476 20:-1 21:-1 22:0.465713 23:-1 24:-1 25:-0.311688 26:-1 27:-0.660398 28:-1 29:-1 30:-1 31:-1 32:-0.94737 33:-0.956899 34:-1 35:-1 36:-0.357938 37:-0.925569 38:-0.702634 39:-0.683609 40:0.0675019 41:-0.377513 42:-0.962418 43:-0.788216 44:0.250197 45:-1 46:-1 47:-1 48:-1 49:-1 50:-1 51:-1 52:-0.810631 53:-1 54:-1 55:-1 56:0.524788 57:-1 58:-0.840713 59:-1 60:-1 61:-1 62:-1 63:-0.677847 64:-0.477069 65:-0.852358 66:-0.797433 67:-1 68:-1 69:-0.713529 70:-1 71:-1 72:-1 73:-1 74:-1 75:-0.38898 76:-1 77:-0.552097 78:-1 79:-1 80:0.0917237 81:-0.276664 82:-1 83:-1 84:0.127518 85:-0.648569 86:-1 87:-1 88:-0.00800785 89:-1 90:-1 91:-1 92:-1 93:-1 94:-1 95:-1 96:-1 97:-1 98:-1 99:-1 100:0.254389 101:-1 102:-1 103:-1 104:-1 105:-1 106:-1 107:-1 108:-1 109:-1 110:-1 111:-1 112:-1 113:-1 114:-1 115:-1 116:-1 117:-1 118:-1 119:-0.841815 120:-1 121:-0.508771 122:-0.926743 123:-1 124:0.367719 125:-0.82168 126:-1 127:-1 128:0.20805 129:-0.670749 130:-0.92876 131:-0.750332 132:-0.0287737 
0 0 0 0 8 0 0 0 0 1:-1 2:-1 3:-0.560553 4:-1 5:-0.92614 6:-1 7:-1 8:-1 9:-0.987683 10:-1 11:-1 12:-1 13:-0.668326 14:-1 15:-0.0980335 16:-0.62848 17:-1 18:-0.815506 19:-0.10924 20:-0.922268 21:-0.831446 22:0.113273 23:-1 24:-1 25:-0.700315 26:-1 27:-0.231943 28:-0.963055 29:-1 30:-1 31:-1 32:-0.96219 33:-0.862377 34:-1 35:-0.956606 36:-0.296561 37:-0.836897 38:-0.71493 39:-0.537812 40:-0.100354 41:-0.61029 42:-0.794116 43:-0.651959 44:0.374973 45:-1 46:-1 47:-0.660475 48:-1 49:-0.984804 50:-1 51:-1 52:-1 53:-0.381133 54:-1 55:-1 56:-0.45818 57:-1 58:-0.650977 59:-1 60:-0.892379 61:-0.792645 62:-1 63:-0.823527 64:-0.312493 65:-0.838234 66:-0.605194 67:-1 68:-1 69:-0.871378 70:-1 71:-0.887089 72:-1 73:-0.958393 74:-0.978829 75:-0.84598 76:-1 77:-0.358547 78:-1 79:-1 80:-0.401956 81:-0.207514 82:-0.757351 83:-0.655076 84:-0.470585 85:-0.486625 86:-0.660842 87:-0.786197 88:0.0741174 89:-0.929584 90:-1 91:-1 92:-1 93:-1 94:-1 95:-1 96:-1 97:-0.47844 98:-1 99:-0.790008 100:-0.554451 101:-1 102:-0.647056 103:-0.764704 104:-0.794116 105:-0.75 106:-0.882352 107:-0.882352 108:-0.735293 109:-0.735292 110:-0.490136 111:-1 112:-1 113:-1 114:-1 115:-1 116:-1 117:-1 118:-1 119:-1 120:-1 121:-0.339598 122:-1 123:-1 124:-1 125:-1 126:-1 127:-1 128:-0.823528 129:-0.519027 130:-1 131:-1 132:-0.716057 
7.540159747036117 0.4939539092478435 0 0 0.1883295227781501 0 3.679002111540947 4.112393723232434 4.043788684729115 1:-1 2:-1 3:-0.93854 4:-1 5:-1 6:-0.661547 7:-1 8:-1 9:-1 10:-1 11:-1 12:-1 13:-0.692551 14:-0.275135 15:-0.252041 16:-0.794611 17:-1 18:-0.45602 19:-0.753778 20:-1 21:-1 22:-0.0493933 23:-1 24:-1 25:-0.357378 26:-1 27:-0.873645 28:-1 29:-1 30:-1 31:-1 32:-0.746198 33:-1 34:-1 35:-0.951451 36:-0.777779 37:-0.909831 38:-0.819889 39:-0.233459 40:-0.602109 41:-0.569109 42:-1 43:-0.486908 44:-0.0305637 45:-1 46:-1 47:-0.737029 48:-1 49:-1 50:-0.91893 51:-1 52:-0.238981 53:-0.988652 54:-1 55:-1 56:-0.802342 57:-0.987463 58:-0.228179 59:-0.56098 60:-1 61:-0.770734 62:-0.594751 63:0.170725 64:-0.619922 65:-0.64228 66:0.0932754 67:-1 68:-1 69:0.558898 70:-1 71:-0.95263 72:-1 73:-1 74:-1 75:-0.892312 76:-0.989757 77:-0.858832 78:-1 79:-1 80:-0.33876 81:-0.474263 82:-1 83:-0.809314 84:-0.317069 85:-0.716188 86:-1 87:-0.763604 88:-0.252148 89:-1 90:-1 91:-1 92:-1 93:-1 94:-1 95:-1 96:-1 97:-0.858067 98:-1 99:-1 100:0.165741 101:-1 102:-0.93496 103:-0.93496 104:-1 105:-1 106:-1 107:-1 108:-1 109:-1 110:-0.971372 111:-1 112:-1 113:-1 114:-1 115:-1 116:-1 117:-1 118:-1 119:-0.390787 120:-1 121:-0.584415 122:-1 123:-1 124:-0.585798 125:0.0801259 126:-1 127:-1 128:-0.609761 129:-0.0693366 130:-0.741091 131:-0.848782 132:0.00493802 
8 0 0 0 0 7.761142592642268 0 0 0 1:-1 2:-1 3:-0.416335 4:-1 5:-1 6:-1 7:-1 8:-0.726055 9:-0.803648 10:-0.992045 11:-1 12:-0.675411 13:-0.930774 14:-0.860035 15:-0.41025 16:-0.537305 17:-0.78022 18:-1 19:-0.00157485 20:-0.477232 21:-0.622135 22:0.194083 23:-1 24:-1 25:-0.878379 26:-1 27:-1 28:-1 29:-1 30:-1 31:-0.692893 32:-0.469896 33:-1 34:-1 35:-1 36:-0.774718 37:-1 38:-0.908704 39:-0.222915 40:-0.731093 41:-1 42:-0.90769 43:-0.566539 44:-0.302701 45:-1 46:-1 47:-1 48:-1 49:-1 50:-1 51:-1 52:-1 53:-0.501424 54:-1 55:-1 56:-0.217779 57:-1 58:-0.934793 59:-0.802198 60:-0.437056 61:-1 62:-1 63:-1 64:-1 65:-1 66:-0.766823 67:-1 68:-1 69:-0.971522 70:-1 71:-0.975004 72:-0.969869 73:-1 74:-1 75:-0.309585 76:-0.89459 77:-0.80912 78:-1 79:-1 80:-0.478626 81:-0.407807 82:-0.184058 83:-0.742257 84:-0.538457 85:-0.0409572 86:-0.662087 87:-0.520696 88:0.501402 89:-0.885693 90:-1 91:-1 92:-1 93:-1 94:-1 95:-1 96:-1 97:-0.650514 98:-1 99:-0.990706 100:-0.322318 101:-1 102:-0.824176 103:-0.95604 104:-0.769224 105:-0.439548 106:-1 107:-0.95604 108:-0.406589 109:-0.604396 110:-0.62601 111:-0.96559 112:-1 113:-0.899358 114:-1 115:-0.990734 116:-1 117:-1 118:-1 119:-0.62264 120:-1 121:-0.527167 122:-1 123:-1 124:-0.650081 125:0.167971 126:-1 127:-1 128:-0.538457 129:-0.19133 130:-0.708364 131:-1 132:-0.139133 
6.037519637444171 0 0 0 0 0 0 0 0 1:-1 2:-1 3:-1 4:-1 5:-1 6:-1 7:-1 8:-0.558373 9:-1 10:-1 11:-1 12:-0.350575 13:-0.87162 14:-0.89645 15:-0.252041 16:-0.383823 17:-1 18:-1 19:-0.0151125 20:-0.226477 21:-0.813635 22:0.246436 23:-1 24:-1 25:-0.841634 26:-1 27:-1 28:-1 29:-1 30:-0.773741 31:-0.632091 32:-0.720267 33:-1 34:-0.716271 35:-0.974987 36:-0.666669 37:-0.909831 38:-0.819889 39:0.0220707 40:-0.403164 41:-1 42:-0.77236 43:-0.358636 44:0.214225 45:-1 46:-1 47:-1 48:-1 49:-1 50:-1 51:-1 52:-1 53:-1 54:-1 55:-1 56:0.425949 57:-1 58:-1 59:-1 60:-1 61:-1 62:-1 63:-1 64:-1 65:-1 66:-1 67:-1 68:-1 69:-1 70:-1 71:-1 72:-1 73:-1 74:-1 75:0.0876733 76:-0.931376 77:-0.993938 78:-0.47371 79:-1 80:-0.00812655 81:-0.649509 82:-1 83:-0.618628 84:0.0731699 85:-0.858094 86:-1 87:-0.290813 88:0.0962286 89:-1 90:-1 91:-1 92:-1 93:-1 94:-1 95:-1 96:-1 97:-1 98:-1 99:-1 100:-0.00573301 101:-1 102:-1 103:-1 104:-1 105:-1 106:-1 107:-1 108:-1 109:-1 110:-1 111:-1 112:-1 113:-1 114:-1 115:-1 116:-1 117:-1 118:-1 119:-0.344859 120:-1 121:-0.78585 122:-0.587036 123:-1 124:-0.171584 125:0.512203 126:-1 127:-1 128:-0.317069 129:0.063613 130:-0.827394 131:-0.848782 132:0.320595 
0.1861858893833706 0.8687547438588907 0.001741835380015207 5.940426279628374 0 0 0 0 0 1:-1 2:-1 3:-1 4:-1 5:-1 6:-1 7:-1 8:-1 9:-1 10:-1 11:-1 12:-1 13:-0.414017 14:-1 15:-1 16:-1 17:-1 18:-1 19:-1 20:-1 21:-1 22:-1 23:-1 24:-1 25:-0.888966 26:-1 27:-0.990873 28:-0.992538 29:-1 30:-1 31:-0.33837 32:-0.961795 33:-0.791423 34:-1 35:-0.754484 36:-0.286065 37:-0.172319 38:-0.628015 39:-0.413654 40:-0.543466 41:-0.0111897 42:-0.707462 43:-0.764517 44:1 45:-1 46:-1 47:-1 48:-1 49:-1 50:-1 51:-1 52:-1 53:-1 54:-1 55:-0.714368 56:-1 57:-0.00794815 58:-0.557218 59:0.0746191 60:-0.672321 61:-1 62:-0.721011 63:-0.283573 64:-0.883701 65:-1 66:-0.18904 67:-1 68:-1 69:-1 70:-1 71:-1 72:-1 73:-1 74:-1 75:-0.976654 76:-1 77:0.100732 78:-1 79:-0.964623 80:-1 81:-0.356549 82:-0.87686 83:-1 84:-0.8209 85:0.0420568 86:-0.655784 87:-1 88:-0.268761 89:-1 90:-1 91:-1 92:-1 93:-1 94:-1 95:-1 96:-1 97:-0.994305 98:-1 99:0.561567 100:-0.994193 101:-0.74592 102:-0.522392 103:-0.582088 104:-0.895518 105:-1 106:-0.522392 107:-0.522392 108:-0.731345 109:-0.73135 110:-0.0550173 111:-1 112:-1 113:-1 114:-1 115:-1 116:-1 117:-1 118:-1 119:-1 120:-1 121:-0.326482 122:-1 123:-1 124:-1 125:-1 126:-1 127:-1 128:-1 129:-1 130:-1 131:-1 132:-1 
0 0 0 0.6432824130838659 1.235760681363341 0 0 0 0 1:-1 2:-1 3:-1 4:-1 5:-1 6:-1 7:-1 8:-1 9:-1 10:-1 11:-1 12:0.018352 13:-0.920634 14:-0.584665 15:-0.499996 16:-0.633869 17:-0.7826 18:-1 19:-1 20:-0.310562 21:-0.750825 22:0.10527 23:-1 24:-1 25:-0.958165 26:-1 27:-1 28:-0.907187 29:-1 30:-1 31:-0.442289 32:-0.905 33:-0.913559 34:-1 35:-1 36:-0.554342 37:-0.879442 38:-0.759199 39:-0.487574 40:0.0639415 41:-0.711957 42:-0.939128 43:-0.657008 44:0.408951 45:-1 46:-1 47:-1 48:-1 49:-1 50:-1 51:-1 52:-1 53:-1 54:-1 55:-1 56:0.894022 57:-1 58:-1 59:-1 60:-1 61:-1 62:-1 63:-1 64:-1 65:-1 66:-1 67:-1 68:-1 69:-1 70:-1 71:-1 72:-1 73:-1 74:-1 75:-0.226044 76:-1 77:-0.542047 78:-1 79:-1 80:0.473435 81:-0.531406 82:-1 83:-1 84:0.304349 85:-0.620555 86:-1 87:-1 88:0.146193 89:-1 90:-1 91:-1 92:-1 93:-1 94:-1 95:-1 96:-1 97:-1 98:-1 99:-1 100:0.155558 101:-1 102:-1 103:-1 104:-1 105:-1 106:-1 107:-1 108:-1 109:-1 110:-1 111:-1 112:-1 113:-1 114:-1 115:-1 116:-1 117:-1 118:-1 119:-1 120:-1 121:-0.602468 122:-1 123:-1 124:0.522879 125:-0.711169 126:-1 127:-1 128:0.17391 129:-0.644503 130:-0.653843 131:-1 132:0.187597 
8 0 0 0 0 0 0 0 0 1:-1 2:-1 3:-0.802055 4:-1 5:-1 6:-1 7:-1 8:-0.811246 9:-0.802697 10:-1 11:-1 12:-0.269705 13:-0.882374 14:-0.905658 15:-0.659263 16:-0.313844 17:-1 18:-1 19:-0.326994 20:-0.295234 21:-0.830208 22:-0.0725808 23:-1 24:-1 25:-0.480008 26:-1 27:-0.945731 28:-0.985209 29:-1 30:-1 31:-0.3334 32:-0.818326 33:-1 34:-1 35:-0.878387 36:-0.493826 37:-0.589226 38:-0.71282 39:-0.883605 40:0.08758 41:-0.901857 42:-0.709629 43:-0.883134 44:0.019375 45:-1 46:-1 47:-1 48:-1 49:-1 50:-1 51:-1 52:-1 53:-0.731894 54:-1 55:-1 56:0.160184 57:-1 58:-0.912103 59:-0.73333 60:-0.891588 61:-0.791123 62:-1 63:-1 64:-0.769132 65:-0.837046 66:-0.805958 67:-0.945509 68:-1 69:-1 70:-1 71:-1 72:-1 73:-0.833397 74:-1 75:-0.491223 76:-0.750677 77:-1 78:-1 79:-1 80:-0.397537 81:-0.361312 82:-0.755552 83:-0.131311 84:-0.555557 85:-0.612124 86:-0.772219 87:-1 88:0.354985 89:-1 90:-1 91:-1 92:-1 93:-1 94:-1 95:-1 96:-1 97:-0.909696 98:-1 99:-1 100:-0.027443 101:-1 102:-0.76296 103:-0.940744 104:-1 105:-1 106:-1 107:-1 108:-1 109:-1 110:-0.9259 111:-1 112:-1 113:-1 114:-1 115:-1 116:-1 117:-1 118:-0.95315 119:-0.772487 120:-1 121:-0.619891 122:-1 123:-1 124:-0.528266 125:-0.606345 126:-1 127:-1 128:-0.466673 129:-0.152066 130:-0.52821 131:-0.724441 132:0.279242 
0 0 0.2343256683657876 8 7.711353670664432 0.2522829008354522 0 0 5.310297010173415 1:-1 2:-1 3:-1 4:-1 5:-1 6:-1 7:-1 8:-0.647224 9:-1 10:-1 11:-1 12:-1 13:-0.680249 14:-0.757389 15:0.460314 16:-1 17:-1 18:-0.840689 19:0.15373 20:-0.798635 21:-1 22:0.147783 23:-1 24:-1 25:-1 26:-1 27:-1 28:-1 29:-1 30:-0.394789 31:-1 32:-0.711915 33:-1 34:-1 35:-1 36:-0.479367 37:-1 38:-0.789012 39:-0.551028 40:0.165262 41:-0.873807 42:-0.946666 43:-0.699466 44:0.184631 45:-1 46:-1 47:-1 48:-1 49:-1 50:-1 51:-1 52:-0.851923 53:-1 54:-1 55:-1 56:0.551288 57:-1 58:-1 59:-1 60:-1 61:-1 62:-1 63:-1 64:-0.703168 65:-0.790472 66:-0.94839 67:-1 68:-1 69:-1 70:-1 71:-1 72:-1 73:-0.966033 74:-0.930855 75:-1 76:-0.740859 77:-1 78:-0.148274 79:-1 80:0.678313 81:-1 82:-1 83:-0.776618 84:0.257141 85:-0.833762 86:-1 87:-1 88:0.160755 89:-1 90:-1 91:-1 92:-1 93:-1 94:-1 95:-1 96:-1 97:-1 98:-1 99:-1 100:0.173286 101:-1 102:-1 103:-1 104:-1 105:-1 106:-1 107:-1 108:-1 109:-1 110:-1 111:-1 112:-1 113:-1 114:-1 115:-1 116:-1 117:-0.956319 118:-1 119:-1 120:-0.638629 121:-0.983153 122:-0.220283 123:-1 124:0.576946 125:-1 126:-1 127:-0.292867 128:-0.0857218 129:-0.53278 130:-0.797798 131:-0.645708 132:0.324703 
0 0 2.484785283547867 0 0 0 0 0 0 1:-1 2:-1 3:-0.831005 4:-1 5:-1 6:-1 7:-1 8:-1 9:-0.924199 10:-1 11:-1 12:-0.867967 13:-0.74344 14:-0.399204 15:-0.710691 16:-0.285002 17:-1 18:-1 19:-0.714286 20:-0.102421 21:-1 22:0.0682957 23:-1 24:-1 25:-0.907805 26:-1 27:-0.944396 28:-1 29:-1 30:-1 31:-0.931702 32:-0.945713 33:-0.830635 34:-1 35:-0.652913 36:-0.871068 37:-0.581474 38:-0.738751 39:-0.555255 40:-0.192008 41:-0.624998 42:-0.894339 43:-0.851153 44:0.340066 45:-1 46:-1 47:-1 48:-1 49:-1 50:-1 51:-1 52:-1 53:-0.438174 54:-1 55:-1 56:0.0436453 57:-1 58:-0.552199 59:-0.490563 60:-1 61:-1 62:-1 63:-1 64:-1 65:-1 66:-0.809857 67:-1 68:-1 69:-1 70:-1 71:-1 72:-1 73:-1 74:-1 75:-0.928928 76:-1 77:-0.171801 78:-1 79:-1 80:-0.616351 81:-0.593292 82:-1 83:-1 84:-0.207546 85:-0.176667 86:-0.854952 87:-1 88:0.0622152 89:-1 90:-1 91:-1 92:-1 93:-1 94:-1 95:-1 96:-1 97:-0.982651 98:-1 99:-1 100:-0.301362 101:-1 102:-0.24528 103:-0.849056 104:-1 105:-1 106:-1 107:-1 108:-0.660377 109:-0.830188 110:-0.268078 111:-1 112:-1 113:-1 114:-1 115:-1 116:-1 117:-1 118:-1 119:-1 120:-1 121:-0.168254 122:-1 123:-1 124:-1 125:-1 126:-1 127:-1 128:0.01887 129:-0.537178 130:-0.899855 131:-1 132:-0.665721 
0 0 0 0 8 0 0 0 4.528063639463899 1:-1 2:-0.755524 3:-0.972822 4:-1 5:-0.878172 6:-0.972281 7:-0.961747 8:-0.94169 9:-0.991873 10:-0.958504 11:-1 12:-1 13:-0.784309 14:-0.634351 15:0.320566 16:-0.758248 17:-0.80862 18:-0.719876 19:0.593991 20:-0.848258 21:-0.890313 22:0.605968 23:-1 24:-1 25:-0.390374 26:-1 27:-0.865868 28:-0.865954 29:-1 30:-1 31:-1 32:-0.671555 33:-0.988652 34:-1 35:-1 36:-0.542261 37:-0.787731 38:-0.761503 39:-0.624068 40:-0.531659 41:-0.556217 42:-0.839235 43:-0.849023 44:-0.0385169 45:-1 46:-1 47:-0.948313 48:-1 49:-1 50:-1 51:-1 52:-0.581131 53:-0.949799 54:-1 55:-1 56:-0.00532693 57:-0.996303 58:-0.772883 59:-0.91387 60:-1 61:-1 62:-1 63:-0.425846 64:-0.627199 65:-0.89473 66:-0.651042 67:-1 68:-1 69:-0.512064 70:-1 71:-1 72:-1 73:-1 74:-1 75:-0.148993 76:-1 77:-0.715559 78:-1 79:-1 80:-0.0271179 81:-0.381186 82:-1 83:-1 84:-0.138762 85:-0.498913 86:-1 87:-1 88:-0.0160804 89:-1 90:-1 91:-1 92:-1 93:-1 94:-1 95:-1 96:-1 97:-0.897702 98:-1 99:-1 100:-0.0731207 101:-1 102:-1 103:-0.96172 104:-1 105:-1 106:-1 107:-1 108:-1 109:-1 110:-0.992732 111:-1 112:-1 113:-1 114:-1 115:-1 116:-1 117:-1 118:-1 119:-0.437686 120:-1 121:-0.58303 122:-1 123:-1 124:-0.085878 125:-0.110045 126:-1 127:-1 128:-0.19617 129:-0.374041 130:-0.796832 131:-1 132:0.00388091 
1.666397108133164 0 0 0 0 0 0 0 0 1:-1 2:-1 3:-1 4:-1 5:-1 6:-1 7:-1 8:-0.897042 9:-1 10:-1 11:-1 12:-1 13:-0.534543 14:-0.849272 15:-0.18344 16:-0.850518 17:-1 18:-1 19:-0.28317 20:-0.937449 21:-1 22:-0.26078 23:-1 24:-0.958067 25:-0.524841 26:-1 27:-1 28:-1 29:-0.972186 30:-0.949194 31:-1 32:-0.694142 33:-1 34:-1 35:-0.898913 36:-0.595657 37:-0.737489 38:-0.639507 39:-0.535078 40:-0.131223 41:-0.607984 42:-0.734913 43:-0.626557 44:0.435887 45:-1 46:-1 47:-1 48:-1 49:-1 50:-1 51:-1 52:-0.383709 53:-1 54:-1 55:-1 56:-0.140191 57:-0.947776 58:-0.789354 59:-0.573958 60:-0.913397 61:-1 62:-1 63:-0.00591602 64:-0.72338 65:-0.869826 66:-0.451276 67:-1 68:-1 69:-0.234215 70:-1 71:-1 72:-1 73:-1 74:-0.934226 75:-0.215085 76:-1 77:-0.902008 78:-0.907162 79:-1 80:0.20315 81:-0.489804 82:-1 83:-1 84:-0.00592199 85:-0.483588 86:-0.909026 87:-1 88:0.149231 89:-1 90:-1 91:-1 92:-1 93:-1 94:-1 95:-1 96:-1 97:-1 98:-1 99:-1 100:-0.0987308 101:-1 102:-1 103:-1 104:-1 105:-1 106:-1 107:-1 108:-1 109:-1 110:-1 111:-1 112:-1 113:-1 114:-1 115:-1 116:-1 117:-1 118:-1 119:-0.485199 120:-1 121:-0.635399 122:-0.880796 123:-1 124:-0.246337 125:0.257809 126:-1 127:-1 128:-0.289937 129:-0.2259 130:-0.937189 131:-0.889944 132:-0.0935714 
0 0 0 0 0 0 0 0.06367060750176445 0 1:-1 2:-1 3:-1 4:-1 5:-1 6:-1 7:-1 8:-1 9:-1 10:-0.975139 11:-1 12:0.137618 13:-0.960683 14:-0.689349 15:-0.626021 16:-0.383823 17:-0.7561 18:-1 19:-1 20:-0.0975585 21:-0.720452 22:0.17329 23:-1 24:-1 25:-1 26:-1 27:-1 28:-1 29:-1 30:-1 31:-1 32:-0.56422 33:-1 34:-0.546188 35:-1 36:-0.833334 37:-1 38:-0.932458 39:0.341463 40:-0.552373 41:-1 42:-1 43:-0.230363 44:0.098983 45:-1 46:-1 47:-1 48:-1 49:-1 50:-1 51:-1 52:-1 53:-1 54:-1 55:-1 56:0.612739 57:-1 58:-1 59:-1 60:-1 61:-1 62:-1 63:-1 64:-1 65:-1 66:-1 67:-1 68:-1 69:-1 70:-1 71:-1 72:-1 73:-1 74:-1 75:-0.73373 76:-0.924015 77:-1 78:-0.00794946 79:-1 80:0.487803 81:-1 82:-1 83:-0.713971 84:0.463409 85:-1 86:-1 87:-0.290813 88:0.446572 89:-1 90:-1 91:-1 92:-1 93:-1 94:-1 95:-1 96:-1 97:-1 98:-1 99:-1 100:0.0733937 101:-1 102:-1 103:-1 104:-1 105:-1 106:-1 107:-1 108:-1 109:-1 110:-1 111:-1 112:-1 113:-1 114:-1 115:-1 116:-1 117:-1 118:-1 119:-0.44334 120:-1 121:-0.885832 122:-0.272109 123:-1 124:0.242617 125:-0.0278866 126:-1 127:-1 128:0.02439 129:-0.202302 130:-0.741091 131:-0.773173 132:0.172271 
0 0 4.97401523538188 0 1.46196866244643 0 6.13089636487718 0 1.889725876458218 1:-1 2:-0.908438 3:-1 4:-1 5:-1 6:-0.580711 7:-1 8:-1 9:-0.593152 10:-0.824935 11:-1 12:-0.944772 13:-0.989869 14:-0.556975 15:-0.733338 16:-0.34096 17:-0.56522 18:-0.636365 19:-0.736636 20:-0.49441 21:-0.501673 22:0.4444 23:-1 24:-1 25:-1 26:-1 27:-1 28:-0.271506 29:-1 30:-1 31:-1 32:-0.851773 33:-0.485016 34:-1 35:-1 36:-1 37:-0.469567 38:-0.494316 39:-1 40:-0.893602 41:-0.366304 42:-0.634785 43:-1 44:-0.146019 45:-1 46:-0.991486 47:-0.956565 48:-1 49:-0.992778 50:-0.995696 51:-1 52:-0.978452 53:-0.749317 54:-1 55:0.18527 56:-0.938435 57:-1 58:-0.638837 59:-0.139131 60:-0.300001 61:-0.877386 62:-0.620733 63:0.147829 64:-0.322467 65:-0.617398 66:0.606791 67:-1 68:-1 69:-1 70:-1 71:-1 72:-1 73:-1 74:-1 75:-1 76:-1 77:0.284174 78:-1 79:-1 80:-1 81:-1 82:-1 83:-1 84:-1 85:-0.848215 86:-0.665762 87:-1 88:-0.902078 89:-1 90:-1 91:-1 92:-1 93:-1 94:-1 95:-1 96:-1 97:-0.969859 98:-1 99:0.401934 100:-0.714866 101:-1 102:-0.51304 103:-0.930432 104:-1 105:-1 106:-0.51304 107:-0.895656 108:-0.843484 109:-0.843472 110:-0.29903 111:-1 112:-1 113:-1 114:-1 115:-1 116:-1 117:-1 118:-1 119:-1 120:-1 121:-0.271866 122:-1 123:-1 124:-1 125:-1 126:-1 127:-1 128:-1 129:-1 130:-1 131:-1 132:-1 
0 0 0 0 0 1.190099302111306 0 0 0 1:-1 2:-1 3:-0.927162 4:-1 5:-0.980418 6:-0.407243 7:-1 8:-1 9:-0.862794 10:-1 11:-1 12:-0.928878 13:-0.861791 14:-0.689349 15:-0.563691 16:-0.383823 17:-0.7561 18:-0.864007 19:-0.630667 20:-0.355396 21:-0.347721 22:0.220003 23:-1 24:-1 25:-1 26:-1 27:-1 28:-0.990199 29:-0.825861 30:-1 31:-1 32:-0.455232 33:-1 34:-1 35:-0.930965 36:-0.88889 37:-0.819662 38:-0.954972 39:-0.872243 40:-0.552373 41:-0.676832 42:-0.977236 43:-1 44:-0.439167 45:-0.951077 46:-0.990492 47:-1 48:-1 49:-0.991935 50:-1 51:-1 52:-1 53:-0.257489 54:-1 55:-1 56:-0.890684 57:-1 58:-0.517619 59:-0.487809 60:-0.107533 61:-0.770734 62:-0.74672 63:-0.90244 64:-1 65:-0.91057 66:-0.0290905 67:-1 68:-0.750692 69:-1 70:-1 71:-1 72:-0.783472 73:-0.867595 74:-1 75:-1 76:-0.723184 77:-0.746249 78:-1 79:-1 80:-1 81:-0.474263 82:0.40854 83:-1 84:-0.7561 85:-0.219518 86:0.0625072 87:-1 88:0.087678 89:-1 90:-1 91:-1 92:-1 93:-1 94:-1 95:-0.931085 96:-1 97:-0.958885 98:-1 99:-0.77727 100:-0.392115 101:-1 102:-0.544712 103:-0.96748 104:-1 105:-0.723582 106:-0.64228 107:-0.8374 108:-0.17073 109:-0.70732 110:-0.11016 111:-1 112:-1 113:-1 114:-1 115:-1 116:-1 117:-1 118:-1 119:-1 120:-1 121:-0.274896 122:-1 123:-1 124:-1 125:-1 126:-1 127:-1 128:-1 129:-1 130:-0.913697 131:-1 132:-0.98494 
0 0 1.435700556232894 0 0 0 1.062040573334971 0 0 1:-1 2:-1 3:-0.887397 4:-1 5:-1 6:-0.908128 7:-1 8:-1 9:-0.339214 10:-1 11:-1 12:-1 13:-0.84136 14:-0.86732 15:-0.0416683 16:0.0526316 17:-0.58334 18:-0.912876 19:0.26191 20:0.101195 21:0.193907 22:-0.132861 23:-1 24:-1 25:-0.62458 26:-0.747624 27:-0.938253 28:-0.981065 29:-0.796031 30:-1 31:-0.573414 32:-0.80408 33:-1 34:-1 35:-0.888813 36:-0.715281 37:-0.0757619 38:-0.423075 39:-0.672625 40:0.529407 41:-0.447911 42:-0.183336 43:-0.506946 44:-0.109817 45:-0.83454 46:-1 47:-0.973227 48:-1 49:-1 50:-1 51:-1 52:-1 53:-0.410766 54:-1 55:-1 56:-0.899399 57:-0.923418 58:-1 59:-1 60:-1 61:-1 62:-1 63:-1 64:-1 65:-1 66:0.029301 67:-0.895388 68:-0.726627 69:-1 70:-1 71:-0.995174 72:-0.984503 73:-0.91826 74:-1 75:-0.980264 76:-0.965589 77:-0.446743 78:-1 79:-1 80:-1 81:-1 82:-1 83:-1 84:-1 85:-1 86:-1 87:-1 88:0.155819 89:-1 90:-1 91:-1 92:-1 93:-1 94:-1 95:-1 96:-1 97:-0.725492 98:-1 99:-0.677162 100:-0.533521 101:-1 102:-1 103:-1 104:-1 105:-1 106:-1 107:-1 108:-1 109:-1 110:-0.24291 111:-1 112:-1 113:-1 114:-1 115:-1 116:-1 117:-1 118:-1 119:-1 120:-1 121:-0.263205 122:-1 123:-1 124:-1 125:-1 126:-1 127:-1 128:-1 129:-1 130:-1 131:-1 132:-1 
0 0 0 0 0 7.766420408892857 0 0 0 1:-1 2:-1 3:-0.786852 4:-0.906641 5:-1 6:-0.947826 7:-1 8:-0.119659 9:-1 10:-0.902367 11:-1 12:-0.861228 13:-0.99816 14:-0.188346 15:-0.699345 16:-0.463368 17:-0.41176 18:-0.754008 19:-0.2577 20:-0.689073 21:-0.325784 22:0.656516 23:-1 24:-1 25:-0.65113 26:-1 27:-1 28:-0.985665 29:-1 30:-1 31:-1 32:-0.476706 33:-1 34:-1 35:-1 36:-0.732023 37:-0.945632 38:-0.891402 39:-0.460781 40:-0.460205 41:-1 42:-0.890195 43:-0.767973 44:-0.262313 45:-1 46:-1 47:-0.847978 48:-1 49:-1 50:-1 51:-1 52:-0.507284 53:-0.877959 54:-1 55:-1 56:0.115204 57:-1 58:-0.767318 59:-0.911764 60:-0.856505 61:-1 62:-0.755654 63:-0.882352 64:-0.847221 65:-0.784312 66:-0.825434 67:-0.986798 68:-1 69:-0.725486 70:-1 71:-1 72:-1 73:-1 74:-1 75:-0.379937 76:-0.545186 77:-1 78:-1 79:-1 80:-0.202608 81:-0.78867 82:-0.191169 83:-0.310152 84:-0.294113 85:-1 86:-1 87:-0.572394 88:-0.131552 89:-1 90:-1 91:-1 92:-1 93:-1 94:-1 95:-1 96:-1 97:-1 98:-1 99:-1 100:0.0735757 101:-1 102:-0.882352 103:-1 104:-1 105:-1 106:-1 107:-1 108:-1 109:-0.823528 110:-0.937148 111:-1 112:-1 113:-1 114:-1 115:-1 116:-1 117:-0.85206 118:-0.969731 119:-1 120:-1 121:-0.997996 122:-0.234167 123:-1 124:-0.625384 125:-1 126:-0.931372 127:-0.393377 128:-0.588233 129:-0.438864 130:-0.375561 131:-0.179406 132:0.433634 
5.004638314738846 0 0 5.952198904028785 0 0 2.186247845264561 0 0 1:-1 2:-1 3:-0.257326 4:-0.860614 5:-0.983357 6:-0.965917 7:-1 8:-0.880501 9:-0.975018 10:-0.890652 11:-1 12:-0.927476 13:-0.990391 14:-0.285184 15:-0.765308 16:-0.570358 17:-0.69388 18:-0.701301 19:-0.536449 20:-0.838194 21:-0.532184 22:0.435985 23:-1 24:-1 25:-0.425975 26:-1 27:-1 28:-0.987514 29:-0.967715 30:-1 31:-1 32:-0.586773 33:-1 34:-1 35:-1 36:-0.860545 37:-0.830243 38:-0.858714 39:-0.599129 40:-0.500606 41:-0.864797 42:-0.857144 43:-0.758506 44:-0.240832 45:-1 46:-1 47:0.271184 48:-0.905625 49:-1 50:-1 51:-1 52:-0.75475 53:-0.835399 54:-1 55:-1 56:-0.522245 57:-1 58:-0.455105 59:-1 60:-1 61:-0.856124 62:-0.49137 63:-0.755103 64:-0.920494 65:-0.663268 66:-0.533353 67:-1 68:-1 69:-0.0145491 70:-1 71:-1 72:-1 73:-0.894518 74:-1 75:-0.687641 76:-0.603821 77:-1 78:-1 79:-1 80:0.0374201 81:-1 82:-1 83:-0.880334 84:-0.0816298 85:-1 86:-1 87:-0.851649 88:-0.434834 89:-1 90:-1 91:-1 92:-1 93:-1 94:-1 95:-1 96:-1 97:-0.504484 98:-1 99:-1 100:-0.164424 101:-1 102:-0.836736 103:-0.918368 104:-0.714288 105:-1 106:-1 107:-1 108:-0.816328 109:-0.816328 110:-0.682688 111:-1 112:-1 113:-1 114:-1 115:-1 116:-1 117:-1 118:-0.907711 119:-0.151725 120:-0.604557 121:-1 122:-0.911051 123:-1 124:-0.480134 125:-0.864433 126:-0.571432 127:-0.494901 128:-0.204078 129:-0.833134 130:-0.404244 131:-0.715309 132:0.302021 
0 0 0.8857751589193255 0 0 0 0 0 0 1:-1 2:-1 3:-0.903711 4:-1 5:-1 6:-0.976426 7:-1 8:-1 9:-0.326244 10:-1 11:-1 12:-0.74924 13:-0.943523 14:-0.67958 15:-0.710691 16:-0.417415 17:-0.74842 18:-1 19:-0.619038 20:-0.268647 21:-0.71165 22:-0.0226385 23:-1 24:-1 25:-0.947472 26:-1 27:-1 28:-1 29:-0.723722 30:-1 31:-0.785987 32:-0.765814 33:-1 34:-1 35:-0.923939 36:-0.656187 37:-0.790737 38:-0.686501 39:-0.703503 40:-0.692198 41:-0.416667 42:-0.894339 43:-0.900774 44:0.0559591 45:-0.854468 46:-1 47:-1 48:-1 49:-1 50:-1 51:-1 52:-1 53:-0.509163 54:-1 55:-1 56:-0.578803 57:-1 58:-0.70147 59:-0.433953 60:-0.355634 61:-0.645272 62:-1 63:-1 64:-0.803977 65:-0.169807 66:-0.222304 67:-1 68:-0.943897 69:-1 70:-1 71:-1 72:-1 73:-0.846826 74:-1 75:-1 76:-0.942215 77:-0.35116 78:-1 79:-1 80:-1 81:-0.593292 82:-0.377355 83:-0.704964 84:-0.471701 85:-0.231561 86:-0.22642 87:-1 88:0.0334158 89:-1 90:-1 91:-1 92:-1 93:-1 94:-1 95:-1 96:-1 97:-0.683723 98:-1 99:-0.528848 100:-0.662403 101:-1 102:-0.698112 103:-0.698112 104:-1 105:-1 106:-0.748424 107:-0.698112 108:-0.849052 109:-0.660376 110:-0.182201 111:-1 112:-1 113:-1 114:-1 115:-1 116:-1 117:-1 118:-1 119:-1 120:-1 121:-0.0919909 122:-1 123:-1 124:-1 125:-1 126:-1 127:-1 128:-0.924532 129:-0.794296 130:-1 131:-1 132:-0.965458 
8 0 0 0 0 0 5.123754460341042 0 0 1:-1 2:-1 3:-1 4:-1 5:-1 6:-1 7:-1 8:-0.891232 9:-0.974735 10:-0.329121 11:-1 12:-0.530558 13:-0.996111 14:-0.767005 15:-0.906497 16:-0.127082 17:-0.14634 18:-0.948998 19:-0.630667 20:-0.226477 21:0.118192 22:0.81833 23:-1 24:-1 25:-1 26:-1 27:-1 28:-1 29:-1 30:-0.959746 31:-1 32:-0.408029 33:-1 34:-1 35:-1 36:-1 37:-1 38:-0.459662 39:-0.520904 40:-1 41:-1 42:-0.590243 43:-0.903787 44:-0.205797 45:-1 46:-1 47:-1 48:-1 49:-1 50:-1 51:-1 52:-0.507038 53:-0.983354 54:-1 55:-1 56:0.0822975 57:-1 58:-0.782923 59:-0.78049 60:-1 61:-1 62:-0.772041 63:-0.707319 64:-0.904973 65:-0.865844 66:-0.771193 67:-1 68:-1 69:-0.261322 70:-1 71:-1 72:-1 73:-1 74:-0.791517 75:-0.23395 76:-0.984975 77:-1 78:-0.786 79:-1 80:-0.586718 81:-0.737131 82:-0.899383 83:-0.713971 84:-0.341465 85:-0.893562 86:-0.625003 87:-0.113502 88:-0.121945 89:-1 90:-1 91:-1 92:-1 93:-1 94:-1 95:-1 96:-1 97:-1 98:-1 99:-1 100:-0.041951 101:-1 102:-1 103:-1 104:-1 105:-1 106:-1 107:-1 108:-1 109:-1 110:-1 111:-1 112:-1 113:-1 114:-1 115:-1 116:-1 117:-1 118:-1 119:-0.174482 120:-1 121:-0.807407 122:-0.688159 123:-1 124:-0.767005 125:0.620215 126:-0.573168 127:-1 128:-0.926824 129:0.0968422 130:-0.482182 131:-1 132:0.232155 
0 0 2.036694096117416 0 0 0 0 0 2.701942844848261 1:-1 2:-1 3:-0.0328334 4:-1 5:-1 6:-1 7:-1 8:-1 9:-1 10:-0.939723 11:-1 12:-1 13:-0.752106 14:-0.32691 15:-0.563691 16:-0.794611 17:-0.7561 18:-0.694016 19:-0.261334 20:-0.871081 21:-0.906817 22:0.0166769 23:-1 24:-1 25:-0.782224 26:-1 27:0.0454895 28:-0.95664 29:-1 30:-1 31:-1 32:-0.816129 33:-0.861537 34:-1 35:-1 36:-0.666669 37:-0.729493 38:-0.707314 39:-0.616729 40:-0.552373 41:-0.569109 42:-0.840652 43:-0.615181 44:-0.101051 45:-1 46:-1 47:0.138675 48:-1 49:-0.908249 50:-1 51:-1 52:-0.97718 53:-0.887717 54:-1 55:-1 56:-0.64843 57:-0.951135 58:-0.614095 59:-0.487809 60:-0.583522 61:-0.656101 62:-0.74672 63:-0.512198 64:-0.429883 65:-0.73171 66:-0.218849 67:-1 68:-1 69:-0.805878 70:-1 71:-0.758596 72:-1 73:-0.979068 74:-1 75:-0.974169 76:-1 77:-0.336988 78:-1 79:-1 80:-0.614277 81:-0.211394 82:-0.865855 83:-0.904657 84:-0.414641 85:-0.432377 86:-0.9375 87:-1 88:0.0467523 89:-1 90:-1 91:-0.983822 92:-1 93:-1 94:-1 95:-1 96:-1 97:-0.867629 98:-1 99:-1 100:-0.284202 101:-1 102:-0.577232 103:-0.8374 104:-1 105:-1 106:-1 107:-1 108:-0.7561 109:-0.70732 110:-0.497786 111:-1 112:-1 113:-1 114:-1 115:-1 116:-1 117:-1 118:-1 119:-1 120:-1 121:-0.382276 122:-1 123:-1 124:-1 125:-1 126:-1 127:-1 128:-0.317069 129:-0.601151 130:-0.870546 131:-1 132:-0.483482 
0 0 0 0 0 0 1.175206457206224 2.684565931353719 0 1:-1 2:-1 3:-0.692964 4:-1 5:-1 6:-0.971531 7:-1 8:-0.950093 9:-1 10:-0.628608 11:-1 12:-1 13:-0.730337 14:-0.425404 15:-0.769418 16:-0.841709 17:-0.3985 18:-0.811349 19:-0.886156 20:-0.761551 21:-0.741473 22:-0.112116 23:-1 24:-1 25:-0.796952 26:-1 27:-0.992345 28:-0.80602 29:-0.971682 30:-1 31:-1 32:-0.575168 33:-1 34:-1 35:-1 36:-0.948627 37:-0.874917 38:-0.646037 39:-0.763689 40:-0.816006 41:-0.800746 42:-0.726317 43:-0.881367 44:-0.13448 45:-1 46:-1 47:-0.168329 48:-0.976357 49:-1 50:-1 51:-1 52:-0.270265 53:-1 54:-1 55:-1 56:-1 57:-0.794963 58:-0.509277 59:-0.390969 60:-0.559811 61:-1 62:-0.578364 63:-0.278197 64:-0.648502 65:-0.751884 66:-0.112536 67:-1 68:-1 69:-0.251989 70:-1 71:-0.990434 72:-1 73:-0.739224 74:-0.928263 75:-1 76:-0.962772 77:-0.939438 78:-1 79:-1 80:-0.796152 81:-0.432747 82:-0.0695476 83:-0.735479 84:-0.729329 85:-0.343812 86:-0.306386 87:-0.78137 88:0.208583 89:-1 90:-1 91:-0.411508 92:-0.867133 93:-1 94:-1 95:-1 96:-0.219454 97:-0.9809 98:-1 99:-0.992884 100:-0.525279 101:-1 102:-0.5188 103:-0.849624 104:-1 105:-0.744356 106:-0.819552 107:-0.939848 108:-0.819544 109:-0.661654 110:-0.522891 111:-1 112:-1 113:-0.974337 114:-1 115:-1 116:-1 117:-1 118:-1 119:-1 120:-1 121:-0.285144 122:-1 123:-1 124:-0.952122 125:-0.80021 126:-1 127:-1 128:-0.729329 129:-0.323756 130:-1 131:-1 132:-0.571164 
1.33508502819685 0 2.797109925136199 0 3.341505508734796 0 0 0 0 1:-1 2:-1 3:-1 4:-1 5:-1 6:-1 7:-1 8:-1 9:-0.920121 10:-0.592152 11:-1 12:-0.710142 13:-1 14:-0.363159 15:-1 16:-0.0175411 17:-0.33334 18:-1 19:-1 20:-0.471428 21:-0.235902 22:0.373413 23:-1 24:-1 25:-1 26:-1 27:-1 28:-1 29:-1 30:-1 31:-1 32:-0.366666 33:-1 34:-1 35:-1 36:-1 37:-1 38:-0.630767 39:0.047622 40:-1 41:-1 42:-1 43:-1 44:-0.345649 45:-1 46:-1 47:-1 48:-1 49:-1 50:-1 51:-1 52:-1 53:0.0524986 54:-1 55:-1 56:-0.312655 57:-1 58:-1 59:-0.699994 60:-1 61:-1 62:-1 63:-1 64:-0.48056 65:-0.633326 66:-0.882663 67:-1 68:-1 69:-1 70:-1 71:-1 72:-1 73:-1 74:-1 75:-0.563096 76:-1 77:-0.897727 78:-1 79:-1 80:-1 81:-0.281492 82:-0.724994 83:-1 84:-0.400001 85:-0.12727 86:-0.487504 87:-0.030778 88:0.404615 89:-1 90:-1 91:-1 92:-1 93:-1 94:-1 95:-1 96:-1 97:-0.543014 98:-1 99:-0.931927 100:-0.487453 101:-1 102:-0.866664 103:-0.333336 104:-1 105:-1 106:-0.866664 107:-0.866664 108:-0.400001 109:-0.699994 110:-0.193454 111:-1 112:-1 113:-1 114:-1 115:-1 116:-1 117:-1 118:-1 119:-1 120:-1 121:-0.197131 122:-1 123:-1 124:-1 125:-1 126:-1 127:-1 128:-1 129:0.0902029 130:-0.646158 131:-1 132:-0.535865 
1.19978776171847 0 0 0 0 8 0 0 0 1:-1 2:-1 3:-0.984415 4:-1 5:-1 6:-1 7:-1 8:-1 9:-0.129959 10:-0.831785 11:-1 12:-1 13:-0.975809 14:-0.680242 15:-1 16:-0.154375 17:-0.74896 18:-1 19:-0.74657 20:-0.159592 21:-0.520425 22:0.134146 23:-1 24:-1 25:-0.978751 26:-1 27:-1 28:-1 29:-1 30:-1 31:-0.228745 32:-0.604986 33:-1 34:-1 35:-1 36:-0.885637 37:-1 38:-0.675573 39:-0.211003 40:-0.846423 41:-0.889124 42:-0.789121 43:-0.471872 44:-0.153298 45:-1 46:-1 47:-1 48:-1 49:-1 50:-1 51:-1 52:-1 53:0.398482 54:-1 55:-1 56:-1 57:-0.942775 58:-1 59:-1 60:-1 61:-1 62:-1 63:-1 64:-1 65:-1 66:-1 67:-1 68:-1 69:-1 70:-1 71:-1 72:-1 73:-0.997052 74:-1 75:0.305092 76:-0.994804 77:-0.874735 78:-1 79:-1 80:-0.773134 81:0.172465 82:-0.447695 83:-0.803732 84:-0.548117 85:-0.488772 86:-0.678339 87:-0.878342 88:0.148429 89:-1 90:-1 91:-1 92:-1 93:-1 94:-1 95:-1 96:-0.994647 97:-0.456255 98:-1 99:-0.303155 100:-0.98573 101:-0.92868 102:-0.832632 103:-0.598328 104:-0.0627551 105:-1 106:-0.966528 107:-0.665272 108:-0.297077 109:-0.774064 110:0.13863 111:-1 112:-1 113:-1 114:-1 115:-1 116:-1 117:-1 118:-0.983407 119:-1 120:-1 121:-0.359046 122:-1 123:-1 124:-1 125:-1 126:-1 127:-1 128:-0.949792 129:-0.384196 130:-0.644672 131:-0.844355 132:-0.539562 
0 0 0 0 0 0 3.433944865453177 0 0.7232292478478404 1:-1 2:-1 3:-1 4:-1 5:-1 6:-0.932978 7:-1 8:-1 9:-1 10:-0.646782 11:-1 12:-1 13:-0.781363 14:-0.446228 15:-0.499996 16:-0.633869 17:-0.71014 18:-0.787881 19:-1 20:-1 21:-1 22:0.209236 23:-1 24:-1 25:-1 26:-1 27:-1 28:-0.947384 29:-1 30:-1 31:-1 32:-0.407652 33:-1 34:-1 35:-1 36:-1 37:-0.919635 38:-0.759199 39:-0.658388 40:-0.689689 41:-0.951995 42:-1 43:-1 44:-0.23785 45:-1 46:-1 47:-0.83634 48:-0.874069 49:-0.995674 50:-1 51:-1 52:0.33048 53:-1 54:-1 55:-1 56:-0.815475 57:-1 58:-0.22609 59:-1 60:-0.946972 61:-0.693466 62:-0.503346 63:-0.478262 64:-0.435384 65:-0.521742 66:-0.163354 67:-1 68:-1 69:-0.193986 70:-1 71:-0.855277 72:-1 73:-0.985184 74:-0.963812 75:-1 76:-0.806988 77:-1 78:-1 79:-1 80:-0.312395 81:-0.687597 82:-0.461951 83:-0.49012 84:-0.347825 85:-0.620555 86:-0.498635 87:-0.473242 88:0.175884 89:-1 90:-1 91:-1 92:-1 93:-1 94:-1 95:-1 96:-0.693369 97:-1 98:-1 99:-1 100:0.0664474 101:-1 102:-0.91304 103:-1 104:-1 105:-1 106:-0.942032 107:-0.971016 108:-0.86956 109:-0.934786 110:-0.931704 111:-0.977867 112:-1 113:-0.79136 114:-1 115:-1 116:-1 117:-1 118:-0.955561 119:-0.453747 120:-1 121:-0.692855 122:-0.716836 123:-1 124:-0.400083 125:-0.518633 126:-0.797098 127:-0.910331 128:-0.217398 129:-0.70375 130:-0.307697 131:-0.528267 132:-0.192525 
0 1.08116610604346 0 0 0 8 0 0 0 1:-1 2:-1 3:0.123094 4:-1 5:-0.971644 6:-1 7:-1 8:-1 9:-1 10:-1 11:-1 12:-1 13:-0.770774 14:-0.657086 15:-0.233335 16:-0.805667 17:-1 18:-0.774825 19:0.164844 20:-0.837358 21:-1 22:-0.0275288 23:-1 24:-1 25:-0.180142 26:-1 27:-0.785336 28:-1 29:-0.993124 30:-1 31:-1 32:-0.696943 33:-1 34:-1 35:-0.993747 36:-0.316665 37:-0.914689 38:-0.872189 39:-0.516488 40:-0.388237 41:-0.847121 42:-0.892306 43:-0.75726 44:-0.0727088 45:-0.966791 46:-1 47:-0.398339 48:-1 49:-0.986866 50:-1 51:-1 52:-1 53:-0.374795 54:-1 55:-1 56:-0.657421 57:-0.996769 58:-0.863082 59:-0.930772 60:-0.831126 61:-0.674628 62:-0.856219 63:-0.907696 64:-0.820199 65:-0.830776 66:-0.762622 67:-0.980407 68:-1 69:-0.740727 70:-1 71:-0.987804 72:-1 73:-0.77533 74:-1 75:-0.51212 76:-0.709938 77:-1 78:-1 79:-1 80:-0.11367 81:-0.585467 82:-1 83:-0.909793 84:-0.261545 85:-0.664331 86:-1 87:-1 88:0.00461148 89:-1 90:-1 91:-1 92:-1 93:-1 94:-1 95:-1 96:-1 97:-0.906636 98:-1 99:-1 100:-0.199139 101:-1 102:-0.692304 103:-0.846152 104:-0.676922 105:-1 106:-1 107:-1 108:-0.400001 109:-0.930772 110:-0.576969 111:-1 112:-1 113:-1 114:-1 115:-1 116:-1 117:-0.982667 118:-0.98877 119:-0.945463 120:-0.995443 121:-0.539425 122:-1 123:-1 124:-0.706072 125:-0.69342 126:-0.353843 127:-0.809623 128:-0.400001 129:-0.433942 130:-0.428405 131:-0.856929 132:0.231093 
0 0 0 0 0 8 0 0 0 1:-1 2:-1 3:-0.914045 4:-1 5:-1 6:-0.991233 7:-1 8:-1 9:-0.183883 10:-1 11:-1 12:-1 13:-0.777557 14:-0.843719 15:-0.90593 16:-0.483368 17:-0.8773 18:-1 19:-0.814198 20:-0.481154 21:-0.718733 22:-0.507219 23:-1 24:-1 25:-0.921841 26:-1 27:-1 28:-1 29:-1 30:-1 31:0.259213 32:-0.90796 33:-0.91026 34:-1 35:-1 36:-0.664619 37:-0.727829 38:-0.55828 39:-0.614372 40:-0.474557 41:-0.674844 42:-0.725152 43:-0.709611 44:0.23382 45:-1 46:-1 47:-1 48:-1 49:-1 50:-1 51:-1 52:-1 53:-0.211478 54:-1 55:-1 56:-1 57:-0.473807 58:-0.854396 59:-0.447849 60:-0.730618 61:-1 62:-1 63:-1 64:-1 65:-1 66:-0.71628 67:-1 68:-1 69:-1 70:-1 71:-1 72:-1 73:-1 74:-1 75:-0.75898 76:-1 77:-0.20464 78:-1 79:-1 80:-0.833673 81:-0.206544 82:-1 83:-1 84:-0.77914 85:0.285007 86:-0.811348 87:-1 88:0.00596107 89:-1 90:-0.914511 91:-1 92:-1 93:-0.968101 94:-1 95:-0.477067 96:-1 97:-0.955885 98:-1 99:-0.769976 100:-0.992503 101:-0.551825 102:-0.70552 103:-0.46012 104:-0.312879 105:-0.791412 106:-0.85276 107:-0.41104 108:-0.0429419 109:-0.88957 110:0.526628 111:-1 112:-1 113:-1 114:-1 115:-1 116:-1 117:-0.952901 118:-1 119:-1 120:-1 121:-0.251827 122:-1 123:-1 124:-1 125:-1 126:-1 127:-1 128:-1 129:-0.899675 130:-1 131:-1 132:-0.990346 
0 0 0 0.8399481896524418 0 0 0 0 0 1:-1 2:-1 3:-1 4:-1 5:-1 6:-1 7:-1 8:1 9:-1 10:-1 11:-1 12:-0.888734 13:-0.975877 14:0.0439994 15:-0.748641 16:-0.585853 17:-1 18:-0.360156 19:-0.83452 20:-0.480097 21:-0.874748 22:0.234175 23:-1 24:-1 25:-0.491424 26:-1 27:-1 28:-1 29:-1 30:0.0545924 31:-1 32:-0.957223 33:-0.785915 34:-1 35:-1 36:-0.178508 37:-0.878788 38:-0.697351 39:-0.828259 40:0.00288752 41:-0.782792 42:-0.816393 43:-0.827565 44:0.360096 45:-1 46:-1 47:-1 48:-1 49:-1 50:-1 51:-1 52:-1 53:-1 54:-1 55:-1 56:0.599081 57:-1 58:-1 59:-1 60:-1 61:-1 62:-1 63:-1 64:-1 65:-1 66:-1 67:-1 68:-1 69:-1 70:-1 71:-1 72:-1 73:-0.935272 74:-1 75:-0.934651 76:-1 77:-0.643102 78:-0.0163511 79:-1 80:0.407405 81:-0.882221 82:-1 83:-1 84:0.245898 85:-0.904628 86:-1 87:-1 88:0.18189 89:-1 90:-1 91:-1 92:-1 93:-1 94:-1 95:-1 96:-1 97:-1 98:-1 99:-1 100:-0.024388 101:-1 102:-1 103:-1 104:-1 105:-1 106:-1 107:-1 108:-1 109:-1 110:-1 111:-1 112:-1 113:-1 114:-1 115:-1 116:-1 117:-0.914871 118:-1 119:-1 120:-1 121:-0.813215 122:-0.313613 123:-1 124:0.252807 125:-1 126:-1 127:-0.864766 128:0.0491819 129:-0.821278 130:-0.941998 131:-0.796721 132:0.0899656 
0 0 0.7451783148556743 0 0 0 0.9419851778982324 0 0 1:-1 2:-1 3:-0.836421 4:-1 5:-1 6:-1 7:-1 8:-0.561322 9:-1 10:-1 11:-1 12:-1 13:-0.724869 14:-0.696736 15:-0.269843 16:-0.298248 17:-1 18:-1 19:-0.2789 20:0.00680272 21:-1 22:0.167725 23:-1 24:-1 25:-0.925636 26:-1 27:-1 28:-1 29:-1 30:-1 31:-1 32:-0.990618 33:-0.487734 34:-1 35:-0.903099 36:-0.837298 37:-0.735926 38:-0.538463 39:-0.812922 40:-0.56303 41:-0.211305 42:-0.866664 43:-0.812166 44:0.535493 45:-1 46:-1 47:-1 48:-1 49:-1 50:-1 51:-1 52:-1 53:-0.848949 54:-1 55:-1 56:0.420515 57:-1 58:-0.0111132 59:-0.78571 60:-1 61:-1 62:-1 63:-1 64:-1 65:-1 66:-0.826496 67:-1 68:-1 69:-1 70:-1 71:-1 72:-1 73:-1 74:-1 75:-1 76:-1 77:-0.0762622 78:-1 79:-1 80:-1 81:-0.743382 82:-1 83:-1 84:0.142854 85:-0.792203 86:-1 87:-1 88:-0.0559255 89:-1 90:-1 91:-1 92:-1 93:-1 94:-1 95:-1 96:-1 97:-0.958027 98:-1 99:-1 100:-0.037037 101:-1 102:-0.142856 103:-0.90476 104:-1 105:-1 106:-1 107:-1 108:-0.85714 109:-1 110:-0.642215 111:-1 112:-1 113:-1 114:-1 115:-1 116:-1 117:-1 118:-1 119:-1 120:-1 121:-0.354734 122:-1 123:-1 124:-1 125:-1 126:-1 127:-1 128:-0.142854 129:-0.41597 130:-0.873624 131:-1 132:-0.405203 
0 0 0.06828522406318688 0 0 0 0 0 0 1:-1 2:-1 3:-1 4:-0.698308 5:-0.941818 6:-1 7:-1 8:0.183779 9:-1 10:-1 11:-1 12:-0.993962 13:-0.865623 14:-0.878121 15:-0.413072 16:-0.07328 17:-0.71292 18:-0.919968 19:-0.275478 20:-0.140119 21:-0.890313 22:0.621308 23:-1 24:-1 25:0.416578 26:-1 27:-1 28:-0.993763 29:-1 30:-0.60245 31:-1 32:-0.878723 33:-1 34:-1 35:-1 36:-0.869223 37:-0.94693 38:-0.443506 39:-0.39849 40:-0.707296 41:-1 42:-0.437323 43:-0.471557 44:0.0946247 45:-1 46:-1 47:-1 48:-0.952869 49:-0.87684 50:-1 51:-1 52:0.408634 53:-1 54:-1 55:-1 56:-0.689809 57:-1 58:-0.716113 59:-1 60:-0.929965 61:-0.730154 62:-0.701883 63:-0.655503 64:-0.70175 65:-0.368423 66:-0.179169 67:-1 68:-1 69:0.404151 70:-1 71:-1 72:-1 73:-1 74:-0.685418 75:-0.928498 76:-1 77:-0.79763 78:-0.97064 79:-1 80:-0.870287 81:0.0313632 82:-0.842111 83:-1 84:-0.885172 85:-0.16485 86:-0.852876 87:-1 88:-0.307715 89:-1 90:-1 91:-1 92:-1 93:-1 94:-1 95:-1 96:-1 97:-1 98:-1 99:-1 100:-0.0974221 101:-1 102:-1 103:-1 104:-1 105:-1 106:-1 107:-1 108:-1 109:-1 110:-1 111:-1 112:-1 113:-1 114:-1 115:-1 116:-1 117:-1 118:-1 119:-0.544361 120:-1 121:-0.637677 122:-0.763073 123:-1 124:-0.878121 125:0.27136 126:-0.93301 127:-1 128:-0.885172 129:-0.295809 130:-0.746048 131:-1 132:-0.361451 
0 0 0 0 0 0 0 0 1.948482755151906 1:-1 2:-1 3:-1 4:-1 5:-1 6:-0.823228 7:-1 8:-0.958675 9:-1 10:-1 11:-1 12:0.25379 13:-1 14:-0.694316 15:-0.877334 16:-0.326316 17:-0.68 18:-0.933091 19:-0.757715 20:-0.323428 21:-0.449844 22:0.0614664 23:-1 24:-1 25:-1 26:-1 27:-1 28:-0.870487 29:-1 30:-0.885332 31:-1 32:-0.765814 33:-1 34:0.00655405 35:-1 36:-0.125331 37:-0.911273 38:-0.734154 39:-0.622858 40:0.0767028 41:-1 42:-0.776 43:-0.873778 44:0.258394 45:-1 46:-1 47:-1 48:-1 49:-1 50:-1 51:-1 52:-1 53:-1 54:-1 55:-1 56:0.503104 57:-1 58:-1 59:-1 60:-1 61:-1 62:-1 63:-1 64:-1 65:-1 66:-1 67:-1 68:-1 69:-1 70:-1 71:-1 72:-1 73:-1 74:-1 75:-1 76:-0.730335 77:-1 78:0.0820964 79:-1 80:0.409778 81:-1 82:-1 83:-0.812363 84:0.247998 85:-1 86:-1 87:-0.767384 88:0.260185 89:-1 90:-1 91:-1 92:-1 93:-1 94:-1 95:-1 96:-1 97:-1 98:-1 99:-1 100:0.048061 101:-1 102:-1 103:-1 104:-1 105:-1 106:-1 107:-1 108:-1 109:-1 110:-1 111:-1 112:-1 113:-1 114:-1 115:-1 116:-1 117:-1 118:-1 119:-1 120:-0.811554 121:-0.992764 122:0.209572 123:-1 124:0.222735 125:-1 126:-1 127:-0.604 128:0.151998 129:-0.869176 130:-0.830154 131:-0.404801 132:0.280333 
0.02476753609621894 0 0 0 0 0 0 0 0 1:-1 2:-1 3:-1 4:-1 5:-1 6:-1 7:-1 8:-1 9:-0.0301265 10:-0.891162 11:-1 12:-0.829829 13:-0.9959 14:-1 15:-0.871154 16:-0.292345 17:-0.83194 18:-1 19:-1 20:-0.378146 21:-0.229484 22:-0.141495 23:-1 24:-1 25:-0.935184 26:-1 27:-1 28:-1 29:-1 30:-1 31:0.104229 32:-0.880057 33:-0.940467 34:-1 35:-1 36:-0.540621 37:-0.813595 38:-0.627666 39:-0.603844 40:-0.280273 41:-0.554627 42:-0.811767 43:-0.602244 44:0.252594 45:-1 46:-1 47:-1 48:-1 49:-1 50:-1 51:-1 52:-1 53:0.255127 54:-1 55:-1 56:-0.86753 57:-1 58:-1 59:-1 60:-1 61:-1 62:-1 63:-1 64:-1 65:-1 66:-1 67:-1 68:-1 69:-1 70:-1 71:-1 72:-1 73:-1 74:-1 75:-0.483666 76:-1 77:-0.481446 78:-1 79:-1 80:-0.202608 81:0.0868253 82:-1 83:-1 84:-0.193278 85:-0.26661 86:-1 87:-1 88:0.179933 89:-1 90:-1 91:-1 92:-1 93:-1 94:-1 95:-1 96:-1 97:-0.060979 98:-1 99:-0.654825 100:-0.906742 101:-1 102:-0.663864 103:-0.327728 104:-0.882358 105:-1 106:-0.865544 107:-0.663864 108:-0.495797 109:-1 110:0.00832096 111:-1 112:-1 113:-1 114:-1 115:-1 116:-1 117:-1 118:-1 119:-1 120:-1 121:-0.299219 122:-1 123:-1 124:-1 125:-1 126:-1 127:-1 128:-0.798316 129:-0.312898 130:-1 131:-1 132:-0.613169 
0 0 0 1.961214311993866 0 0 0 0 0 1:-1 2:-1 3:-1 4:-1 5:-1 6:-0.929988 7:-1 8:-0.693151 9:-1 10:-0.868978 11:-1 12:-1 13:-0.7434 14:-0.118217 15:-0.646153 16:-0.740893 17:-0.6923 18:-0.678317 19:-0.301099 20:-0.918684 21:-1 22:0.0995391 23:-1 24:-1 25:-0.32375 26:-1 27:-0.882363 28:-0.903812 29:-1 30:-1 31:-1 32:-0.74404 33:-0.946256 34:-1 35:-1 36:-0.684613 37:-0.744055 38:-0.701776 39:-0.758236 40:-0.34118 41:-0.694229 42:-0.870769 43:-0.75726 44:0.0151897 45:-1 46:-1 47:-1 48:-1 49:-1 50:-1 51:-1 52:0.251574 53:-1 54:-1 55:-1 56:-0.447988 57:-0.883272 58:-0.452305 59:-0.72307 60:-1 61:-1 62:-0.616571 63:-0.261541 64:-0.880133 65:-0.830776 66:-0.53031 67:-1 68:-1 69:-0.173937 70:-1 71:-1 72:-1 73:-1 74:-1 75:-0.759398 76:-1 77:-0.6386 78:-1 79:-1 80:0.147003 81:-0.66837 82:-1 83:-1 84:-0.0769258 85:-0.5972 86:-1 87:-1 88:0.080706 89:-1 90:-1 91:-1 92:-1 93:-1 94:-1 95:-1 96:-1 97:-1 98:-1 99:-1 100:0.152564 101:-1 102:-1 103:-1 104:-1 105:-1 106:-1 107:-1 108:-1 109:-1 110:-1 111:-1 112:-1 113:-1 114:-1 115:-1 116:-1 117:-0.989552 118:-1 119:-0.728772 120:-1 121:-0.629246 122:-0.954327 123:-1 124:-0.118217 125:-0.386813 126:-1 127:-0.809623 128:-0.261545 129:-0.496836 130:-0.836682 131:-0.713839 132:0.189054 
0 0 1.140563730451611 0 1.705554138045043 0 0 0 0 1:-1 2:-1 3:-0.583177 4:-1 5:-0.676176 6:-0.965987 7:-1 8:-1 9:-0.968837 10:-1 11:-1 12:-0.52962 13:-0.944871 14:-0.545117 15:-0.530617 16:-0.742215 17:-0.4898 18:-0.573286 19:-0.536449 20:-0.838194 21:0.0525857 22:0.325463 23:-1 24:-1 25:-0.0524675 26:-1 27:-0.565755 28:-1 29:-1 30:-1 31:-1 32:-0.948993 33:-0.921681 34:-1 35:-0.934144 36:-0.302724 37:-0.773657 38:-0.773942 39:-0.679304 40:-0.00119906 41:-0.864797 42:-0.77143 43:-0.839004 44:0.233669 45:-1 46:-1 47:-0.960361 48:-1 49:-1 50:-1 51:-1 52:-1 53:-0.250692 54:-1 55:-1 56:-0.213475 57:-1 58:-0.818368 59:-0.908164 60:-1 61:-1 62:-1 63:-1 64:-1 65:-0.887756 66:-0.961217 67:-1 68:-1 69:-0.945772 70:-1 71:-1 72:-1 73:-1 74:-1 75:-0.542246 76:-1 77:-0.335054 78:-1 79:-1 80:-0.170075 81:-0.340145 82:-1 83:-1 84:-0.0816298 85:-0.376627 86:-1 87:-1 88:0.10573 89:-1 90:-1 91:-1 92:-1 93:-1 94:-1 95:-1 96:-1 97:-0.636327 98:-1 99:-0.989376 100:-0.520135 101:-1 102:-0.346936 103:-0.755104 104:-1 105:-1 106:-0.877552 107:-0.959184 108:-0.693881 109:-1 110:-0.274931 111:-1 112:-1 113:-1 114:-1 115:-1 116:-1 117:-1 118:-1 119:-1 120:-1 121:-0.305743 122:-1 123:-1 124:-1 125:-1 126:-1 127:-1 128:-0.265313 129:-0.582836 130:-1 131:-1 132:-0.656385 
0 0 0 0 0 8 0 0 0 1:-1 2:-1 3:-0.856808 4:-1 5:-1 6:-0.956187 7:-1 8:-1 9:-0.486211 10:-0.953151 11:-1 12:-0.689267 13:-0.934129 14:-0.714848 15:-0.656718 16:-0.308716 17:-0.7015 18:-1 19:-0.547988 20:-0.211085 21:-0.486796 22:0.0493986 23:-1 24:-1 25:-0.848109 26:-1 27:-1 28:-0.98395 29:-1 30:-1 31:-0.107977 32:-0.731701 33:-1 34:-1 35:-1 36:-0.898005 37:-0.751697 38:-0.710676 39:-0.179103 40:-0.543466 41:-0.901115 42:-0.707462 43:-0.646768 44:-0.11236 45:-1 46:-1 47:-1 48:-1 49:-1 50:-1 51:-1 52:-1 53:0.154773 54:-1 55:-1 56:-0.508757 57:-1 58:-0.911439 59:-0.597016 60:-0.781552 61:-1 62:-1 63:-1 64:-1 65:-1 66:-0.878591 67:-1 68:-1 69:-1 70:-1 71:-1 72:-1 73:-0.963844 74:-1 75:-0.531612 76:-1 77:-0.671078 78:-1 79:-1 80:-1 81:0.286881 82:-0.87686 83:-0.824958 84:-0.552245 85:-0.218453 86:-0.54104 87:-1 88:0.260245 89:-1 90:-1 91:-1 92:-1 93:-1 94:-1 95:-1 96:-0.967179 97:-0.742798 98:-1 99:-0.945261 100:-0.63785 101:-1 102:-0.761192 103:-0.582088 104:-1 105:-1 106:-0.820896 107:-0.8806 108:-0.462689 109:-0.597016 110:0.0613461 111:-1 112:-1 113:-1 114:-1 115:-1 116:-1 117:-1 118:-1 119:-1 120:-1 121:-0.224462 122:-1 123:-1 124:-1 125:-1 126:-1 127:-1 128:-0.8209 129:-0.26778 130:-0.841566 131:-1 132:-0.655212 
0.6719333810065287 0 0 0 3.721359335844597 0 0 0 0 1:-1 2:-1 3:-1 4:-1 5:-1 6:-1 7:-1 8:-0.928649 9:-1 10:-1 11:-1 12:-0.624701 13:-0.91968 14:-0.436421 15:-0.592916 16:-0.180253 17:-0.823 18:-1 19:-0.731973 20:0.0290767 21:-0.594283 22:0.740803 23:-1 24:-1 25:-1 26:-1 27:-0.580589 28:-0.910539 29:-1 30:-0.947202 31:-1 32:-0.908435 33:-1 34:-0.900675 35:-1 36:-1 37:-0.705548 38:-0.705924 39:-0.16562 40:-0.242062 41:-0.882737 42:-0.851326 43:-0.72075 44:0.55337 45:-1 46:-1 47:-1 48:-1 49:-1 50:-1 51:-1 52:-1 53:-1 54:-1 55:-1 56:0.711465 57:-1 58:-1 59:-1 60:-1 61:-1 62:-1 63:-1 64:-1 65:-1 66:-1 67:-1 68:-1 69:-1 70:-1 71:-1 72:-1 73:-0.806863 74:-1 75:-1 76:-1 77:-0.89814 78:0.438793 79:-1 80:-0.160274 81:-1 82:-1 83:-0.584876 84:-0.15045 85:-0.691071 86:-0.863931 87:0.286597 88:-0.066249 89:-1 90:-1 91:-1 92:-1 93:-1 94:-1 95:-1 96:-1 97:-1 98:-1 99:-1 100:0.131192 101:-1 102:-1 103:-1 104:-1 105:-1 106:-1 107:-1 108:-1 109:-1 110:-1 111:-1 112:-1 113:-1 114:-1 115:-1 116:-1 117:-0.943306 118:-1 119:-1 120:-1 121:-0.945857 122:0.569572 123:-1 124:0.0144372 125:-1 126:-1 127:-0.780962 128:0.168138 129:-1 130:-0.906054 131:-0.341598 132:-0.336287 
0.8007222966659117 0 0 0 3.322495827062816 0 0.7099346312796884 0 1.682232748057269 1:-1 2:-1 3:-0.472562 4:-1 5:-1 6:-1 7:-1 8:-1 9:-0.751596 10:-1 11:-1 12:-1 13:-0.806643 14:-0.487598 15:-0.295021 16:-0.0804632 17:-1 18:-1 19:-0.303764 20:-0.331695 21:-0.736521 22:0.236821 23:-1 24:-1 25:-1 26:-1 27:-1 28:-1 29:-1 30:-1 31:-1 32:-0.279938 33:-1 34:-1 35:-1 36:-1 37:-1 38:-0.904511 39:-0.367816 40:-0.507776 41:-1 42:-1 43:-1 44:-0.435137 45:-1 46:-1 47:-1 48:-1 49:-1 50:-1 51:-1 52:-0.423046 53:-0.975646 54:-1 55:-1 56:-0.400578 57:-0.930048 58:-0.863604 59:-0.379305 60:-0.57941 61:-1 62:-1 63:-0.310333 64:0.0747222 65:-0.620698 66:-0.0265324 67:-1 68:-1 69:-0.97942 70:-1 71:-1 72:-1 73:-1 74:-0.857675 75:-0.963024 76:-0.890095 77:-0.469906 78:-1 79:-1 80:-0.688371 81:-0.876121 82:-0.43103 83:-0.326008 84:-0.310349 85:-0.799377 86:-0.116381 87:0.00266054 88:0.430621 89:-1 90:-1 91:-1 92:-1 93:-1 94:-1 95:-1 96:-1 97:-1 98:-1 99:-1 100:0.0143303 101:-1 102:-1 103:-1 104:-1 105:-1 106:-1 107:-1 108:-1 109:-1 110:-1 111:-1 112:-1 113:-1 114:-1 115:-1 116:-1 117:-1 118:-1 119:-0.954529 120:-1 121:-0.442675 122:-0.992983 123:-1 124:-0.121592 125:-0.847294 126:-1 127:-1 128:-0.310349 129:-0.718059 130:-0.877987 131:-0.893106 132:-0.315444 
4.924579031587145 0 6.728856484914354 0 8 0 1.999567456725629 0 8 1:-1 2:-1 3:-0.717906 4:-1 5:-1 6:-1 7:-1 8:-1 9:-0.588769 10:-0.930772 11:-1 12:-0.892864 13:-0.945249 14:-0.555689 15:-0.286817 16:-0.461448 17:-0.53488 18:-0.902747 19:-0.471759 20:-0.446839 21:-0.466899 22:0.633141 23:-1 24:-1 25:-1 26:-1 27:-1 28:-1 29:-1 30:-1 31:-1 32:-0.304186 33:-1 34:-1 35:-1 36:-1 37:-1 38:-0.645799 39:-0.451824 40:-0.715457 41:-1 42:-1 43:-1 44:-0.5006 45:-0.990126 46:-1 47:-1 48:-1 49:-1 50:-1 51:-1 52:-0.912658 53:-0.939215 54:-1 55:-1 56:-0.143053 57:-1 58:-0.310071 59:-0.372087 60:-0.574521 61:-0.836045 62:-1 63:-0.720927 64:-0.00339717 65:-0.616276 66:0.0464478 67:-1 68:-1 69:-1 70:-0.980011 71:-1 72:-1 73:-0.937674 74:-0.873125 75:-1 76:-0.988244 77:-0.185446 78:-1 79:-1 80:-1 81:-1 82:-1 83:-0.454539 84:-0.302321 85:-0.594076 86:0.0726701 87:-0.661893 88:-0.0419615 89:-1 90:-1 91:-1 92:-1 93:-1 94:-1 95:-1 96:-1 97:-1 98:-1 99:-1 100:-0.00662134 101:-1 102:-0.627904 103:-1 104:-1 105:-1 106:-1 107:-1 108:-1 109:-0.790696 110:-0.870602 111:-1 112:-1 113:-1 114:-1 115:-1 116:-1 117:-0.969944 118:-1 119:-1 120:-1 121:-0.428122 122:-0.987491 123:-1 124:-0.62974 125:-1 126:-1 127:-0.856103 128:-0.0930298 129:-0.809848 130:-0.938282 131:-0.783719 132:-0.369246 
0 0 0 0 2.567534003480566 0 0 0 0 1:-1 2:-1 3:-0.934697 4:-1 5:-1 6:-0.992004 7:-1 8:-1 9:-0.502026 10:-1 11:-1 12:-0.948977 13:-0.73862 14:-0.857691 15:-0.486028 16:-0.482501 17:-0.88826 18:-1 19:-0.661619 20:-0.232239 21:-0.74388 22:-0.120488 23:-1 24:-1 25:-0.88124 26:-1 27:-0.967771 28:-1 29:-1 30:-1 31:-0.722893 32:-0.988011 33:-0.640045 34:-1 35:-0.721438 36:-0.694604 37:-0.566279 38:-0.659645 39:-0.824425 40:-0.45317 41:-0.259774 42:-0.874862 43:-0.91185 44:0.411557 45:-1 46:-1 47:-1 48:-1 49:-1 50:-1 51:-1 52:-1 53:-0.247358 54:-1 55:-0.881375 56:-0.899172 57:-1 58:-0.801114 59:-0.195525 60:-0.0187931 61:-1 62:-0.930377 63:-0.463694 64:-0.477646 65:-0.63128 66:-0.0252008 67:-1 68:-1 69:-1 70:-1 71:-1 72:-1 73:-0.990108 74:-0.989925 75:-0.945065 76:-1 77:0.140166 78:-1 79:-1 80:-0.924265 81:-0.638731 82:-1 83:-0.868959 84:-0.664805 85:-0.219902 86:-0.828215 87:-0.837547 88:-0.359083 89:-1 90:-1 91:-1 92:-1 93:-1 94:-1 95:-1 96:-1 97:-0.745272 98:-1 99:0.477933 100:-0.935069 101:-1 102:-0.597768 103:-0.687152 104:-1 105:-1 106:-0.642456 107:-0.597768 108:-0.865924 109:-0.798886 110:-0.261699 111:-1 112:-1 113:-1 114:-1 115:-1 116:-1 117:-1 118:-1 119:-1 120:-1 121:-0.205046 122:-1 123:-1 124:-1 125:-1 126:-1 127:-1 128:-1 129:-1 130:-1 131:-1 132:-1 
0 1.347350658099165 0.03919961759653682 0 0 0 0 1.331472632638358 1.798233060707566 1:-1 2:-1 3:-0.95901 4:-1 5:-1 6:-1 7:-1 8:-1 9:-0.319662 10:-1 11:-1 12:-1 13:-0.865629 14:0.0348671 15:-0.7125 16:-0.473684 17:-1 18:-1 19:-0.810715 20:-0.603571 21:-0.71346 22:-0.0111438 23:-1 24:-1 25:-1 26:-1 27:-1 28:-1 29:-0.910893 30:-1 31:-1 32:-0.3651 33:-1 34:-1 35:-1 36:-1 37:-1 38:-0.896154 39:-0.705358 40:-0.0823555 41:-0.751562 42:-1 43:-1 44:-0.269405 45:-0.982784 46:-1 47:-1 48:-1 49:-1 50:-1 51:-0.846034 52:-1 53:-0.795573 54:-1 55:-1 56:-0.885727 57:-0.899628 58:-0.184165 59:-0.324999 60:-0.725568 61:-0.82375 62:-0.922115 63:-0.399998 64:-0.902604 65:-0.725 66:0.203876 67:-1 68:-0.865636 69:-1 70:-1 71:-1 72:-0.983067 73:-0.875788 74:-1 75:-1 76:-0.753985 77:-0.38788 78:-1 79:-1 80:-1 81:-0.730557 82:-0.381249 83:-0.413634 84:-0.700001 85:-0.236361 86:-0.135154 87:-1 88:-0.141905 89:-1 90:-1 91:-1 92:-1 93:-1 94:-1 95:0.0806811 96:-1 97:-1 98:-1 99:-0.890306 100:-0.742574 101:-1 102:-0.2 103:-1 104:-0.825 105:-0.575003 106:-0.35 107:-0.9 108:-0.550001 109:-0.775 110:-0.0966683 111:-1 112:-1 113:-1 114:-1 115:-1 116:-1 117:-1 118:-1 119:-1 120:-1 121:-0.0297033 122:-1 123:-1 124:-1 125:-1 126:-1 127:-1 128:-1 129:-1 130:-1 131:-1 132:-1 
1.035032322855735 0 0 0 0 0 0 0 0 1:-1 2:-1 3:-0.785477 4:-1 5:-1 6:-1 7:-1 8:-1 9:-0.0569957 10:-1 11:-1 12:-1 13:-0.892671 14:-0.62974 15:-0.732556 16:-0.55936 17:-1 18:-1 19:-0.471759 20:-0.631226 21:-0.733449 22:-0.2713 23:-1 24:-1 25:-0.902459 26:-1 27:-1 28:-1 29:-0.766843 30:-1 31:-0.501518 32:-0.940933 33:-1 34:-1 35:-1 36:-0.761625 37:-0.74207 38:-0.645799 39:-0.634549 40:-0.359778 41:-0.537786 42:-0.967442 43:-0.633073 44:0.164016 45:-1 46:-1 47:-0.938801 48:-1 49:-1 50:-1 51:-1 52:-1 53:-0.587927 54:-1 55:-1 56:-0.677991 57:-0.956224 58:-0.310071 59:-0.267435 60:-0.234138 61:-1 62:-1 63:-0.720927 64:-0.45639 65:-0.616276 66:-0.107878 67:-1 68:-1 69:-1 70:-1 71:-1 72:-1 73:-0.943125 74:-1 75:-1 76:-1 77:-0.203277 78:-1 79:-1 80:-1 81:-1 82:-0.904069 83:-0.590904 84:-0.372089 85:-0.391114 86:-0.463657 87:-1 88:0.0337196 89:-1 90:-1 91:-1 92:-1 93:-1 94:-1 95:-1 96:-0.985252 97:-0.746759 98:-1 99:-0.917986 100:-0.539722 101:-1 102:-0.441864 103:-0.813952 104:-1 105:-1 106:-0.441864 107:-0.860464 108:-0.930232 109:-0.581392 110:-0.200018 111:-1 112:-1 113:-1 114:-1 115:-1 116:-1 117:-1 118:-1 119:-1 120:-1 121:0.0477851 122:-1 123:-1 124:-1 125:-1 126:-1 127:-1 128:-0.860464 129:-0.809848 130:-1 131:-1 132:-0.959381 
0 0 0 0 0 0 0.01160078917418973 0 0 1:-1 2:-1 3:-1 4:-1 5:-1 6:-0.830768 7:-1 8:-1 9:-0.558974 10:-1 11:-1 12:-0.899981 13:-0.812706 14:-0.690852 15:-0.702273 16:-0.345937 17:-0.80582 18:-1 19:-1 20:-0.178916 21:-0.554901 22:-0.0221885 23:-1 24:-1 25:-1 26:-1 27:-1 28:-1 29:-0.715031 30:-1 31:-1 32:-0.623994 33:-1 34:-1 35:-0.741101 36:-1 37:-0.730802 38:-0.86557 39:-0.84743 40:-0.584234 41:-0.485435 42:-0.94563 43:-1 44:-0.153946 45:-0.982798 46:-1 47:-0.853916 48:-1 49:-1 50:-1 51:-1 52:-0.99155 53:-0.576267 54:-1 55:-0.612414 56:-0.850654 57:-1 58:-0.596758 59:-0.038835 60:-0.360552 61:-0.863117 62:-0.758035 63:-0.184453 64:-0.39482 65:-0.786402 66:0.241986 67:-1 68:-1 69:-1 70:-1 71:-1 72:-1 73:-0.883622 74:-0.794684 75:-1 76:-0.819014 77:-0.396104 78:-1 79:-1 80:-1 81:-1 82:0.0412665 83:-0.31686 84:-0.825244 85:-0.915275 86:0.418086 87:-0.717692 88:-0.10698 89:-1 90:-1 91:-1 92:-1 93:-1 94:-1 95:-1 96:-1 97:-0.779221 98:-1 99:0.472184 100:-0.895484 101:-1 102:-0.611648 103:-0.766992 104:-0.932044 105:-1 106:-0.68932 107:-0.650488 108:-0.941752 109:-0.825238 110:-0.261473 111:-1 112:-1 113:-1 114:-1 115:-1 116:-1 117:-1 118:-1 119:-1 120:-1 121:-0.238095 122:-1 123:-1 124:-1 125:-1 126:-1 127:-1 128:-1 129:-1 130:-1 131:-1 132:-1 
0.4435409830740305 0 0 0.3609551861515332 0 0 0 0 0 1:-1 2:-1 3:-0.617078 4:-1 5:-1 6:-1 7:-1 8:-1 9:-0.597439 10:-1 11:-1 12:-0.953257 13:-0.710983 14:-0.817176 15:-0.706536 16:-0.516497 17:-1 18:-1 19:-0.565281 20:-0.443604 21:-0.890313 22:-0.29656 23:-1 24:-1 25:-0.934717 26:-1 27:-0.970468 28:-1 29:-0.505778 30:-1 31:-0.915372 32:-1 33:-1 34:-1 35:-0.451746 36:-0.542261 37:-0.628532 38:-0.735001 39:-1 40:-0.2975 41:-0.429427 42:-0.919618 43:-0.924504 44:0.172755 45:-0.969851 46:-1 47:-0.670003 48:-1 49:-0.973513 50:-1 51:-1 52:-1 53:-0.412106 54:-1 55:-1 56:-0.892233 57:-1 58:-0.148328 59:-0.0526231 60:-0.719875 61:-0.730154 62:-0.761499 63:-0.540662 64:-0.552633 65:-0.89473 66:0.0571468 67:-1 68:-0.98257 69:-1 70:-1 71:-1 72:-1 73:-0.832305 74:-0.981549 75:-1 76:-1 77:-0.184476 78:-1 79:-1 80:-1 81:-0.793736 82:-0.684206 83:-0.551102 84:-0.425837 85:-0.498913 86:-0.33792 87:-0.860867 88:-0.0780666 89:-1 90:-1 91:-1 92:-1 93:-1 94:-1 95:-1 96:-1 97:-0.570087 98:-1 99:0.152777 100:-0.93425 101:-1 102:-0.502392 103:-0.693776 104:-1 105:-1 106:-0.655504 107:-0.578944 108:-0.885172 109:-1 110:-0.210301 111:-1 112:-1 113:-1 114:-1 115:-1 116:-1 117:-1 118:-1 119:-1 120:-1 121:-0.2447 122:-1 123:-1 124:-1 125:-1 126:-1 127:-1 128:-1 129:-1 130:-1 131:-1 132:-1 
4.566500555478199 0 0 2.763723570904681 3.175965253774254 2.355544276043843 0.5519940802244252 0 0 1:-1 2:-1 3:-1 4:-1 5:-1 6:-1 7:-1 8:-1 9:-0.670209 10:-1 11:-1 12:-1 13:-0.544951 14:-0.776545 15:-0.641323 16:-0.852261 17:-1 18:-1 19:-1 20:-0.814535 21:-0.597836 22:-0.654641 23:-1 24:-1 25:-1 26:-1 27:-1 28:-1 29:-1 30:-1 31:-0.554323 32:-0.607768 33:-1 34:-1 35:-1 36:-0.520462 37:-1 38:-0.838055 39:0.102748 40:-0.356034 41:-1 42:-0.901754 43:-0.630927 44:0.11765 45:-1 46:-1 47:-1 48:-1 49:-1 50:-1 51:-1 52:-1 53:-0.558661 54:-1 55:-1 56:-1 57:0.0239188 58:-0.722414 59:-0.684208 60:-1 61:-1 62:-1 63:-1 64:-1 65:-1 66:-0.905361 67:-1 68:-1 69:-1 70:-1 71:-1 72:-1 73:-0.989556 74:-0.950392 75:-0.38797 76:-0.950973 77:-1 78:-1 79:-1 80:-0.524363 81:-0.495775 82:-0.324555 83:-0.588512 84:0.122802 85:-0.591702 86:-0.820174 87:0.0202521 88:0.938686 89:-1 90:-1 91:-1 92:-1 93:-1 94:-1 95:-1 96:-1 97:-0.98113 98:-1 99:-0.128681 100:-1 101:-0.0813721 102:-0.625728 103:-0.345032 104:-0.754384 105:-1 106:-0.859648 107:-0.4386 108:-0.508769 109:-1 110:-0.076495 111:-1 112:-1 113:-1 114:-1 115:-1 116:-1 117:-1 118:-1 119:-1 120:-1 121:-0.278334 122:-1 123:-1 124:-1 125:-1 126:-1 127:-1 128:-1 129:-0.426207 130:-0.50337 131:-1 132:-0.74162 
0 0 0 0 4.594201522004316 0 0 0 0 1:-1 2:-1 3:-0.968417 4:-1 5:-1 6:-1 7:-1 8:-1 9:-0.82996 10:-1 11:-1 12:-1 13:-0.527217 14:-0.681579 15:-0.7125 16:-0.947368 17:-1 18:-0.947727 19:-0.62143 20:-0.933929 21:-1 22:-0.734086 23:-1 24:-1 25:-0.985633 26:-1 27:-1 28:-1 29:-1 30:-1 31:-0.385636 32:-0.599522 33:-1 34:-1 35:-1 36:-0.572915 37:-1 38:-0.826923 39:0.473211 40:-0.617648 41:-1 42:-0.86 43:-0.0138923 44:0.259064 45:-1 46:-1 47:-1 48:-1 49:-1 50:-1 51:-1 52:-1 53:-0.772448 54:-1 55:-1 56:-1 57:0.0958171 58:-1 59:-0.8875 60:-0.908523 61:-1 62:-1 63:-1 64:-1 65:-1 66:-0.978364 67:-1 68:-1 69:-1 70:-1 71:-1 72:-1 73:-1 74:-1 75:0.0629339 76:-1 77:-0.739953 78:-1 79:-1 80:-0.491667 81:0.481937 82:-0.5875 83:-1 84:-0.325001 85:0.200003 86:-0.51953 87:-0.636538 88:0.671773 89:-1 90:-1 91:-1 92:-1 93:-1 94:-1 95:-1 96:-1 97:-1 98:-1 99:0.00236152 100:-1 101:-0.24073 102:-0.7 103:-0.3 104:-0.5625 105:-1 106:-0.8 107:-0.4 108:-0.400001 109:-1 110:0.269114 111:-1 112:-1 113:-1 114:-1 115:-1 116:-1 117:-1 118:-1 119:-1 120:-1 121:-0.391725 122:-1 123:-1 124:-1 125:-1 126:-1 127:-1 128:-1 129:-0.693382 130:-0.867308 131:-1 132:-0.885885 
0 0 0 0 0 8 0 0 0 1:-1 2:-1 3:-0.877146 4:-1 5:-1 6:-1 7:-1 8:-1 9:-0.0631614 10:-1 11:-1 12:-1 13:-0.826197 14:-0.906346 15:-0.661763 16:-0.62848 17:-1 18:-1 19:-0.55462 20:-0.766805 21:-0.494338 22:-0.434191 23:-1 24:-1 25:-0.955318 26:-1 27:-1 28:-1 29:-0.935906 30:-1 31:-0.528339 32:-0.712462 33:-1 34:-1 35:-1 36:-0.397052 37:-0.836897 38:-0.877827 39:-0.422266 40:-0.190319 41:-0.805145 42:-0.917646 43:-0.767973 44:0.0209949 45:-1 46:-1 47:-1 48:-1 49:-1 50:-1 51:-1 52:-1 53:-0.219413 54:-1 55:-1 56:-1 57:-0.699173 58:-0.38921 59:-0.0735211 60:-0.677137 61:-1 62:-1 63:-1 64:-1 65:-1 66:-0.355474 67:-1 68:-0.94631 69:-1 70:-1 71:-0.974749 72:-1 73:-0.609116 74:-1 75:-0.982772 76:-0.836148 77:-0.877696 78:-1 79:-1 80:-0.900326 81:-0.524509 82:-0.272052 83:-0.827538 84:-0.382349 85:0.283419 86:-0.886947 87:-1 88:0.110566 89:-1 90:-1 91:-1 92:-1 93:-1 94:-1 95:-1 96:-1 97:-0.873885 98:-1 99:-0.00429886 100:-0.993569 101:-0.756269 102:-0.352944 103:-0.764704 104:-1 105:-1 106:-0.529408 107:-0.588232 108:-0.735293 109:-0.602938 110:0.191265 111:-1 112:-1 113:-1 114:-1 115:-1 116:-1 117:-1 118:-1 119:-1 120:-1 121:-0.118364 122:-1 123:-1 124:-1 125:-1 126:-1 127:-1 128:-1 129:-0.759513 130:-0.765835 131:-1 132:-0.920683 
0 0 0 6.221179033174113 4.004688761314346 0 0 0 0 1:-1 2:-1 3:-1 4:-1 5:-1 6:-1 7:-1 8:-0.90278 9:-1 10:-0.911048 11:-1 12:0.209538 13:-0.992183 14:-0.279045 15:-0.855346 16:-0.0466695 17:-0.81132 18:-1 19:-0.714286 20:-0.202152 21:-0.134972 22:0.178389 23:-1 24:-1 25:-1 26:-1 27:-1 28:-1 29:-1 30:-1 31:-1 32:-0.448974 33:-1 34:-1 35:-1 36:-0.871068 37:-1 38:-0.84325 39:0.0377378 40:-0.422863 41:-1 42:-1 43:-0.851153 44:-0.0125002 45:-1 46:-1 47:-1 48:-1 49:-1 50:-1 51:-1 52:-1 53:-1 54:-1 55:-1 56:0.768357 57:-1 58:-1 59:-1 60:-1 61:-1 62:-1 63:-1 64:-1 65:-1 66:-1 67:-1 68:-1 69:-1 70:-1 71:-1 72:-1 73:-1 74:-1 75:-1 76:-0.637426 77:-1 78:-0.533806 79:-1 80:0.278831 81:-1 82:-1 83:-0.778729 84:0.358493 85:-1 86:-0.854952 87:-0.177064 88:0.506452 89:-1 90:-1 91:-1 92:-1 93:-1 94:-1 95:-1 96:-1 97:-1 98:-1 99:-1 100:0.0788884 101:-1 102:-1 103:-1 104:-1 105:-1 106:-1 107:-1 108:-1 109:-1 110:-1 111:-1 112:-1 113:-1 114:-1 115:-1 116:-1 117:-1 118:-1 119:-1 120:-0.765251 121:-0.97872 122:-0.155832 123:-1 124:0.0814329 125:-1 126:-1 127:-0.299525 128:-0.207546 129:-0.691452 130:-0.599418 131:-0.298111 132:0.230885 
0.4282940650712415 0 0 0 0 0 0 0 0 1:-1 2:-1 3:-1 4:-1 5:-1 6:-1 7:-1 8:-1 9:0.0744305 10:-0.983148 11:-1 12:-0.832309 13:-1 14:-0.734654 15:-1 16:-0.356724 17:-0.86112 18:-1 19:-1 20:-0.339285 21:-0.68162 22:-0.24988 23:-1 24:-1 25:-1 26:-1 27:-1 28:-1 29:-0.832039 30:-1 31:-0.557636 32:-0.881805 33:-0.74188 34:-1 35:-1 36:-0.620366 37:-0.845958 38:-0.653846 39:-0.672625 40:-0.660129 41:-0.447911 42:-0.883335 43:-0.780863 44:0.107123 45:-1 46:-1 47:-0.853049 48:-1 49:-1 50:-1 51:-1 52:-1 53:-0.334002 54:-1 55:-1 56:-0.790126 57:-1 58:-0.670367 59:-0.375003 60:-0.390147 61:-1 62:-1 63:-0.666663 64:-0.675352 65:-0.541674 66:-0.269022 67:-1 68:-1 69:-1 70:-1 71:-1 72:-1 73:-0.70734 74:-0.940419 75:-0.981948 76:-1 77:-0.595678 78:-1 79:-1 80:-0.717597 81:-0.850319 82:-0.770831 83:-0.51137 84:-0.333329 85:-0.515146 86:-0.572912 87:-0.79809 88:0.165999 89:-1 90:-1 91:-1 92:-1 93:-1 94:-1 95:-1 96:-1 97:-0.57698 98:-1 99:-0.704614 100:-0.669778 101:-1 102:-0.444448 103:-0.722224 104:-0.902784 105:-1 106:-0.444448 107:-0.833336 108:-0.666665 109:-0.875008 110:-0.118976 111:-1 112:-1 113:-1 114:-1 115:-1 116:-1 117:-1 118:-1 119:-1 120:-1 121:-0.00812156 122:-1 123:-1 124:-1 125:-1 126:-1 127:-1 128:-1 129:-0.772874 130:-1 131:-1 132:-0.968311 
3.029061195736459 0 0 0 0 0 0 0 0 1:-1 2:-1 3:-1 4:-1 5:-1 6:-1 7:-1 8:-1 9:0.0653899 10:-1 11:-1 12:-0.555142 13:-1 14:-0.9005 15:-1 16:-0.276312 17:-1 18:-1 19:-1 20:-0.421869 21:-0.462727 22:-0.332164 23:-1 24:-1 25:-1 26:-1 27:-1 28:-1 29:-0.816112 30:-1 31:-0.408324 32:-0.947742 33:-1 34:-1 35:-1 36:-0.67968 37:-0.740051 38:-0.697113 39:-0.631689 40:-0.426472 41:-0.585936 42:-0.868747 43:-0.753473 44:0.185781 45:-1 46:-1 47:-1 48:-1 49:-1 50:-1 51:-1 52:-1 53:-0.387036 54:-1 55:-1 56:-0.637193 57:-1 58:-0.629166 59:-0.437499 60:-0.199567 61:-1 62:-1 63:-1 64:-0.634757 65:-0.484363 66:-0.231488 67:-1 68:-0.976297 69:-1 70:-1 71:-1 72:-1 73:-0.852114 74:-0.924738 75:-0.977188 76:-1 77:-0.514153 78:-1 79:-1 80:-0.894104 81:-0.663196 82:-1 83:-0.45027 84:-0.437501 85:-0.181816 86:-0.63964 87:-0.772851 88:0.102444 89:-1 90:-1 91:-1 92:-1 93:-1 94:-1 95:-0.868035 96:-1 97:-0.565811 98:-1 99:-0.577091 100:-0.693516 101:-1 102:-0.437504 103:-0.75 104:-1 105:-0.734394 106:-0.625 107:-0.75 108:-0.718745 109:-0.71875 110:-0.114237 111:-1 112:-1 113:-1 114:-1 115:-1 116:-1 117:-1 118:-1 119:-1 120:-1 121:-0.00982334 122:-1 123:-1 124:-1 125:-1 126:-1 127:-1 128:-0.8125 129:-0.872251 130:-1 131:-1 132:-0.963151 
8 0 0 0 0.7667994399633051 4.557808594134678 5.44000836198138 0.5445638767755254 0 1:-1 2:-1 3:-0.712705 4:-1 5:-1 6:-1 7:-1 8:-1 9:-0.787758 10:-1 11:-1 12:-1 13:-0.664723 14:-0.661251 15:-0.673753 16:-0.686451 17:-1 18:-0.911027 19:-0.355613 20:-0.718842 21:-0.878072 22:-0.222665 23:-1 24:-1 25:-0.385329 26:-1 27:-1 28:-1 29:-1 30:-1 31:-0.240256 32:-0.790612 33:-1 34:-1 35:-1 36:-0.78192 37:-1 38:-0.64648 39:0.00304071 40:-0.73967 41:-0.929523 42:-0.702131 43:-0.244689 44:0.237868 45:-1 46:-1 47:-1 48:-1 49:-1 50:-1 51:-1 52:-1 53:-0.45066 54:-1 55:-1 56:-1 57:-0.282761 58:-1 59:-1 60:-1 61:-1 62:-1 63:-1 64:-1 65:-1 66:-1 67:-1 68:-1 69:-1 70:-1 71:-1 72:-1 73:-1 74:-1 75:0.551847 76:-1 77:-0.870595 78:-1 79:-1 80:-0.278967 81:-0.312058 82:-0.736709 83:-1 84:-0.489365 85:-0.257255 86:-0.91822 87:-1 88:0.106667 89:-1 90:-1 91:-1 92:-1 93:-1 94:-1 95:-1 96:-1 97:-0.561986 98:-1 99:-0.786805 100:-1 101:0.218515 102:-1 103:-0.574472 104:0.042553 105:-1 106:-1 107:-0.74468 108:0.0851098 109:-1 110:-0.191625 111:-1 112:-1 113:-1 114:-1 115:-1 116:-1 117:-1 118:-1 119:-0.781482 120:-1 121:-0.485715 122:-1 123:-1 124:-1 125:-0.0106418 126:-0.776602 127:-1 128:-1 129:-0.13017 130:-0.66121 131:-1 132:-0.222863 
1.229442365066662 0 0 0 0 0 0 0 0 1:-1 2:-1 3:-0.601544 4:-1 5:-1 6:-0.936394 7:-1 8:-0.739824 9:-1 10:-0.795957 11:-1 12:-1 13:-0.760909 14:-0.563305 15:-0.561912 16:-0.711276 17:-0.42858 18:-0.95221 19:-0.13471 20:-0.697963 21:-0.738011 22:0.0197621 23:-1 24:-1 25:-0.684939 26:-1 27:-0.957255 28:-0.557275 29:-0.984938 30:-1 31:-1 32:-0.725731 33:-0.967448 34:-1 35:-1 36:-0.921908 37:-0.683122 38:-0.683516 39:-0.551028 40:-0.720339 41:-0.697144 42:-0.711998 43:-0.729522 44:-0.00140469 45:-1 46:-1 47:-0.324588 48:-1 49:-1 50:-1 51:-1 52:-0.270593 53:-0.897615 54:-1 55:-1 56:-0.60624 57:-0.915166 58:-0.593139 59:-0.382851 60:-0.749089 61:-1 62:-0.715167 63:-0.588566 64:-0.465709 65:-0.748562 66:-0.410383 67:-1 68:-1 69:-0.459129 70:-1 71:-0.946587 72:-1 73:-0.849085 74:-0.946574 75:-0.987857 76:-1 77:-0.887246 78:-1 79:-1 80:-0.922544 81:-0.38414 82:-0.151421 83:-0.597917 84:-0.657149 85:-0.401552 86:-0.297146 87:-0.66768 88:0.541884 89:-1 90:-1 91:-1 92:-1 93:-1 94:-1 95:-1 96:-1 97:-0.591005 98:-1 99:-0.960266 100:-0.288353 101:-1 102:-0.908568 103:-0.725712 104:-0.920004 105:-1 106:-1 107:-0.908568 108:-0.794284 109:-0.897148 110:-0.725773 111:-1 112:-1 113:-1 114:-1 115:-1 116:-1 117:-1 118:-1 119:-0.970133 120:-1 121:-0.323106 122:-1 123:-1 124:-0.854431 125:-0.848171 126:-1 127:-1 128:-0.794284 129:-0.439322 130:-0.818021 131:-1 132:-0.610128 
0 0 0 7.595425780726898 6.595780608871712 0 0 0 8 1:-1 2:-1 3:-1 4:-1 5:-1 6:-1 7:-1 8:-1 9:-1 10:-1 11:-1 12:-1 13:-0.435626 14:-0.920395 15:-0.329168 16:-0.789474 17:-1 18:-1 19:-0.810715 20:-1 21:-1 22:-0.558243 23:-1 24:-1 25:-0.707845 26:-1 27:-0.963957 28:-1 29:-1 30:-0.756504 31:-1 32:-1 33:-1 34:-1 35:-0.492393 36:-0.402081 37:-0.445455 38:-0.688461 39:-1 40:0.376467 41:-0.420311 42:-0.895 43:-0.901389 44:0.57091 45:-1 46:-1 47:-1 48:-1 49:-1 50:-1 51:-1 52:-0.505657 53:-1 54:-1 55:-1 56:-0.0855576 57:-0.96424 58:-0.7775 59:-0.55 60:-0.908523 61:-1 62:-1 63:0.0500042 64:-0.415624 65:-0.8625 66:-0.37884 67:-1 68:-1 69:-0.726417 70:-1 71:-1 72:-1 73:-1 74:-0.459506 75:-0.805487 76:-1 77:-0.876986 78:-0.375853 79:-1 80:0.355555 81:-0.865278 82:-1 83:-1 84:0.0499979 85:-0.672726 86:-1 87:-1 88:0.0439187 89:-1 90:-1 91:-1 92:-1 93:-1 94:-1 95:-1 96:-1 97:-1 98:-1 99:-1 100:0.100529 101:-1 102:-1 103:-1 104:-1 105:-1 106:-1 107:-1 108:-1 109:-1 110:-1 111:-1 112:-1 113:-1 114:-1 115:-1 116:-1 117:-0.935979 118:-1 119:-0.848925 120:-1 121:-0.879286 122:-0.137099 123:-1 124:0.114472 125:-0.667858 126:-1 127:-0.845312 128:-0.0250019 129:-0.693382 130:-0.800962 131:-0.7675 132:0.0533142 
1.415647733496697 0 0.5501384466090993 0 0.4638601558968593 2.154583332116644 2.392239007933352 0 0 1:-0.917663 2:-1 3:-0.907619 4:-1 5:-1 6:-1 7:-0.982272 8:-1 9:-0.367138 10:-0.917572 11:-1 12:-0.699273 13:-0.989857 14:-0.637816 15:-0.491318 16:-0.201794 17:-0.52606 18:-0.881086 19:-0.569399 20:-0.14827 21:-0.565446 22:0.496619 23:-1 24:-1 25:-1 26:-1 27:-1 28:-1 29:-0.875865 30:-1 31:-1 32:-0.304361 33:-1 34:-1 35:-1 36:-1 37:-1 38:-0.947501 39:-0.851045 40:-0.942017 41:-0.686014 42:-1 43:-1 44:-0.804195 45:-0.880112 46:-1 47:-1 48:-1 49:-1 50:-1 51:-0.798125 52:-0.826669 53:-0.761124 54:-1 55:-0.872877 56:-0.711863 57:-1 58:-0.493838 59:-0.402849 60:-0.653162 61:0.0692028 62:-0.822822 63:0.0237001 64:-0.630721 65:-0.165869 66:0.528585 67:-1 68:-1 69:-1 70:-1 71:-1 72:-0.993066 73:-0.840955 74:-0.941721 75:-1 76:-0.344785 77:-0.900321 78:-1 79:-1 80:-1 81:-0.897849 82:0.563987 83:-0.555371 84:-1 85:-0.751831 86:0.457353 87:-0.586584 88:-0.0479425 89:-1 90:-1 91:-1 92:-1 93:-1 94:-1 95:-1 96:-1 97:-0.887927 98:-1 99:0.419053 100:-0.822008 101:-1 102:-0.658768 103:-0.810424 104:-1 105:-1 106:-0.69668 107:-0.7346 108:-1 109:-0.829378 110:-0.365606 111:-1 112:-1 113:-1 114:-1 115:-1 116:-1 117:-1 118:-1 119:-1 120:-1 121:-0.343702 122:-1 123:-1 124:-1 125:-1 126:-1 127:-1 128:-1 129:-1 130:-1 131:-1 132:-1 
0 0 0 3.389381176386526 8 0 0 0 0 1:-1 2:-1 3:-0.989169 4:-1 5:-1 6:-1 7:-1 8:-1 9:-1 10:-1 11:-1 12:-1 13:-0.507003 14:-0.851896 15:-0.465113 16:-0.60832 17:-1 18:-1 19:-0.647839 20:-1 21:-1 22:-0.419316 23:-1 24:-1 25:-0.822824 26:-1 27:-0.84865 28:-1 29:-1 30:-1 31:-1 32:-0.987582 33:-0.789826 34:-1 35:-0.281754 36:-0.602709 37:-0.355175 38:-0.774596 39:-0.817275 40:-0.146383 41:-0.152621 42:-0.902325 43:-0.816537 44:0.551298 45:-1 46:-1 47:-0.835301 48:-1 49:-1 50:-1 51:-1 52:-0.794456 53:-0.844061 54:-1 55:-1 56:-0.131909 57:-1 58:-0.793021 59:-0.895348 60:-0.829808 61:-1 62:-0.927549 63:-0.441854 64:-0.275187 65:-0.744184 66:-0.503897 67:-1 68:-1 69:-0.670495 70:-1 71:-0.988877 72:-1 73:-1 74:-1 75:-0.681314 76:-1 77:-0.403206 78:-1 79:-1 80:-0.0542697 81:-0.122737 82:-1 83:-1 84:-0.0930298 85:-0.391114 86:-1 87:-1 88:0.0704671 89:-1 90:-1 91:-1 92:-1 93:-1 94:-1 95:-1 96:-1 97:-0.844441 98:-1 99:-1 100:-0.161655 101:-1 102:-0.488376 103:-0.860464 104:-1 105:-1 106:-1 107:-1 108:-0.930232 109:-0.895348 110:-0.741304 111:-1 112:-1 113:-1 114:-1 115:-1 116:-1 117:-1 118:-1 119:-0.98134 120:-1 121:-0.406244 122:-1 123:-1 124:-0.62974 125:-0.845514 126:-1 127:-1 128:-0.023262 129:-0.429543 130:-0.938282 131:-1 132:-0.242118 
0 0 0 0 0 8 0 0 0 1:-1 2:-1 3:-0.964989 4:-1 5:-1 6:-0.978575 7:-1 8:-0.73707 9:-0.811537 10:-1 11:-1 12:-0.270525 13:-0.891271 14:-0.870033 15:-0.217695 16:-0.570358 17:-0.79592 18:-1 19:-0.381932 20:-0.352774 21:-0.532184 22:-0.205717 23:-1 24:-1 25:-0.808969 26:-1 27:-1 28:-1 29:-1 30:-1 31:-0.151044 32:-0.911627 33:-1 34:-1 35:-1 36:-0.44218 37:-1 38:-0.604393 39:-0.358607 40:-0.250908 41:-0.864797 42:-0.714288 43:-0.839004 44:0.333147 45:-1 46:-1 47:-1 48:-1 49:-1 50:-1 51:-1 52:-1 53:-0.611988 54:-1 55:-1 56:0.20128 57:-1 58:-1 59:-1 60:-1 61:-1 62:-1 63:-1 64:-1 65:-1 66:-1 67:-1 68:-1 69:-1 70:-1 71:-1 72:-1 73:-1 74:-1 75:0.00630384 76:-1 77:-0.758697 78:-1 79:-1 80:-0.170075 81:-0.120193 82:-1 83:-1 84:-0.387761 85:-0.109467 86:-1 87:-1 88:0.155057 89:-1 90:-1 91:-1 92:-1 93:-1 94:-1 95:-1 96:-1 97:-0.784355 98:-1 99:-1 100:-0.0930238 101:-1 102:-0.59184 103:-0.755104 104:-1 105:-1 106:-1 107:-1 108:-1 109:-0.632656 110:-0.665115 111:-1 112:-1 113:-1 114:-1 115:-1 116:-1 117:-0.948835 118:-1 119:-1 120:-1 121:-0.493539 122:-1 123:-1 124:-0.870033 125:-0.728866 126:-0.714288 127:-0.747451 128:-0.510209 129:0.00119377 130:-0.675042 131:-1 132:0.156279 
0 0 0 0 0 3.896305424966157 0 0 0 1:-1 2:-1 3:-0.8659 4:-1 5:-1 6:-1 7:-1 8:-1 9:-0.60902 10:-0.982455 11:-1 12:-1 13:-0.683054 14:-0.640197 15:-0.653483 16:-0.619385 17:-0.887 18:-1 19:-0.657803 20:-0.462474 21:-0.870484 22:-0.267947 23:-1 24:-1 25:-0.96342 26:-1 27:-1 28:-0.981968 29:-0.871739 30:-1 31:-0.864525 32:-0.667694 33:-1 34:-1 35:-1 36:-0.768363 37:-0.81202 38:-0.655801 39:-0.733659 40:-0.51612 41:-0.6257 42:-0.873446 43:-0.910856 44:0.0209683 45:-1 46:-1 47:-1 48:-1 49:-1 50:-1 51:-1 52:-1 53:-0.643341 54:-1 55:-0.939108 56:-1 57:-0.430849 58:-0.664778 59:-0.491517 60:-0.17309 61:-1 62:-1 63:-0.593222 64:-1 65:-0.627122 66:-0.157845 67:-1 68:-0.980471 69:-1 70:-1 71:-1 72:-1 73:-0.801914 74:-1 75:-1 76:-0.821157 77:-0.686803 78:-1 79:-1 80:-0.846836 81:-0.878212 82:-0.161024 83:-0.33743 84:-0.796612 85:-0.506925 86:0.650433 87:-1 88:0.165819 89:-1 90:-1 91:-1 92:-1 93:-1 94:-1 95:-1 96:-1 97:-0.93806 98:-1 99:0.476413 100:-0.992984 101:-0.560026 102:-0.638416 103:-0.638416 104:-0.9209 105:-1 106:-0.728816 107:-0.548024 108:-0.593225 109:-0.8983 110:-0.0976287 111:-1 112:-1 113:-1 114:-1 115:-1 116:-1 117:-1 118:-1 119:-1 120:-1 121:-0.100674 122:-1 123:-1 124:-1 125:-1 126:-1 127:-1 128:-1 129:-1 130:-1 131:-1 132:-1 
8 0 8 3.655909496330986 6.363255585572609 8 4.318506870761714 3.596369960157844 2.349361698648727 1:-1 2:-1 3:-0.775689 4:-1 5:-1 6:-1 7:-1 8:-1 9:-1 10:-0.97554 11:-1 12:-1 13:-0.638826 14:-0.368419 15:-0.366397 16:-0.791217 17:-0.83472 18:-0.861757 19:0.00118114 20:-1 21:-1 22:0.0279787 23:-1 24:-1 25:-1 26:-1 27:-0.200531 28:-1 29:-1 30:-1 31:-1 32:-0.837022 33:-0.929752 34:-1 35:-1 36:-0.548206 37:-0.908345 38:-0.725364 39:-0.610397 40:-0.494415 41:-0.452482 42:-0.861159 43:-0.869613 44:0.0759265 45:-1 46:-1 47:-0.324556 48:-1 49:-1 50:-1 51:-1 52:-1 53:0.0357179 54:-1 55:-1 56:-1 57:-0.969485 58:-0.607711 59:-0.256203 60:-1 61:-1 62:-0.794023 63:-0.801663 64:-0.742423 65:-0.636362 66:-0.630212 67:-1 68:-1 69:-1 70:-1 71:-0.942366 72:-1 73:-0.985842 74:-1 75:-1 76:-1 77:-0.0982461 78:-1 79:-1 80:-0.55188 81:-0.64371 82:-0.727271 83:-1 84:-0.404957 85:-0.134479 86:-1 87:-1 88:-0.111313 89:-1 90:-0.962823 91:-1 92:-1 93:-0.972256 94:-1 95:-0.747288 96:-1 97:-0.462757 98:-1 99:-0.771331 100:-0.99022 101:-1 102:-0.801656 103:-0.537192 104:-0.652898 105:-0.438018 106:-0.933888 107:-0.603304 108:-0.504137 109:-0.553726 110:0.214433 111:-1 112:-0.959479 113:-1 114:-1 115:-1 116:-1 117:-0.836118 118:-1 119:-1 120:-1 121:-0.213442 122:-1 123:-1 124:-1 125:-0.780414 126:-1 127:-1 128:-0.801652 129:-0.729702 130:-0.912275 131:-1 132:-0.918737 
0 0 0.571555565030335 0 0 0 0 0 0 1:-1 2:-1 3:0.36554 4:-1 5:-1 6:-1 7:-1 8:-1 9:-0.874361 10:-1 11:-1 12:-0.931617 13:-0.939594 14:-0.352371 15:-0.350282 16:-0.643175 17:-1 18:-0.645607 19:0.026621 20:-0.641649 21:-0.805726 22:0.174474 23:-1 24:-1 25:-0.49058 26:-1 27:-0.798413 28:-1 29:-1 30:-1 31:-0.929259 32:-0.887528 33:-0.802627 34:-1 35:-1 36:-0.305089 37:-0.906005 38:-0.812257 39:-0.467318 40:-0.27418 41:-0.663131 42:-0.95254 43:-0.598867 44:0.150098 45:-1 46:-1 47:-1 48:-1 49:-1 50:-1 51:-1 52:-1 53:-0.211044 54:-1 55:-1 56:-0.369327 57:-1 58:-0.497173 59:-0.389835 60:-1 61:-1 62:-1 63:-1 64:-1 65:-1 66:-0.650328 67:-1 68:-1 69:-1 70:-1 71:-1 72:-1 73:-1 74:-1 75:-0.950916 76:-1 77:-0.0884113 78:-1 79:-1 80:-0.540494 81:-0.817318 82:-0.860162 83:-1 84:0.01695 85:-0.408324 86:-1 87:-1 88:-0.073485 89:-1 90:-1 91:-1 92:-1 93:-1 94:-1 95:-1 96:-1 97:-0.83827 98:-1 99:-0.81261 100:-0.578574 101:-1 102:-0.18644 103:-0.864408 104:-1 105:-1 106:-0.525424 107:-0.796608 108:-0.8983 109:-0.84745 110:0.0171578 111:-1 112:-1 113:-1 114:-1 115:-1 116:-1 117:-1 118:-1 119:-1 120:-1 121:-0.144939 122:-1 123:-1 124:-1 125:-1 126:-1 127:-1 128:-0.796612 129:-0.722834 130:-1 131:-1 132:-0.919819 
0 0 0 0 7.093365703653826 0 0 0 0 1:-1 2:-1 3:-0.823055 4:-1 5:-1 6:-1 7:-1 8:-1 9:-0.777774 10:-1 11:-1 12:-0.930884 13:-0.749694 14:-0.43139 15:-0.178579 16:-0.849625 17:-1 18:-1 19:-0.45919 20:-0.622452 21:-0.795319 22:0.160537 23:-1 24:-1 25:-0.871286 26:-1 27:-0.883576 28:-1 29:-1 30:-1 31:-0.856996 32:-0.861965 33:-0.933507 34:-1 35:-0.972043 36:-0.755954 37:-0.80195 38:-0.851647 39:-0.579078 40:0.0924374 41:-0.526788 42:-0.949998 43:-0.718257 44:0.405432 45:-1 46:-1 47:-1 48:-1 49:-1 50:-1 51:-1 52:-1 53:-0.0457508 54:-1 55:-0.946428 56:-0.757177 57:-1 58:-0.152374 59:-0.196425 60:-1 61:-1 62:-0.888731 63:-0.785703 64:-1 65:-1 66:-0.420355 67:-1 68:-1 69:-1 70:-1 71:-1 72:-1 73:-1 74:-1 75:-0.975191 76:-1 77:0.192307 78:-1 79:-1 80:-0.878962 81:-0.615084 82:-1 83:-1 84:-0.0357179 85:-0.220774 86:-1 87:-1 88:-0.352599 89:-1 90:-1 91:-1 92:-1 93:-1 94:-1 95:-1 96:-1 97:-0.909186 98:-1 99:0.190473 100:-0.851852 101:-1 103:-0.857144 104:-1 105:-1 106:-0.142856 107:-0.785712 108:-0.785716 109:-1 110:-0.119253 111:-1 112:-1 113:-1 114:-1 115:-1 116:-1 117:-1 118:-1 119:-1 120:-1 121:-0.149098 122:-1 123:-1 124:-1 125:-1 126:-1 127:-1 128:-1 129:-1 130:-1 131:-1 132:-1 
0 0 0 0 0 4.050337423757074 0.1529772470036432 0 0 1:-1 2:-1 3:-0.00189631 4:-1 5:-1 6:-1 7:-1 8:-1 9:-0.992415 10:-0.955719 11:-1 12:-1 13:-0.784037 14:-0.40412 15:-0.461985 16:-0.704522 17:-0.76608 18:-0.657626 19:-0.114449 20:-0.938178 21:-0.597836 22:0.172123 23:-1 24:-1 25:-0.492372 26:-1 27:-1 28:-1 29:-1 30:-1 31:-1 32:-0.503165 33:-1 34:-1 35:-1 36:-0.920077 37:-1 38:-0.967611 39:-0.172927 40:-0.642241 41:-1 42:-1 43:-0.261855 44:-0.288534 45:-1 46:-1 47:-0.0348124 48:-1 49:-1 50:-1 51:-1 52:-1 53:-0.250135 54:-1 55:-1 56:-0.84765 57:-0.993099 58:-0.722414 59:-0.894736 60:-1 61:-1 62:-0.927125 63:-0.43859 64:-1 65:-0.871344 66:-0.743828 67:-1 68:-1 69:-0.405818 70:-1 71:-1 72:-1 73:-0.948739 74:-1 75:-0.300355 76:-0.825154 77:-1 78:-1 79:-1 80:-0.128012 81:-0.495775 82:-0.614032 83:-0.725675 84:-0.157902 85:-0.795851 86:-0.820174 87:-0.829958 88:0.0264139 89:-1 90:-1 91:-0.762217 92:-1 93:-0.962336 94:-1 95:-1 96:-0.965106 97:-0.617976 98:-1 99:-0.805988 100:-0.623767 101:-1 102:-0.76608 103:-0.485384 104:-0.345023 105:-1 106:-0.906432 107:-0.672512 108:-0.368417 109:-0.894736 110:-0.146254 111:-1 112:-1 113:-1 114:-1 115:-1 116:-1 117:-1 118:-1 119:-1 120:-1 121:-0.43752 122:-1 123:-1 124:-0.925515 125:-0.844611 126:-0.918128 127:-1 128:-0.859648 129:-0.234943 130:-0.813764 131:-0.891227 132:-0.250772 
2.233939926416728 0 0 0 0 5.245275448667559 0 0 0 1:-1 2:-1 3:-0.122498 4:-1 5:-0.983447 6:-1 7:-1 8:-0.425282 9:-1 10:-0.963739 11:-1 12:-1 13:-0.853397 14:-0.650081 15:-0.0732549 16:-0.629844 17:-0.78022 18:-0.724275 19:0.830461 20:-0.88383 21:-0.370232 22:0.4247 23:-1 24:-1 25:-0.689231 26:-1 27:-1 28:-1 29:-1 30:-1 31:-1 32:-0.44897 33:-1 34:-1 35:-1 36:-0.774718 37:-1 38:-0.939138 39:-0.222915 40:-0.731093 41:-1 42:-0.938462 43:-0.479856 44:-0.318945 45:-1 46:-1 47:-0.92973 48:-1 49:-1 50:-1 51:-1 52:-0.923746 53:-0.607626 54:-1 55:-1 56:-0.172095 57:-1 58:-1 59:-0.802198 60:-0.839161 61:-0.845041 62:-1 63:-1 64:-0.657509 65:-0.758242 66:-0.824446 67:-0.959953 68:-1 69:-0.94232 70:-1 71:-1 72:-1 73:-1 74:-1 75:-0.410794 76:-0.667404 77:-0.904512 78:-1 79:-1 80:-0.404152 81:-0.64468 82:0.269231 83:-0.871117 84:-0.274721 85:-0.52047 86:-0.155219 87:-0.360947 88:0.477443 89:-1 90:-1 91:-1 92:-1 93:-1 94:-1 95:-1 96:-1 97:-0.630224 98:-1 99:-0.908198 100:-0.432051 101:-1 102:-0.824176 103:-0.648352 104:-1 105:-1 106:-0.868128 107:-0.824176 108:-0.868132 109:-0.90109 110:-0.442227 111:-1 112:-1 113:-1 114:-1 115:-1 116:-1 117:-1 118:-1 119:-0.928331 120:-1 121:-0.43608 122:-1 123:-1 124:-0.860035 125:-0.561998 126:-1 127:-1 128:-0.736265 129:-0.460892 130:-0.883348 131:-1 132:-0.456808 
3.528957008155404 0 0 0 0 3.622867443826698 0 0 0 1:-1 2:-1 3:-0.96315 4:-1 5:-1 6:-1 7:-1 8:-0.802381 9:-0.96695 10:-1 11:-1 12:-0.220386 13:-0.879231 14:-0.913351 15:-0.687078 16:-0.197996 17:-1 18:-1 19:-0.587965 20:-0.0651148 21:-0.844054 22:0.117268 23:-1 24:-1 25:-0.480701 26:-1 27:-1 28:-1 29:-1 30:-1 31:-0.106655 32:-0.970413 33:-0.976919 34:-1 35:-0.956344 36:-0.72109 37:-0.773657 38:-0.510206 39:-0.679304 40:-0.500606 41:-0.729593 42:-0.580952 43:-0.785344 44:0.456711 45:-1 46:-1 47:-1 48:-1 49:-1 50:-1 51:-1 52:-1 53:-0.925144 54:-1 55:-1 56:0.390492 57:-1 58:-1 59:-1 60:-1 61:-1 62:-1 63:-1 64:-1 65:-1 66:-1 67:-1 68:-1 69:-1 70:-1 71:-1 72:-1 73:-0.797655 74:-1 75:-0.057315 76:-1 77:-0.774295 78:-1 79:-1 80:-0.723358 81:0.17309 82:-1 83:-1 84:-0.673469 85:-0.16883 86:-0.895404 87:-1 88:-0.0223303 89:-1 90:-1 91:-1 92:-1 93:-1 94:-1 95:-1 96:-1 97:-0.933819 98:-1 99:-1 100:0.00741867 101:-1 102:-0.782312 103:-0.945576 104:-1 105:-1 106:-1 107:-1 108:-1 109:-1 110:-0.935676 111:-1 112:-0.680464 113:-1 114:-1 115:-0.957874 116:-1 117:-0.710623 118:-1 119:-0.872952 120:-1 121:-0.716229 122:-1 123:-1 124:-0.653418 125:0.446067 126:-0.619046 127:-0.663276 128:-0.673469 129:0.223692 130:-0.494507 131:-0.873464 132:0.214155 
0.3680956834069618 0 0 0.314807905520793 0 0 0 0 0 1:-1 2:-1 3:-0.855566 4:-1 5:-1 6:-1 7:-1 8:-1 9:-0.179404 10:-1 11:-1 12:-1 13:-0.759137 14:-0.838777 15:-0.611822 16:-0.573617 17:-1 18:-1 19:-0.616645 20:-0.59855 21:-0.709839 22:-0.476013 23:-1 24:-1 25:-1 26:-1 27:-1 28:-1 29:-1 30:-1 31:-0.319061 32:-0.790115 33:-1 34:-1 35:-1 36:-0.481007 37:-1 38:-0.789677 39:-0.20434 40:-0.0707443 41:-0.832281 42:-1 43:-0.201127 44:0.326636 45:-1 46:-1 47:-1 48:-1 49:-1 50:-1 51:-1 52:-1 53:0.120386 54:-1 55:-1 56:-1 57:-0.567765 58:-0.699583 59:-0.772156 60:-1 61:-1 62:-1 63:-1 64:-1 65:-1 66:-0.925391 67:-1 68:-1 69:-1 70:-1 71:-1 72:-1 73:-1 74:-1 75:-0.595022 76:-1 77:-0.576047 78:-1 79:-1 80:-0.142055 81:-0.181432 82:-1 83:-1 84:0.0632939 85:-0.116221 86:-1 87:-1 88:0.434456 89:-1 90:-1 91:-1 92:-1 93:-1 94:-1 95:-1 96:-1 97:-0.579938 98:-1 99:-0.595097 100:-0.987403 101:-0.375522 102:-0.6962 103:-0.291136 104:-1 105:-1 106:-0.898736 107:-0.594936 108:-0.696209 109:-0.772156 110:-0.0426659 111:-1 112:-1 113:-1 114:-1 115:-1 116:-1 117:-1 118:-1 119:-1 120:-1 121:-0.321706 122:-1 123:-1 124:-1 125:-1 126:-1 127:-1 128:-0.544301 129:-0.586008 130:-0.865631 131:-1 132:-0.658963 
2.22603390735585 0 0 0 0 0 0 0 0 1:-1 2:-1 3:-1 4:-1 5:-1 6:-1 7:-1 8:-1 9:-0.855975 10:-0.723542 11:-1 12:-0.251817 13:-0.994169 14:-0.84079 15:-0.904167 16:-0.157895 17:-0.625 18:-1 19:-1 20:-0.00892758 21:-0.426921 22:0.247845 23:-1 24:-1 25:-1 26:-1 27:-1 28:-0.852254 29:-0.992656 30:-1 31:-0.607328 32:-0.740206 33:-0.947075 34:-1 35:-1 36:-1 37:-0.930682 38:-0.446154 39:-0.705358 40:-0.770589 41:-0.751562 42:-0.65 43:-0.704168 44:0.190024 45:-0.971617 46:-1 47:-1 48:-1 49:-1 50:-1 51:-1 52:-1 53:-0.775268 54:-1 55:-1 56:0.166854 57:-1 58:-0.851666 59:-0.8875 60:-0.634091 61:-0.82375 62:-1 63:-1 64:-0.610416 65:-0.8625 66:-0.788793 67:-1 68:-1 69:-1 70:-1 71:-1 72:-1 73:-0.961598 74:-1 75:-0.194455 76:-1 77:-0.780008 78:-0.946497 79:-1 80:-0.661111 81:-0.595835 82:-0.0718741 83:-0.706817 84:-0.700001 85:-0.454544 86:-0.135154 87:-0.818269 88:0.302461 89:-1 90:-1 91:-1 92:-1 93:-1 94:-1 95:-1 96:-1 97:-1 98:-1 99:-1 100:0.14966 101:-1 102:-1 103:-1 104:-1 105:-1 106:-1 107:-1 108:-1 109:-1 110:-1 111:-0.984068 112:-1 113:-1 114:-1 115:-1 116:-1 117:-1 118:-1 119:-0.664942 120:-1 121:-0.695239 122:-0.4063 123:-1 124:-0.442764 125:-0.501787 126:-0.9125 127:-0.845312 128:-0.400001 129:-0.591176 130:-0.867308 131:-0.535001 132:-0.0770341 
0 0 0.2951927332882776 0 2.111810217238319 0 0 0 0 1:-1 2:-1 3:-0.238546 4:-1 5:-0.556323 6:-0.86021 7:-1 8:-1 9:-1 10:-1 11:-1 12:-0.900854 13:-0.986863 14:-0.184843 15:-0.754667 16:-0.461053 17:-0.68 18:-0.665454 19:-0.515431 20:-0.746285 21:-0.633229 22:0.229548 23:-1 24:-1 25:-1 26:-1 27:-0.7808 28:-1 29:-0.685519 30:-1 31:-1 32:-0.851496 33:-1 34:-1 35:-1 36:-0.343998 37:-1 38:-0.689846 39:-0.748572 40:-0.412708 41:-0.575999 42:-0.9552 43:-0.873778 44:0.042214 45:-1 46:-1 47:-0.782779 48:-1 49:-0.957859 50:-1 51:-1 52:-1 53:-0.80311 54:-1 55:-1 56:0.142946 57:-1 58:-0.525332 59:-0.279999 60:-1 61:-1 62:-0.900308 63:-1 64:-0.501332 65:-0.471999 66:-0.51703 67:-1 68:-1 69:-1 70:-1 71:-1 72:-1 73:-0.596238 74:-1 75:-1 76:-0.89845 77:-0.854229 78:-1 79:-1 80:-1 81:-0.827556 82:-0.868 83:-0.249452 84:-0.328001 85:-0.860363 86:-0.261998 87:-1 88:0.130028 89:-1 90:-1 91:-1 92:-1 93:-1 94:-1 95:-1 96:-1 97:-1 98:-1 99:-1 100:0.30498 101:-1 102:-0.552 103:-1 104:-1 105:-1 106:-1 107:-1 108:-1 109:-0.856 110:-0.867209 111:-1 112:-1 113:-1 114:-1 115:-1 116:-1 117:-0.860917 118:-1 119:-1 120:-1 121:-0.52797 122:-0.959466 123:-1 124:-0.694316 125:-1 126:-1 127:-0.604 128:-0.136002 129:-0.869176 130:-0.745231 131:-0.7024 132:-0.17215 
0 0 0 7.429156077844834 0 0 0 0 0 1:-1 2:-1 3:-0.855351 4:-1 5:-1 6:-1 7:-1 8:-0.980599 9:-0.959447 10:-1 11:-1 12:-0.894061 13:-0.575794 14:-0.658067 15:-0.588362 16:-0.491343 17:-1 18:-1 19:-0.593476 20:-0.361453 21:-0.846163 22:-0.167216 23:-1 24:-1 25:-1 26:-1 27:-1 28:-1 29:-0.819215 30:-1 31:-1 32:-0.838211 33:-1 34:-1 35:-0.642944 36:-0.541386 37:-0.627823 38:-0.851314 39:-0.894542 40:0.149625 41:-0.64429 42:-1 43:-0.894116 44:0.254617 45:-1 46:-1 47:-1 48:-1 49:-1 50:-1 51:-1 52:-1 53:-0.659388 54:-1 55:-1 56:0.225116 57:-1 58:-0.442503 59:-0.637588 60:-0.803536 61:-1 62:-1 63:-1 64:-1 65:-0.557052 66:-0.692767 67:-1 68:-1 69:-1 70:-1 71:-1 72:-1 73:-0.664453 74:-1 75:-1 76:-0.849295 77:-0.916934 78:-1 79:-1 80:-0.454145 81:-1 82:-0.557041 83:-0.685168 84:-0.0335579 85:-0.414276 86:-0.690439 87:-1 88:0.416572 89:-1 90:-1 91:-1 92:-1 93:-1 94:-1 95:-1 96:-1 97:-1 98:-1 99:-1 100:0.0975261 101:-1 102:-0.24832 103:-1 104:-1 105:-1 106:-1 107:-1 108:-1 109:-0.879202 110:-0.88885 111:-1 112:-1 113:-1 114:-1 115:-1 116:-1 117:-0.78865 118:-1 119:-1 120:-1 121:-0.643376 122:-0.942258 123:-1 124:-0.914523 125:-1 126:-1 127:-0.501683 128:-0.0335579 129:-0.670749 130:-0.85751 131:-0.625508 132:-0.113058 
0 3.361898168333783 2.834775265247351 6.213284654177172 8 0 3.145072649556928 0 8 1:-1 2:-1 3:-1 4:-1 5:-1 6:-1 7:-1 8:-1 9:-0.833184 10:-1 11:-1 12:-1 13:-0.494737 14:-0.700315 15:-0.909809 16:-0.75232 17:-1 18:-1 19:-1 20:-0.751265 21:-0.865166 22:-0.633516 23:-1 24:-1 25:-0.978856 26:-1 27:-1 28:-1 29:-0.883792 30:-1 31:-0.929544 32:-0.983998 33:-0.475877 34:-1 35:-0.467523 36:-0.678436 37:-0.478073 38:-0.739365 39:-0.722691 40:-0.496201 41:-0.22058 42:-0.901177 43:-0.907195 44:0.362608 45:-0.902404 46:-1 47:-1 48:-1 49:-1 50:-0.961666 51:-1 52:-1 53:-0.789639 54:-1 55:-1 56:-0.715897 57:-0.577883 58:-0.650977 59:-0.682354 60:0.0331514 61:-0.668227 62:-1 63:-1 64:-0.175001 65:-0.223531 66:-0.0927995 67:-1 68:-0.991532 69:-1 70:-1 71:-1 72:-1 73:-0.740284 74:-1 75:-1 76:-1 77:-0.363683 78:-1 79:-1 80:-0.441837 81:-0.873211 82:-0.708824 83:-0.724056 84:-0.0823498 85:-0.486625 86:-0.638241 87:-1 88:0.214424 89:-1 90:-1 91:-1 92:-1 93:-1 94:-1 95:-1 96:-1 97:-0.982107 98:-1 99:-1 100:-0.15766 101:-1 102:-0.29412 103:-0.952944 104:-1 105:-1 106:-1 107:-1 108:-1 109:-0.78823 110:-0.683606 111:-1 112:-1 113:-1 114:-1 115:-1 116:-1 117:-0.944806 118:-1 119:-1 120:-1 121:-0.414893 122:-1 123:-1 124:-1 125:-1 126:-1 127:-0.85442 128:0.0588179 129:-0.807607 130:-0.87511 131:-0.890595 132:-0.483424 
1.228415612829802 0 4.43572638461283 0 8 0 1.575442269626703 0 7.999735854712259 1:-1 2:-1 3:-1 4:-1 5:0.41959 6:-0.891719 7:-1 8:-1 9:-0.992066 10:-1 11:-1 12:-0.884799 13:-0.958791 14:-0.383703 15:-0.752689 16:-0.0492379 17:-0.89248 18:-1 19:-1 20:-1 21:-0.630272 22:0.267765 23:-1 24:-1 25:-1 26:-1 27:-0.257797 28:-0.964303 29:-0.853847 30:-1 31:-1 32:-0.756409 33:-1 34:-1 35:-0.923128 36:-1 37:-0.88074 38:-0.583125 39:-0.91552 40:-0.342196 41:-0.57258 42:-1 43:-1 44:-0.0283224 45:-1 46:-1 47:-1 48:-1 49:-0.985308 50:-1 51:-1 52:-1 53:-1 54:-1 55:-1 56:0.126852 57:-1 58:-0.808602 59:-1 60:-1 61:-1 62:-1 63:-1 64:0.508064 65:-0.645162 66:-0.268903 67:-1 68:-0.987117 69:-1 70:-1 71:-0.949991 72:-0.963468 73:-0.842511 74:-1 75:-1 76:-0.9764 77:-0.56982 78:-0.614913 79:-1 80:-0.271213 81:-0.884118 82:-0.201614 83:-0.495608 84:-0.354845 85:-0.624639 86:0.322591 87:-0.843682 88:0.252367 89:-1 90:-1 91:-1 92:-1 93:-1 94:-1 95:-1 96:-1 97:-1 98:-1 99:-1 101:-1 102:-1 103:-1 104:-1 105:-1 106:-1 107:-1 108:-1 109:-1 110:-1 111:-1 112:-1 113:-1 114:-1 115:-1 116:-1 117:-0.938593 118:-1 119:-1 120:-1 121:-0.670941 122:-0.326589 123:-1 124:-0.178271 125:-1 126:-1 127:-0.600807 128:-0.0967738 129:-1 130:-0.885853 131:-0.400002 132:-0.357352 
0 0 0 0 8 0 3.034963966954554 0 0 1:-1 2:-1 3:-1 4:-1 5:-1 6:-1 7:-1 8:-0.730301 9:-0.80266 10:-0.938304 11:-1 12:-1 13:-0.967471 14:-0.231396 15:-0.735638 16:-0.564429 17:-0.65518 18:-0.711596 19:-0.738908 20:-0.908864 21:-0.407161 22:0.69417 23:-1 24:-1 25:-1 26:-1 27:-1 28:-1 29:-1 30:-0.812871 31:-1 32:-0.32941 33:-1 34:-1 35:-1 36:-0.882179 37:-1 38:-1 39:-0.187196 40:-0.472624 41:-1 42:-0.951722 43:-0.591957 44:-0.36192 45:-1 46:-1 47:-1 48:-0.973369 49:-1 50:-1 51:-1 52:-0.455163 53:-0.895523 54:-1 55:-1 56:-0.258747 57:-1 58:-0.48851 59:-0.844822 60:-0.747655 61:-0.756888 62:-0.67772 63:-0.37931 64:-0.596983 65:-0.620698 66:-0.35671 67:-1 68:-1 69:-1 70:-1 71:-1 72:-1 73:-0.964289 74:-0.151947 75:-0.933908 76:-0.8114 77:-1 78:-0.378225 79:-1 80:0.168584 81:-1 82:-1 83:0.010965 84:-0.275861 85:-0.849524 86:-1 87:-0.248012 88:-0.061279 89:-1 90:-1 91:-1 92:-1 93:-1 94:-1 95:-1 96:-1 97:-1 98:-1 99:-1 100:0.151173 101:-1 102:-1 103:-1 104:-1 105:-1 106:-1 107:-1 108:-1 109:-1 110:-1 111:-1 112:-1 113:-1 114:-1 115:-1 116:-1 117:-1 118:-1 119:-0.918723 120:-1 121:-0.917353 122:0.187674 123:-1 124:0.317599 125:-0.770928 126:-1 127:-1 128:0.0344819 129:-0.57708 130:-0.908485 131:-0.83965 132:0.0178358 
0 0 0 0 0 8 0 0 0 1:-1 2:-1 3:-0.40138 4:-1 5:-1 6:-1 7:-1 8:-1 9:-0.835918 10:-1 11:-1 12:-1 13:-0.703577 14:-0.844674 15:-0.345528 16:-0.537869 17:-1 18:-0.948998 19:0.107998 20:-0.484325 21:-0.860215 22:-0.182042 23:-1 24:-1 25:0.0281614 26:-1 27:-0.936183 28:-1 29:-0.995183 30:-1 31:-0.742419 32:-0.944041 33:-0.923621 34:-1 35:-0.859888 36:-0.416664 37:-0.661861 38:-0.69606 39:-0.329269 40:-0.626971 41:-0.515247 42:-0.658535 43:-0.807591 44:0.333648 45:-1 46:-1 47:-1 48:-1 49:-1 50:-1 51:-1 52:-1 53:0.0237028 54:-1 55:-1 56:-1 57:-0.782852 58:-1 59:-0.670726 60:-1 61:-1 62:-1 63:-1 64:-1 65:-1 66:-0.932374 67:-1 68:-1 69:-1 70:-1 71:-1 72:-1 73:-1 74:-1 75:-0.456059 76:-1 77:-0.401557 78:-1 79:-1 80:-0.752028 81:0.314365 82:-0.899383 83:-1 84:-0.634145 85:0.170732 86:-0.812501 87:-1 88:0.14074 89:-1 90:-1 91:-1 92:-1 93:-1 94:-1 95:-1 96:-1 97:-0.596054 98:-1 99:-0.059228 100:-0.994198 101:-0.653219 102:-0.80488 103:-0.365856 104:-0.743898 105:-1 106:-0.853656 107:-0.414632 108:-0.634145 109:-0.890236 110:0.208624 111:-1 112:-1 113:-1 114:-1 115:-1 116:-1 117:-1 118:-1 119:-1 120:-1 121:-0.300311 122:-1 123:-1 124:-1 125:-1 126:-1 127:-1 128:-1 129:-0.800576 130:-0.935267 131:-1 132:-0.928667 
0 5.070620668432036 8 0 8 0 2.785847331551391 0.531870623159669 8 1:-1 2:-1 3:-1 4:-1 5:-0.606725 6:-0.75949 7:-1 8:-1 9:-0.987698 10:-1 11:-1 12:-1 13:-0.657837 14:-0.557408 15:-0.70399 16:-0.804918 17:-0.6139 18:-0.83854 19:-0.415337 20:-0.795918 21:-0.822987 22:-0.176541 23:-1 24:-1 25:-1 26:-1 27:-0.548946 28:-0.459082 29:-0.872848 30:-1 31:-1 32:-1 33:-0.856879 34:-1 35:-0.595691 36:-0.736164 37:-0.57178 38:-0.722008 39:-1 40:-0.480356 41:-0.488416 42:-0.827027 43:-0.817247 44:0.00114728 45:-1 46:-1 47:-0.713186 48:-1 49:-0.458794 50:-1 51:-1 52:-0.569892 53:-0.996623 54:-1 55:-1 56:-0.941205 57:-0.809772 58:-0.358558 59:-0.513514 60:-0.604423 61:-0.346719 62:-0.566974 63:-0.351349 64:-0.819498 65:-0.57529 66:0.012534 67:-1 68:-1 69:-0.892992 70:-1 71:-0.699404 72:-1 73:-0.608821 74:-1 75:-1 76:-1 77:-0.793534 78:-1 79:-1 80:-0.633634 81:-0.25097 82:-0.362934 83:-0.818883 84:-0.675677 85:-0.326078 86:-0.40637 87:-1 88:0.194917 89:-1 90:-1 91:-1 92:-1 93:-1 94:-1 95:-1 96:-1 97:-0.793594 98:-1 99:-0.923127 100:-0.316039 101:-1 102:-0.629344 103:-0.876448 104:-0.945946 105:-1 106:-0.907336 107:-0.907336 108:-0.722009 109:-0.791506 110:-0.536006 111:-1 112:-1 113:-1 114:-1 115:-1 116:-1 117:-1 118:-1 119:-1 120:-1 121:-0.34069 122:-1 123:-1 124:-1 125:-1 126:-1 127:-1 128:-0.675677 129:-0.684306 130:-1 131:-1 132:-0.764196 
8 0 0 2.764979930761805 1.550616342732293 0 0.801823029985457 0.2820287560824336 0 1:-1 2:-1 3:-1 4:-1 5:-1 6:-1 7:-1 8:-1 9:-0.659668 10:-0.760313 11:-1 12:-0.0460848 13:-1 14:-0.863041 15:-1 16:-0.366156 17:-0.13978 18:-1 19:-1 20:-0.545312 21:0.478911 22:-0.0234366 23:-1 24:-1 25:-1 26:-1 27:-1 28:-1 29:-1 30:-1 31:-0.788547 32:-0.459716 33:-1 34:-1 35:-1 36:-0.706097 37:-1 38:-0.940445 39:0.182796 40:-0.868434 41:-1 42:-0.879572 43:-0.6607 44:-0.166306 45:-1 46:-1 47:-1 48:-1 49:-1 50:-1 51:-1 52:-1 53:-0.420126 54:-1 55:-1 56:-0.192125 57:-1 58:-1 59:-1 60:-1 61:-1 62:-1 63:-1 64:-1 65:-1 66:-1 67:-1 68:-1 69:-1 70:-1 71:-1 72:-1 73:-0.990089 74:-1 75:0.375502 76:-0.956384 77:-0.979963 78:-1 79:-1 80:0.166076 81:-1 82:-1 83:-0.2434 84:-0.0967738 85:-0.624639 86:-1 87:0.250629 88:0.348177 89:-1 90:-1 91:-1 92:-1 93:-1 94:-1 95:-1 96:-1 97:-0.315163 98:-1 99:-0.959987 100:-0.466033 101:-1 102:-1 103:-0.655912 104:-0.849458 105:-1 106:-1 107:-0.913976 108:-0.612905 109:-1 110:-0.721944 111:-1 112:-1 113:-1 114:-1 115:-1 116:-1 117:-1 118:-1 119:-0.413601 120:-1 121:-0.685448 122:-1 123:-1 124:-0.726095 125:1 126:-1 127:-1 128:-0.483869 129:0.230871 130:-0.657569 131:-1 132:0.413433 
